{"parameters/convs.0.lin_key.weight": {"_type": "histogram", "values": [1.0, 0.0, 1.0, 0.0, 1.0, 0.0, 1.0, 0.0, 3.0, 3.0, 3.0, 2.0, 4.0, 7.0, 4.0, 3.0, 8.0, 4.0, 9.0, 5.0, 6.0, 6.0, 14.0, 10.0, 7.0, 4.0, 8.0, 4.0, 8.0, 8.0, 7.0, 10.0, 5.0, 8.0, 9.0, 13.0, 3.0, 12.0, 1.0, 10.0, 8.0, 9.0, 8.0, 6.0, 9.0, 8.0, 5.0, 6.0, 5.0, 11.0, 6.0, 6.0, 3.0, 4.0, 3.0, 7.0, 1.0, 0.0, 3.0, 1.0, 1.0, 0.0, 1.0, 1.0], "bins": [-0.7231084108352661, -0.7013806104660034, -0.6796528697013855, -0.6579250693321228, -0.6361973285675049, -0.6144695281982422, -0.5927417278289795, -0.5710139870643616, -0.5492862462997437, -0.527558445930481, -0.505830705165863, -0.48410290479660034, -0.4623751640319824, -0.4406473636627197, -0.4189195930957794, -0.3971918225288391, -0.3754640221595764, -0.3537362515926361, -0.3320084810256958, -0.3102806806564331, -0.2885529398918152, -0.2668251395225525, -0.24509736895561218, -0.22336959838867188, -0.20164182782173157, -0.17991405725479126, -0.15818628668785095, -0.13645850121974945, -0.11473073065280914, -0.09300296008586884, -0.07127517461776733, -0.049547404050827026, -0.02781963348388672, -0.006091859191656113, 0.015635915100574493, 0.0373636931180954, 0.059091463685035706, 0.08081923425197601, 0.10254701972007751, 0.12427479028701782, 0.14600256085395813, 0.16773033142089844, 0.18945810198783875, 0.21118588745594025, 0.23291365802288055, 0.25464141368865967, 0.27636921405792236, 0.29809698462486267, 0.319824755191803, 0.3415525257587433, 0.3632802963256836, 0.3850080966949463, 0.4067358374595642, 0.4284636378288269, 0.4501914083957672, 0.4719191789627075, 0.4936469495296478, 0.5153747200965881, 0.5371025204658508, 0.5588302612304688, 0.5805580615997314, 0.6022858023643494, 0.6240136027336121, 0.64574134349823, 0.6674691438674927]}, "_timestamp": 1668730658.2841597, "parameters/convs.0.lin_key.bias": {"_type": "histogram", "values": [2.0, 3.0, 1.0, 1.0, 1.0, 4.0, 4.0, 0.0, 0.0, 1.0, 2.0, 1.0, 1.0, 1.0, 0.0, 2.0, 1.0, 4.0, 1.0, 3.0, 2.0, 0.0, 1.0, 2.0, 1.0, 2.0, 1.0, 0.0, 1.0, 0.0, 1.0, 0.0, 1.0, 2.0, 1.0, 0.0, 1.0, 1.0, 2.0, 1.0, 0.0, 2.0, 1.0, 1.0, 0.0, 2.0, 0.0, 0.0, 2.0, 3.0, 1.0, 2.0, 0.0, 0.0, 1.0, 0.0, 0.0, 2.0, 1.0, 0.0, 2.0, 4.0, 3.0, 1.0], "bins": [-0.4959407448768616, -0.4805634617805481, -0.4651861786842346, -0.44980892539024353, -0.43443164229393005, -0.4190543591976166, -0.4036771059036255, -0.388299822807312, -0.37292253971099854, -0.35754525661468506, -0.3421679735183716, -0.3267907202243805, -0.311413437128067, -0.29603615403175354, -0.28065890073776245, -0.265281617641449, -0.2499043345451355, -0.23452705144882202, -0.21914978325366974, -0.20377251505851746, -0.18839523196220398, -0.1730179488658905, -0.15764068067073822, -0.14226341247558594, -0.12688612937927246, -0.11150885373353958, -0.0961315780878067, -0.08075430244207382, -0.06537702679634094, -0.04999975115060806, -0.03462247550487518, -0.019245199859142303, -0.003867924213409424, 0.011509351432323456, 0.026886627078056335, 0.042263902723789215, 0.057641178369522095, 0.07301845401525497, 0.08839572966098785, 0.10377300530672073, 0.11915028095245361, 0.1345275640487671, 0.14990483224391937, 0.16528210043907166, 0.18065938353538513, 0.1960366666316986, 0.2114139348268509, 0.22679120302200317, 0.24216848611831665, 0.2575457692146301, 0.2729230523109436, 0.2883003056049347, 0.30367758870124817, 0.31905487179756165, 0.33443212509155273, 0.3498094081878662, 0.3651866912841797, 0.38056397438049316, 0.39594125747680664, 0.41131851077079773, 0.4266957938671112, 0.4420730769634247, 0.45745033025741577, 0.47282761335372925, 0.4882048964500427]}, "parameters/convs.0.lin_query.weight": {"_type": "histogram", "values": [1.0, 0.0, 1.0, 0.0, 1.0, 0.0, 0.0, 0.0, 0.0, 0.0, 5.0, 3.0, 6.0, 3.0, 4.0, 6.0, 3.0, 4.0, 7.0, 10.0, 5.0, 7.0, 4.0, 7.0, 10.0, 8.0, 11.0, 8.0, 7.0, 5.0, 9.0, 14.0, 10.0, 10.0, 7.0, 11.0, 13.0, 9.0, 7.0, 11.0, 5.0, 7.0, 7.0, 9.0, 5.0, 4.0, 12.0, 4.0, 5.0, 9.0, 4.0, 3.0, 7.0, 6.0, 4.0, 1.0, 1.0, 1.0, 0.0, 0.0, 1.0, 1.0, 0.0, 1.0], "bins": [-0.8163045644760132, -0.7919857501983643, -0.7676669359207153, -0.7433481216430664, -0.7190293073654175, -0.6947104334831238, -0.6703916192054749, -0.6460728049278259, -0.621753990650177, -0.5974351763725281, -0.5731163620948792, -0.5487975478172302, -0.5244786739349365, -0.5001598596572876, -0.47584104537963867, -0.45152223110198975, -0.4272034168243408, -0.4028846025466919, -0.37856578826904297, -0.35424694418907166, -0.32992812991142273, -0.3056093156337738, -0.2812904715538025, -0.25697165727615356, -0.23265284299850464, -0.2083340287208557, -0.1840151995420456, -0.15969637036323547, -0.13537755608558655, -0.11105873435735703, -0.0867399126291275, -0.06242108345031738, -0.03810226917266846, -0.013783447444438934, 0.010535374283790588, 0.03485419601202011, 0.059173017740249634, 0.08349183946847916, 0.10781066119670868, 0.1321294903755188, 0.15644830465316772, 0.18076711893081665, 0.20508594810962677, 0.2294047772884369, 0.2537235915660858, 0.27804240584373474, 0.30236124992370605, 0.326680064201355, 0.3509988784790039, 0.37531769275665283, 0.39963650703430176, 0.42395535111427307, 0.448274165391922, 0.4725929796695709, 0.49691182374954224, 0.5212306380271912, 0.5455494523048401, 0.569868266582489, 0.5941870808601379, 0.6185058951377869, 0.6428247690200806, 0.6671435832977295, 0.6914623975753784, 0.7157812118530273, 0.7401000261306763]}, "parameters/convs.0.lin_query.bias": {"_type": "histogram", "values": [1.0, 0.0, 0.0, 1.0, 0.0, 0.0, 2.0, 0.0, 1.0, 2.0, 1.0, 2.0, 2.0, 2.0, 0.0, 1.0, 2.0, 1.0, 1.0, 1.0, 1.0, 1.0, 3.0, 0.0, 3.0, 1.0, 1.0, 0.0, 4.0, 2.0, 0.0, 2.0, 1.0, 3.0, 1.0, 3.0, 1.0, 0.0, 0.0, 3.0, 1.0, 4.0, 0.0, 1.0, 1.0, 1.0, 0.0, 4.0, 1.0, 1.0, 1.0, 0.0, 2.0, 3.0, 2.0, 2.0, 1.0, 0.0, 1.0, 1.0, 1.0, 1.0, 0.0, 2.0], "bins": [-0.521847128868103, -0.5059409141540527, -0.49003466963768005, -0.47412845492362976, -0.4582222104072571, -0.4423159956932068, -0.4264097809791565, -0.4105035364627838, -0.39459729194641113, -0.37869107723236084, -0.36278483271598816, -0.34687861800193787, -0.3309723734855652, -0.3150661587715149, -0.2991599440574646, -0.2832536995410919, -0.2673474848270416, -0.25144127011299133, -0.23553502559661865, -0.21962881088256836, -0.20372256636619568, -0.18781635165214539, -0.1719101220369339, -0.1560038924217224, -0.14009766280651093, -0.12419143319129944, -0.10828520357608795, -0.09237898141145706, -0.07647275179624557, -0.06056652218103409, -0.0446603000164032, -0.02875407040119171, -0.012847870588302612, 0.0030583571642637253, 0.018964584916830063, 0.03487081080675125, 0.05077704042196274, 0.06668327003717422, 0.08258949220180511, 0.0984957218170166, 0.11440195143222809, 0.13030818104743958, 0.14621441066265106, 0.16212064027786255, 0.17802685499191284, 0.19393309950828552, 0.20983931422233582, 0.2257455438375473, 0.2416517734527588, 0.2575579881668091, 0.27346423268318176, 0.28937044739723206, 0.30527669191360474, 0.32118290662765503, 0.3370891213417053, 0.352995365858078, 0.3689016103744507, 0.384807825088501, 0.40071406960487366, 0.41662028431892395, 0.43252652883529663, 0.4484327435493469, 0.4643389582633972, 0.4802452027797699, 0.4961514174938202]}, "parameters/convs.0.lin_value.weight": {"_type": "histogram", "values": [1.0, 0.0, 0.0, 0.0, 0.0, 0.0, 0.0, 0.0, 0.0, 0.0, 0.0, 0.0, 0.0, 0.0, 0.0, 0.0, 1.0, 0.0, 0.0, 0.0, 0.0, 1.0, 2.0, 1.0, 0.0, 0.0, 0.0, 1.0, 2.0, 4.0, 2.0, 1.0, 3.0, 7.0, 3.0, 6.0, 12.0, 14.0, 10.0, 11.0, 16.0, 13.0, 13.0, 13.0, 11.0, 13.0, 14.0, 17.0, 11.0, 15.0, 8.0, 12.0, 15.0, 17.0, 14.0, 9.0, 4.0, 8.0, 5.0, 4.0, 4.0, 2.0, 2.0, 2.0], "bins": [-2.358905553817749, -2.308274507522583, -2.257643461227417, -2.20701265335083, -2.156381607055664, -2.105750560760498, -2.055119514465332, -2.004488706588745, -1.953857660293579, -1.903226613998413, -1.8525956869125366, -1.8019646406173706, -1.7513337135314941, -1.7007026672363281, -1.6500717401504517, -1.5994406938552856, -1.5488097667694092, -1.4981787204742432, -1.4475477933883667, -1.3969167470932007, -1.3462858200073242, -1.2956547737121582, -1.2450238466262817, -1.1943928003311157, -1.1437617540359497, -1.0931307077407837, -1.0424997806549072, -0.991868793964386, -0.9412378072738647, -0.8906067609786987, -0.8399758338928223, -0.7893447875976562, -0.7387139201164246, -0.6880829334259033, -0.6374519467353821, -0.5868209600448608, -0.5361899733543396, -0.48555895686149597, -0.43492797017097473, -0.3842969834804535, -0.33366599678993225, -0.283035010099411, -0.23240402340888977, -0.18177302181720734, -0.1311420351266861, -0.08051103353500366, -0.029880046844482422, 0.02075093984603882, 0.07138192653656006, 0.1220129132270813, 0.17264389991760254, 0.22327490150928497, 0.273905873298645, 0.32453688979148865, 0.3751678764820099, 0.42579886317253113, 0.47642984986305237, 0.527060866355896, 0.5776918530464172, 0.6283228397369385, 0.6789538264274597, 0.729584813117981, 0.7802157998085022, 0.8308467864990234, 0.8814777731895447]}, "parameters/convs.0.lin_value.bias": {"_type": "histogram", "values": [1.0, 0.0, 1.0, 0.0, 1.0, 1.0, 1.0, 1.0, 0.0, 3.0, 0.0, 2.0, 2.0, 1.0, 1.0, 0.0, 0.0, 1.0, 1.0, 0.0, 1.0, 1.0, 0.0, 3.0, 3.0, 0.0, 1.0, 1.0, 0.0, 6.0, 1.0, 2.0, 2.0, 1.0, 1.0, 2.0, 4.0, 4.0, 1.0, 2.0, 1.0, 0.0, 1.0, 0.0, 3.0, 1.0, 2.0, 4.0, 1.0, 0.0, 2.0, 2.0, 2.0, 3.0, 1.0, 1.0, 2.0, 0.0, 0.0, 0.0, 1.0, 0.0, 0.0, 1.0], "bins": [-0.5150396227836609, -0.4985572397708893, -0.48207488656044006, -0.46559250354766846, -0.44911015033721924, -0.43262776732444763, -0.416145384311676, -0.3996630311012268, -0.3831806480884552, -0.3666982650756836, -0.3502159118652344, -0.33373352885246277, -0.31725114583969116, -0.30076879262924194, -0.28428640961647034, -0.26780402660369873, -0.2513216733932495, -0.2348393052816391, -0.2183569371700287, -0.20187455415725708, -0.18539218604564667, -0.16890981793403625, -0.15242743492126465, -0.13594506680965424, -0.11946269869804382, -0.10298033058643341, -0.0864979550242424, -0.07001557946205139, -0.05353321135044098, -0.037050843238830566, -0.020568467676639557, -0.004086092114448547, 0.012396275997161865, 0.028878647834062576, 0.04536101967096329, 0.061843391507864, 0.07832576334476471, 0.09480813145637512, 0.11129050701856613, 0.12777288258075714, 0.14425525069236755, 0.16073761880397797, 0.17721998691558838, 0.19370236992835999, 0.2101847380399704, 0.2266671061515808, 0.24314948916435242, 0.259631872177124, 0.27611422538757324, 0.29259660840034485, 0.30907896161079407, 0.3255613446235657, 0.3420436978340149, 0.3585260808467865, 0.3750084638595581, 0.3914908170700073, 0.40797320008277893, 0.42445558309555054, 0.44093793630599976, 0.45742031931877136, 0.47390270233154297, 0.4903850555419922, 0.5068674087524414, 0.5233498215675354, 0.5398321747779846]}, "parameters/convs.0.lin_edge.weight": {"_type": "histogram", "values": [1.0, 0.0, 1.0, 1.0, 0.0, 0.0, 0.0, 1.0, 1.0, 1.0, 3.0, 1.0, 2.0, 2.0, 5.0, 4.0, 4.0, 7.0, 6.0, 6.0, 7.0, 3.0, 6.0, 7.0, 12.0, 5.0, 9.0, 4.0, 2.0, 7.0, 12.0, 3.0, 4.0, 8.0, 4.0, 7.0, 2.0, 5.0, 6.0, 9.0, 9.0, 9.0, 3.0, 2.0, 6.0, 4.0, 4.0, 5.0, 5.0, 5.0, 4.0, 3.0, 5.0, 2.0, 1.0, 2.0, 0.0, 1.0, 0.0, 2.0, 2.0, 0.0, 0.0, 1.0], "bins": [-0.9907529354095459, -0.9617568850517273, -0.9327608346939087, -0.9037647247314453, -0.8747686743736267, -0.8457726240158081, -0.8167765736579895, -0.7877805233001709, -0.7587844133377075, -0.7297883629798889, -0.7007923126220703, -0.6717962026596069, -0.6428001523017883, -0.6138041019439697, -0.5848080515861511, -0.5558120012283325, -0.5268159508705139, -0.4978199005126953, -0.4688238203525543, -0.4398277699947357, -0.4108316898345947, -0.3818356394767761, -0.3528395891189575, -0.3238435387611389, -0.2948474586009979, -0.2658514082431793, -0.23685532808303833, -0.20785927772521973, -0.17886321246623993, -0.14986714720726013, -0.12087109684944153, -0.09187503159046173, -0.06287890672683716, -0.03388284519314766, -0.00488678365945816, 0.02410927414894104, 0.05310533940792084, 0.08210140466690063, 0.11109745502471924, 0.14009352028369904, 0.16908958554267883, 0.19808565080165863, 0.22708171606063843, 0.25607776641845703, 0.28507381677627563, 0.3140698969364166, 0.34306594729423523, 0.3720620274543762, 0.4010580778121948, 0.4300541281700134, 0.4590502083301544, 0.488046258687973, 0.517042338848114, 0.5460383892059326, 0.5750344395637512, 0.6040304899215698, 0.6330265998840332, 0.6620226502418518, 0.6910187005996704, 0.7200148105621338, 0.7490108609199524, 0.778006911277771, 0.8070029616355896, 0.8359990119934082, 0.8649950623512268]}, "parameters/convs.0.lin_skip.weight": {"_type": "histogram", "values": [1.0, 0.0, 0.0, 1.0, 1.0, 0.0, 0.0, 1.0, 1.0, 2.0, 6.0, 4.0, 3.0, 8.0, 4.0, 2.0, 3.0, 4.0, 6.0, 6.0, 10.0, 11.0, 4.0, 12.0, 1.0, 13.0, 8.0, 7.0, 7.0, 7.0, 8.0, 12.0, 11.0, 7.0, 10.0, 10.0, 13.0, 6.0, 8.0, 4.0, 10.0, 10.0, 8.0, 8.0, 8.0, 4.0, 12.0, 6.0, 3.0, 6.0, 8.0, 5.0, 1.0, 5.0, 1.0, 1.0, 4.0, 0.0, 0.0, 1.0, 0.0, 0.0, 0.0, 1.0], "bins": [-1.0151835680007935, -0.9863999485969543, -0.9576163291931152, -0.9288326501846313, -0.9000490307807922, -0.8712654113769531, -0.842481791973114, -0.8136981725692749, -0.784914493560791, -0.7561308741569519, -0.7273472547531128, -0.6985635757446289, -0.6697799563407898, -0.6409963369369507, -0.6122127175331116, -0.5834290981292725, -0.5546454787254333, -0.5258618593215942, -0.49707821011543274, -0.46829459071159363, -0.43951094150543213, -0.410727322101593, -0.3819437026977539, -0.3531600832939148, -0.3243764340877533, -0.2955928146839142, -0.2668091654777527, -0.23802554607391357, -0.20924191176891327, -0.18045827746391296, -0.15167465806007385, -0.12289102375507355, -0.09410738945007324, -0.06532375514507294, -0.03654012829065323, -0.0077565014362335205, 0.021027132868766785, 0.04981076717376709, 0.0785943865776062, 0.1073780208826065, 0.1361616551876068, 0.16494528949260712, 0.19372892379760742, 0.22251254320144653, 0.25129616260528564, 0.28007981181144714, 0.30886343121528625, 0.33764708042144775, 0.36643069982528687, 0.395214319229126, 0.4239979684352875, 0.4527815878391266, 0.4815652370452881, 0.5103488564491272, 0.5391324758529663, 0.5679160952568054, 0.5966997146606445, 0.6254833340644836, 0.6542669534683228, 0.6830506324768066, 0.7118342518806458, 0.7406178712844849, 0.769401490688324, 0.7981851100921631, 0.826968789100647]}, "parameters/convs.0.lin_skip.bias": {"_type": "histogram", "values": [1.0, 0.0, 0.0, 0.0, 0.0, 1.0, 3.0, 3.0, 1.0, 1.0, 1.0, 3.0, 2.0, 3.0, 2.0, 2.0, 0.0, 2.0, 1.0, 2.0, 0.0, 0.0, 2.0, 0.0, 3.0, 3.0, 4.0, 2.0, 2.0, 0.0, 1.0, 1.0, 2.0, 4.0, 2.0, 2.0, 0.0, 2.0, 3.0, 0.0, 1.0, 0.0, 2.0, 0.0, 0.0, 2.0, 2.0, 3.0, 0.0, 0.0, 3.0, 1.0, 0.0, 0.0, 0.0, 1.0, 0.0, 1.0, 1.0, 0.0, 2.0, 0.0, 0.0, 1.0], "bins": [-0.5984216332435608, -0.5817248821258545, -0.565028190612793, -0.5483314394950867, -0.5316347479820251, -0.5149379968643188, -0.4982413053512573, -0.481544554233551, -0.4648478627204895, -0.4481511414051056, -0.4314544200897217, -0.41475769877433777, -0.39806097745895386, -0.38136425614356995, -0.36466753482818604, -0.34797078371047974, -0.3312740623950958, -0.3145773410797119, -0.297880619764328, -0.2811838984489441, -0.2644871771335602, -0.24779045581817627, -0.23109371960163116, -0.21439699828624725, -0.19770027697086334, -0.18100355565547943, -0.16430683434009552, -0.14761009812355042, -0.1309133768081665, -0.11421666294336319, -0.09751993417739868, -0.08082321286201477, -0.06412646174430847, -0.04742974042892456, -0.03073301538825035, -0.014036290347576141, 0.0026604309678077698, 0.01935715228319168, 0.03605388104915619, 0.0527506023645401, 0.06944732367992401, 0.08614404499530792, 0.10284076631069183, 0.11953749507665634, 0.13623422384262085, 0.15293094515800476, 0.16962766647338867, 0.18632438778877258, 0.2030211091041565, 0.2197178304195404, 0.23641455173492432, 0.2531112730503082, 0.26980799436569214, 0.28650471568107605, 0.30320143699645996, 0.31989818811416626, 0.3365948796272278, 0.3532916009426117, 0.3699883222579956, 0.3866850435733795, 0.4033817648887634, 0.42007848620414734, 0.43677520751953125, 0.45347195863723755, 0.47016867995262146]}, "parameters/convs.1.lin_key.weight": {"_type": "histogram", "values": [1.0, 0.0, 0.0, 0.0, 0.0, 0.0, 0.0, 0.0, 0.0, 1.0, 1.0, 0.0, 0.0, 2.0, 4.0, 4.0, 7.0, 6.0, 3.0, 13.0, 14.0, 25.0, 20.0, 34.0, 58.0, 78.0, 131.0, 192.0, 274.0, 443.0, 536.0, 660.0, 774.0, 742.0, 674.0, 550.0, 431.0, 275.0, 191.0, 127.0, 82.0, 60.0, 48.0, 40.0, 14.0, 10.0, 10.0, 8.0, 4.0, 3.0, 4.0, 0.0, 3.0, 0.0, 1.0, 1.0, 0.0, 0.0, 0.0, 0.0, 1.0, 0.0, 0.0, 1.0], "bins": [-1.7751332521438599, -1.7214345932006836, -1.6677360534667969, -1.6140373945236206, -1.5603387355804443, -1.5066401958465576, -1.4529415369033813, -1.399242877960205, -1.3455443382263184, -1.291845679283142, -1.2381471395492554, -1.184448480606079, -1.1307499408721924, -1.0770512819290161, -1.0233526229858398, -0.9696540236473083, -0.9159554243087769, -0.8622568249702454, -0.8085582256317139, -0.7548595666885376, -0.7011609673500061, -0.6474623680114746, -0.5937637090682983, -0.5400651097297668, -0.48636651039123535, -0.43266791105270386, -0.37896928191185, -0.3252706527709961, -0.2715720534324646, -0.2178734540939331, -0.16417482495307922, -0.11047619581222534, -0.0567774772644043, -0.003078863024711609, 0.05061975121498108, 0.10431836545467377, 0.15801697969436646, 0.21171557903289795, 0.26541420817375183, 0.3191128373146057, 0.3728114366531372, 0.4265100359916687, 0.4802086651325226, 0.5339072942733765, 0.587605893611908, 0.6413044929504395, 0.6950031518936157, 0.7487017512321472, 0.8024003505706787, 0.8560989499092102, 0.9097975492477417, 0.963496208190918, 1.0171947479248047, 1.070893406867981, 1.1245920658111572, 1.178290605545044, 1.2319892644882202, 1.2856879234313965, 1.3393864631652832, 1.3930851221084595, 1.4467837810516357, 1.5004823207855225, 1.5541809797286987, 1.607879638671875, 1.6615781784057617]}, "parameters/convs.1.lin_key.bias": {"_type": "histogram", "values": [2.0, 1.0, 0.0, 1.0, 0.0, 0.0, 2.0, 2.0, 1.0, 3.0, 0.0, 2.0, 2.0, 3.0, 2.0, 1.0, 3.0, 1.0, 1.0, 4.0, 1.0, 1.0, 2.0, 3.0, 1.0, 0.0, 1.0, 1.0, 3.0, 1.0, 0.0, 2.0, 1.0, 4.0, 1.0, 0.0, 1.0, 1.0, 2.0, 1.0, 0.0, 2.0, 0.0, 2.0, 2.0, 1.0, 0.0, 1.0, 1.0, 1.0, 1.0, 0.0, 0.0, 1.0, 1.0, 1.0, 1.0, 0.0, 3.0, 0.0, 0.0, 2.0, 1.0, 2.0], "bins": [-0.1110014021396637, -0.1075746938586235, -0.10414798557758331, -0.10072127729654312, -0.09729456901550293, -0.09386786073446274, -0.09044115245342255, -0.08701443672180176, -0.08358773589134216, -0.08016102761030197, -0.07673431932926178, -0.07330761104822159, -0.0698809027671814, -0.0664541944861412, -0.06302748620510101, -0.05960077419877052, -0.05617406219244003, -0.05274735391139984, -0.04932064563035965, -0.04589393734931946, -0.042467229068279266, -0.039040520787239075, -0.035613808780908585, -0.03218710049986839, -0.0287603922188282, -0.02533368393778801, -0.021906975656747818, -0.018480265513062477, -0.015053557232022285, -0.011626848950982094, -0.008200138807296753, -0.004773430526256561, -0.0013467296957969666, 0.0020799790509045124, 0.005506687797605991, 0.008933397009968758, 0.01236010529100895, 0.01578681357204914, 0.019213523715734482, 0.022640231996774673, 0.026066940277814865, 0.029493648558855057, 0.03292035683989525, 0.03634706884622574, 0.03977377712726593, 0.04320048540830612, 0.046627193689346313, 0.050053901970386505, 0.0534806102514267, 0.05690731853246689, 0.06033402681350708, 0.06376073509454727, 0.06718744337558746, 0.07061415165662766, 0.07404085993766785, 0.07746757566928864, 0.08089427649974823, 0.08432098478078842, 0.08774769306182861, 0.0911744013428688, 0.094601109623909, 0.09802781790494919, 0.10145452618598938, 0.10488124191761017, 0.10830795019865036]}, "parameters/convs.1.lin_query.weight": {"_type": "histogram", "values": [1.0, 2.0, 1.0, 0.0, 1.0, 4.0, 7.0, 3.0, 7.0, 14.0, 8.0, 16.0, 22.0, 16.0, 27.0, 20.0, 37.0, 44.0, 76.0, 89.0, 117.0, 164.0, 212.0, 264.0, 328.0, 399.0, 462.0, 500.0, 526.0, 529.0, 453.0, 448.0, 395.0, 309.0, 254.0, 198.0, 155.0, 94.0, 72.0, 73.0, 47.0, 32.0, 32.0, 15.0, 17.0, 12.0, 16.0, 11.0, 9.0, 8.0, 2.0, 5.0, 0.0, 1.0, 0.0, 0.0, 2.0, 1.0, 1.0, 1.0, 0.0, 1.0, 0.0, 1.0], "bins": [-1.0775260925292969, -1.0401835441589355, -1.0028409957885742, -0.9654985070228577, -0.9281560182571411, -0.8908134698867798, -0.8534709215164185, -0.8161284327507019, -0.7787859439849854, -0.741443395614624, -0.7041009068489075, -0.6667583584785461, -0.6294158697128296, -0.5920733213424683, -0.5547307729721069, -0.5173882842063904, -0.48004573583602905, -0.4427032172679901, -0.40536069869995117, -0.36801815032958984, -0.3306756615638733, -0.29333311319351196, -0.255990594625473, -0.21864807605743408, -0.18130555748939514, -0.1439630389213562, -0.10662051290273666, -0.06927798688411713, -0.031935468316078186, 0.005407050251960754, 0.04274958372116089, 0.08009210228919983, 0.11743462085723877, 0.1547771394252777, 0.19211965799331665, 0.22946219146251678, 0.26680469512939453, 0.30414724349975586, 0.3414897620677948, 0.37883228063583374, 0.4161747992038727, 0.4535173177719116, 0.49085983633995056, 0.5282023549079895, 0.5655449032783508, 0.6028873920440674, 0.6402299404144287, 0.67757248878479, 0.7149149775505066, 0.7522575259208679, 0.7896000146865845, 0.8269425630569458, 0.8642850518226624, 0.9016276001930237, 0.9389700889587402, 0.9763126373291016, 1.013655185699463, 1.0509977340698242, 1.0883402824401855, 1.1256827116012573, 1.1630252599716187, 1.20036780834198, 1.2377103567123413, 1.275052785873413, 1.3123953342437744]}, "parameters/convs.1.lin_query.bias": {"_type": "histogram", "values": [1.0, 0.0, 1.0, 2.0, 1.0, 2.0, 1.0, 1.0, 3.0, 1.0, 1.0, 1.0, 0.0, 2.0, 0.0, 1.0, 1.0, 0.0, 1.0, 1.0, 0.0, 3.0, 4.0, 0.0, 1.0, 2.0, 4.0, 2.0, 0.0, 2.0, 2.0, 0.0, 1.0, 1.0, 2.0, 2.0, 3.0, 1.0, 0.0, 0.0, 2.0, 2.0, 1.0, 3.0, 2.0, 0.0, 0.0, 0.0, 1.0, 3.0, 1.0, 1.0, 2.0, 0.0, 3.0, 2.0, 0.0, 2.0, 0.0, 0.0, 1.0, 2.0, 1.0, 1.0], "bins": [-0.32070979475975037, -0.3108174800872803, -0.30092519521713257, -0.2910328805446625, -0.2811405658721924, -0.2712482511997223, -0.2613559365272522, -0.2514636516571045, -0.2415713369846344, -0.2316790223121643, -0.2217867225408554, -0.2118944227695465, -0.20200210809707642, -0.19210979342460632, -0.18221749365329742, -0.17232519388198853, -0.16243287920951843, -0.15254056453704834, -0.14264826476573944, -0.13275596499443054, -0.12286365032196045, -0.11297134310007095, -0.10307903587818146, -0.09318672865629196, -0.08329442143440247, -0.07340211421251297, -0.06350980699062347, -0.05361749976873398, -0.04372519254684448, -0.03383288532495499, -0.02394057810306549, -0.014048270881175995, -0.004155963659286499, 0.005736343562602997, 0.015628650784492493, 0.02552095800638199, 0.035413265228271484, 0.04530557245016098, 0.055197879672050476, 0.06509018689393997, 0.07498249411582947, 0.08487480133771896, 0.09476710855960846, 0.10465941578149796, 0.11455172300338745, 0.12444403022527695, 0.13433633744716644, 0.14422863721847534, 0.15412095189094543, 0.16401326656341553, 0.17390556633472443, 0.18379786610603333, 0.19369018077850342, 0.2035824954509735, 0.2134747952222824, 0.2233670949935913, 0.2332594096660614, 0.2431517243385315, 0.2530440092086792, 0.2629363238811493, 0.2728286385536194, 0.2827209532260895, 0.29261326789855957, 0.3025055527687073, 0.31239786744117737]}, "parameters/convs.1.lin_value.weight": {"_type": "histogram", "values": [1.0, 0.0, 0.0, 1.0, 0.0, 0.0, 1.0, 0.0, 1.0, 2.0, 2.0, 1.0, 3.0, 5.0, 3.0, 8.0, 7.0, 7.0, 9.0, 15.0, 27.0, 24.0, 46.0, 44.0, 54.0, 72.0, 129.0, 121.0, 178.0, 217.0, 294.0, 402.0, 493.0, 553.0, 622.0, 662.0, 621.0, 542.0, 435.0, 311.0, 189.0, 146.0, 103.0, 60.0, 55.0, 24.0, 17.0, 18.0, 11.0, 6.0, 5.0, 6.0, 3.0, 0.0, 1.0, 1.0, 1.0, 0.0, 0.0, 0.0, 0.0, 0.0, 1.0, 1.0], "bins": [-1.6613444089889526, -1.6145625114440918, -1.567780613899231, -1.5209987163543701, -1.4742169380187988, -1.427435040473938, -1.3806531429290771, -1.3338712453842163, -1.2870893478393555, -1.2403074502944946, -1.1935255527496338, -1.1467437744140625, -1.0999618768692017, -1.0531799793243408, -1.00639808177948, -0.9596161842346191, -0.9128344058990479, -0.866052508354187, -0.819270670413971, -0.7724887728691101, -0.725706934928894, -0.6789250373840332, -0.6321431398391724, -0.5853612422943115, -0.5385794043540955, -0.491797536611557, -0.44501566886901855, -0.3982337713241577, -0.35145190358161926, -0.3046700358390808, -0.25788813829421997, -0.21110627055168152, -0.16432452201843262, -0.11754264682531357, -0.07076077163219452, -0.023978888988494873, 0.02280297875404358, 0.06958484649658203, 0.11636674404144287, 0.16314861178398132, 0.20993047952651978, 0.2567123472690582, 0.3034942150115967, 0.3502761125564575, 0.39705798029899597, 0.4438398480415344, 0.49062174558639526, 0.5374035835266113, 0.5841854810714722, 0.630967378616333, 0.6777492165565491, 0.7245311141014099, 0.771312952041626, 0.8180948495864868, 0.8648767471313477, 0.9116586446762085, 0.9584404826164246, 1.0052223205566406, 1.0520042181015015, 1.0987861156463623, 1.1455680131912231, 1.192349910736084, 1.2391316890716553, 1.2859135866165161, 1.332695484161377]}, "parameters/convs.1.lin_value.bias": {"_type": "histogram", "values": [2.0, 0.0, 0.0, 2.0, 1.0, 0.0, 1.0, 0.0, 0.0, 0.0, 2.0, 1.0, 0.0, 0.0, 0.0, 1.0, 1.0, 1.0, 1.0, 0.0, 2.0, 0.0, 3.0, 2.0, 0.0, 0.0, 0.0, 0.0, 4.0, 3.0, 2.0, 1.0, 0.0, 2.0, 2.0, 4.0, 4.0, 1.0, 2.0, 3.0, 2.0, 6.0, 2.0, 2.0, 3.0, 2.0, 2.0, 1.0, 0.0, 1.0, 2.0, 1.0, 3.0, 1.0, 0.0, 0.0, 3.0, 0.0, 1.0, 0.0, 0.0, 0.0, 0.0, 1.0], "bins": [-0.24752824008464813, -0.24049445986747742, -0.2334606796503067, -0.226426899433136, -0.21939311921596527, -0.21235933899879456, -0.20532557368278503, -0.19829177856445312, -0.1912580132484436, -0.1842242330312729, -0.17719045281410217, -0.17015667259693146, -0.16312289237976074, -0.15608911216259003, -0.1490553319454193, -0.1420215666294098, -0.13498777151107788, -0.12795399129390717, -0.12092021107673645, -0.11388643085956573, -0.10685265064239502, -0.0998188704252243, -0.09278509765863419, -0.08575131744146347, -0.07871753722429276, -0.07168375700712204, -0.06464997678995132, -0.05761620029807091, -0.05058242008090019, -0.04354863986372948, -0.03651486337184906, -0.029481083154678345, -0.022447317838668823, -0.015413538552820683, -0.008379759266972542, -0.0013459809124469757, 0.00568779930472374, 0.012721579521894455, 0.019755356013774872, 0.026789136230945587, 0.0338229164481163, 0.04085669666528702, 0.04789047688245773, 0.05492425337433815, 0.061958033591508865, 0.06899181008338928, 0.07602559030056, 0.08305937051773071, 0.09009315073490143, 0.09712693095207214, 0.10416071116924286, 0.11119449138641357, 0.11822827160358429, 0.125262051820755, 0.13229581713676453, 0.13932961225509644, 0.14636337757110596, 0.15339715778827667, 0.1604309380054474, 0.1674647182226181, 0.17449849843978882, 0.18153227865695953, 0.18856605887413025, 0.19559982419013977, 0.20263361930847168]}, "parameters/convs.1.lin_edge.weight": {"_type": "histogram", "values": [1.0, 0.0, 0.0, 0.0, 0.0, 0.0, 0.0, 1.0, 1.0, 1.0, 1.0, 3.0, 4.0, 7.0, 3.0, 7.0, 2.0, 7.0, 4.0, 3.0, 6.0, 6.0, 4.0, 5.0, 8.0, 6.0, 6.0, 3.0, 6.0, 5.0, 3.0, 4.0, 6.0, 3.0, 7.0, 5.0, 5.0, 2.0, 6.0, 4.0, 5.0, 5.0, 5.0, 10.0, 3.0, 4.0, 5.0, 2.0, 7.0, 6.0, 4.0, 6.0, 3.0, 4.0, 6.0, 2.0, 7.0, 2.0, 5.0, 1.0, 1.0, 2.0, 1.0, 2.0], "bins": [-0.9562647938728333, -0.9296517372131348, -0.9030386805534363, -0.8764256238937378, -0.8498125076293945, -0.823199450969696, -0.7965863943099976, -0.7699733376502991, -0.7433602809906006, -0.7167472243309021, -0.6901341676712036, -0.6635210514068604, -0.6369079947471619, -0.6102949380874634, -0.5836818814277649, -0.5570688247680664, -0.5304557085037231, -0.5038426518440247, -0.4772295653820038, -0.4506165087223053, -0.4240034222602844, -0.39739036560058594, -0.37077730894088745, -0.34416425228118896, -0.3175511658191681, -0.2909381091594696, -0.26432502269744873, -0.23771196603775024, -0.21109889447689056, -0.18448582291603088, -0.1578727662563324, -0.13125969469547272, -0.10464662313461304, -0.07803355157375336, -0.051420487463474274, -0.02480742335319519, 0.0018056482076644897, 0.02841871976852417, 0.055031776428222656, 0.08164484798908234, 0.10825791954994202, 0.1348709911108017, 0.16148406267166138, 0.18809711933135986, 0.21471019089221954, 0.24132326245307922, 0.2679363191127777, 0.2945494055747986, 0.32116246223449707, 0.34777551889419556, 0.37438860535621643, 0.4010016620159149, 0.4276147484779358, 0.4542278051376343, 0.48084086179733276, 0.5074539184570312, 0.5340670347213745, 0.560680091381073, 0.5872931480407715, 0.6139062643051147, 0.6405193209648132, 0.6671323776245117, 0.6937454342842102, 0.7203584909439087, 0.7469715476036072]}, "parameters/convs.1.lin_skip.weight": {"_type": "histogram", "values": [1.0, 0.0, 0.0, 3.0, 0.0, 1.0, 2.0, 3.0, 1.0, 1.0, 2.0, 4.0, 4.0, 7.0, 7.0, 6.0, 13.0, 10.0, 9.0, 30.0, 19.0, 23.0, 31.0, 45.0, 52.0, 59.0, 87.0, 79.0, 107.0, 130.0, 158.0, 205.0, 259.0, 329.0, 384.0, 433.0, 508.0, 543.0, 556.0, 498.0, 467.0, 405.0, 311.0, 223.0, 159.0, 109.0, 85.0, 73.0, 35.0, 26.0, 13.0, 12.0, 10.0, 9.0, 2.0, 6.0, 1.0, 1.0, 0.0, 2.0, 2.0, 0.0, 0.0, 1.0], "bins": [-1.5235968828201294, -1.4838532209396362, -1.4441096782684326, -1.4043660163879395, -1.3646224737167358, -1.3248788118362427, -1.285135269165039, -1.245391607284546, -1.2056479454040527, -1.1659042835235596, -1.126160740852356, -1.0864170789718628, -1.0466735363006592, -1.006929874420166, -0.9671862721443176, -0.9274426698684692, -0.8876991271972656, -0.8479555249214172, -0.8082119226455688, -0.7684683203697205, -0.7287247180938721, -0.6889810562133789, -0.6492374539375305, -0.6094938516616821, -0.5697502493858337, -0.5300066471099854, -0.49026304483413696, -0.4505194127559662, -0.4107758104801178, -0.3710322082042694, -0.33128857612609863, -0.29154497385025024, -0.2518012523651123, -0.21205765008926392, -0.17231403291225433, -0.13257041573524475, -0.09282681345939636, -0.053083211183547974, -0.013339594006538391, 0.02640402317047119, 0.06614762544631958, 0.10589123517274857, 0.14563484489917755, 0.18537846207618713, 0.22512206435203552, 0.2648656666278839, 0.3046092987060547, 0.3443529009819031, 0.38409650325775146, 0.42384010553359985, 0.46358370780944824, 0.5033273100852966, 0.543070912361145, 0.5828145742416382, 0.6225581765174866, 0.662301778793335, 0.7020453810691833, 0.7417889833450317, 0.7815325856208801, 0.8212761878967285, 0.8610198497772217, 0.9007633924484253, 0.9405070543289185, 0.9802506566047668, 1.0199942588806152]}, "parameters/convs.1.lin_skip.bias": {"_type": "histogram", "values": [1.0, 0.0, 0.0, 0.0, 0.0, 1.0, 0.0, 0.0, 0.0, 1.0, 1.0, 3.0, 1.0, 0.0, 1.0, 1.0, 0.0, 2.0, 0.0, 0.0, 2.0, 6.0, 0.0, 4.0, 2.0, 5.0, 3.0, 2.0, 2.0, 8.0, 1.0, 2.0, 4.0, 8.0, 0.0, 1.0, 1.0, 2.0, 2.0, 2.0, 3.0, 1.0, 0.0, 2.0, 0.0, 1.0, 1.0, 1.0, 0.0, 0.0, 0.0, 0.0, 1.0, 0.0, 1.0, 0.0, 0.0, 0.0, 0.0, 0.0, 0.0, 0.0, 0.0, 1.0], "bins": [-0.36704781651496887, -0.3538585603237152, -0.34066930413246155, -0.3274800479412079, -0.3142907917499542, -0.30110153555870056, -0.2879122495651245, -0.27472299337387085, -0.2615337371826172, -0.24834448099136353, -0.23515522480010986, -0.2219659686088562, -0.20877671241760254, -0.19558745622634888, -0.18239818513393402, -0.16920892894268036, -0.1560196876525879, -0.14283043146133423, -0.12964117527008057, -0.11645191162824631, -0.10326265543699265, -0.09007339924573898, -0.07688413560390472, -0.06369487941265106, -0.0505056232213974, -0.03731636703014374, -0.024127107113599777, -0.010937847197055817, 0.0022514089941978455, 0.015440665185451508, 0.028629928827285767, 0.04181918501853943, 0.05500844120979309, 0.06819769740104675, 0.08138695359230042, 0.09457621723413467, 0.10776547342538834, 0.120954729616642, 0.13414399325847626, 0.14733324944972992, 0.16052250564098358, 0.17371176183223724, 0.1869010180234909, 0.20009028911590576, 0.21327954530715942, 0.22646880149841309, 0.23965805768966675, 0.2528473138809204, 0.2660365700721741, 0.27922582626342773, 0.2924150824546814, 0.30560433864593506, 0.3187935948371887, 0.3319828510284424, 0.34517210721969604, 0.3583613634109497, 0.37155061960220337, 0.38473987579345703, 0.3979291319847107, 0.41111838817596436, 0.424307644367218, 0.4374969005584717, 0.45068615674972534, 0.463875412940979, 0.47706469893455505]}, "parameters/aggr.lstm.weight_ih_l0": {"_type": "histogram", "values": [1.0, 1.0, 2.0, 6.0, 3.0, 1.0, 10.0, 2.0, 14.0, 18.0, 22.0, 31.0, 47.0, 70.0, 94.0, 140.0, 223.0, 290.0, 426.0, 672.0, 1025.0, 1564.0, 2471.0, 4132.0, 6164.0, 8021.0, 8400.0, 6823.0, 4333.0, 2771.0, 1729.0, 1074.0, 640.0, 449.0, 284.0, 193.0, 110.0, 80.0, 49.0, 33.0, 19.0, 14.0, 8.0, 6.0, 6.0, 7.0, 1.0, 2.0, 2.0, 2.0, 1.0, 1.0, 0.0, 0.0, 0.0, 0.0, 0.0, 0.0, 0.0, 0.0, 0.0, 0.0, 0.0, 1.0], "bins": [-2.5499985218048096, -2.4529120922088623, -2.355825424194336, -2.2587389945983887, -2.1616523265838623, -2.064565896987915, -1.9674793481826782, -1.8703927993774414, -1.7733063697814941, -1.6762198209762573, -1.5791332721710205, -1.4820468425750732, -1.3849602937698364, -1.2878737449645996, -1.1907871961593628, -1.093700647354126, -0.9966140985488892, -0.8995275497436523, -0.8024410605430603, -0.7053545117378235, -0.6082680225372314, -0.5111814737319946, -0.4140949249267578, -0.31700843572616577, -0.21992188692092896, -0.12283536046743393, -0.025748834013938904, 0.07133769989013672, 0.16842421889305115, 0.2655107378959656, 0.3625972867012024, 0.45968377590179443, 0.5567703247070312, 0.6538568735122681, 0.7509433627128601, 0.8480299115180969, 0.945116400718689, 1.0422029495239258, 1.1392894983291626, 1.2363760471343994, 1.3334624767303467, 1.4305490255355835, 1.5276355743408203, 1.6247220039367676, 1.7218085527420044, 1.8188951015472412, 1.915981650352478, 2.013068199157715, 2.110154628753662, 2.2072410583496094, 2.3043277263641357, 2.401414155960083, 2.4985008239746094, 2.5955872535705566, 2.692673683166504, 2.7897603511810303, 2.8868470191955566, 2.983933448791504, 3.0810201168060303, 3.1781065464019775, 3.275193214416504, 3.372279644012451, 3.4693660736083984, 3.566452741622925, 3.663539171218872]}, "parameters/aggr.lstm.weight_hh_l0": {"_type": "histogram", "values": [1.0, 0.0, 1.0, 0.0, 2.0, 2.0, 0.0, 3.0, 0.0, 1.0, 6.0, 11.0, 9.0, 14.0, 16.0, 19.0, 37.0, 50.0, 66.0, 113.0, 148.0, 170.0, 282.0, 340.0, 481.0, 707.0, 956.0, 1292.0, 1726.0, 2257.0, 2650.0, 2804.0, 2709.0, 2328.0, 1805.0, 1331.0, 1030.0, 750.0, 540.0, 392.0, 307.0, 233.0, 178.0, 131.0, 86.0, 57.0, 57.0, 45.0, 26.0, 19.0, 24.0, 6.0, 9.0, 3.0, 5.0, 2.0, 4.0, 1.0, 0.0, 0.0, 0.0, 0.0, 1.0, 1.0], "bins": [-1.8542464971542358, -1.7953652143478394, -1.7364839315414429, -1.6776025295257568, -1.6187212467193604, -1.5598399639129639, -1.5009586811065674, -1.442077398300171, -1.3831961154937744, -1.324314832687378, -1.2654335498809814, -1.206552267074585, -1.147670865058899, -1.0887895822525024, -1.029908299446106, -0.9710270166397095, -0.9121456146240234, -0.853264331817627, -0.7943829894065857, -0.7355017066001892, -0.676620364189148, -0.6177390813827515, -0.558857798576355, -0.4999764859676361, -0.44109517335891724, -0.38221386075019836, -0.3233325481414795, -0.264451265335083, -0.20556995272636414, -0.14668864011764526, -0.08780735731124878, -0.028926044702529907, 0.029955148696899414, 0.08883645385503769, 0.14771775901317596, 0.20659905672073364, 0.2654803693294525, 0.3243616819381714, 0.38324296474456787, 0.44212427735328674, 0.5010055899620056, 0.5598868727684021, 0.6187682151794434, 0.6776494979858398, 0.7365307807922363, 0.7954121232032776, 0.8542934060096741, 0.9131747484207153, 0.9720560312271118, 1.0309373140335083, 1.0898185968399048, 1.1486999988555908, 1.2075812816619873, 1.2664625644683838, 1.3253438472747803, 1.3842251300811768, 1.4431064128875732, 1.5019876956939697, 1.5608689785003662, 1.6197502613067627, 1.6786316633224487, 1.7375129461288452, 1.7963942289352417, 1.8552755117416382, 1.9141569137573242]}, "parameters/aggr.lstm.bias_ih_l0": {"_type": "histogram", "values": [1.0, 0.0, 0.0, 0.0, 0.0, 0.0, 0.0, 0.0, 0.0, 0.0, 0.0, 0.0, 1.0, 1.0, 3.0, 2.0, 2.0, 2.0, 2.0, 4.0, 4.0, 6.0, 5.0, 12.0, 10.0, 8.0, 14.0, 10.0, 7.0, 9.0, 13.0, 9.0, 15.0, 10.0, 13.0, 10.0, 14.0, 18.0, 9.0, 13.0, 7.0, 15.0, 6.0, 12.0, 7.0, 8.0, 10.0, 5.0, 6.0, 2.0, 3.0, 2.0, 3.0, 3.0, 1.0, 0.0, 0.0, 1.0, 0.0, 0.0, 1.0, 2.0, 0.0, 3.0], "bins": [-0.31214362382888794, -0.3038892149925232, -0.29563480615615845, -0.2873804271221161, -0.27912601828575134, -0.2708716094493866, -0.26261720061302185, -0.2543627917766571, -0.24610839784145355, -0.2378539890050888, -0.22959959506988525, -0.2213451862335205, -0.21309077739715576, -0.2048363834619522, -0.19658197462558746, -0.1883275806903839, -0.18007317185401917, -0.17181876301765442, -0.16356436908245087, -0.15530996024608612, -0.14705556631088257, -0.13880115747451782, -0.13054674863815308, -0.12229234725236893, -0.11403794586658478, -0.10578354448080063, -0.09752914309501648, -0.08927473425865173, -0.08102033287286758, -0.07276593148708344, -0.06451152265071869, -0.05625712126493454, -0.048002690076828, -0.039748288691043854, -0.031493883579969406, -0.023239480331540108, -0.01498507708311081, -0.00673067569732666, 0.0015237294137477875, 0.009778134524822235, 0.018032535910606384, 0.026286939159035683, 0.03454134240746498, 0.04279574751853943, 0.05105014890432358, 0.05930455029010773, 0.06755895912647247, 0.07581336051225662, 0.08406776189804077, 0.09232216328382492, 0.10057656466960907, 0.10883097350597382, 0.11708537489175797, 0.12533977627754211, 0.13359418511390686, 0.1418485939502716, 0.15010298788547516, 0.1583573967218399, 0.16661179065704346, 0.1748661994934082, 0.18312060832977295, 0.1913750022649765, 0.19962941110134125, 0.2078838050365448, 0.21613821387290955]}, "parameters/aggr.lstm.bias_hh_l0": {"_type": "histogram", "values": [1.0, 0.0, 1.0, 0.0, 0.0, 1.0, 0.0, 5.0, 3.0, 1.0, 1.0, 0.0, 4.0, 4.0, 3.0, 7.0, 5.0, 8.0, 4.0, 6.0, 6.0, 0.0, 8.0, 5.0, 9.0, 8.0, 11.0, 7.0, 10.0, 10.0, 8.0, 9.0, 10.0, 10.0, 9.0, 4.0, 14.0, 16.0, 9.0, 5.0, 12.0, 18.0, 7.0, 8.0, 7.0, 5.0, 9.0, 5.0, 7.0, 3.0, 6.0, 1.0, 2.0, 7.0, 0.0, 1.0, 0.0, 0.0, 0.0, 1.0, 0.0, 1.0, 1.0, 1.0], "bins": [-0.26663628220558167, -0.25934287905693054, -0.2520495057106018, -0.24475610256195068, -0.23746271431446075, -0.23016932606697083, -0.2228759229183197, -0.21558253467082977, -0.20828914642333984, -0.20099575817584991, -0.19370236992835999, -0.18640896677970886, -0.17911557853221893, -0.171822190284729, -0.16452878713607788, -0.15723539888858795, -0.14994201064109802, -0.1426486223936081, -0.13535523414611816, -0.12806183099746704, -0.12076844274997711, -0.11347505450248718, -0.10618165880441666, -0.09888826310634613, -0.0915948748588562, -0.08430148661136627, -0.07700809091329575, -0.06971469521522522, -0.06242130696773529, -0.05512791499495506, -0.047834523022174835, -0.04054113104939461, -0.033247753977775574, -0.025954362004995346, -0.01866097003221512, -0.01136757805943489, -0.004074186086654663, 0.0032192058861255646, 0.010512597858905792, 0.01780598983168602, 0.025099381804466248, 0.032392773777246475, 0.0396861657500267, 0.04697955772280693, 0.05427294969558716, 0.061566341668367386, 0.06885973364114761, 0.07615312933921814, 0.08344651758670807, 0.090739905834198, 0.09803330153226852, 0.10532669723033905, 0.11262008547782898, 0.11991347372531891, 0.12720686197280884, 0.13450026512145996, 0.1417936533689499, 0.14908704161643982, 0.15638044476509094, 0.16367383301258087, 0.1709672212600708, 0.17826060950756073, 0.18555399775505066, 0.19284740090370178, 0.2001407891511917]}, "parameters/linears.0.weight": {"_type": "histogram", "values": [4.0, 3.0, 3.0, 2.0, 3.0, 5.0, 4.0, 7.0, 10.0, 14.0, 18.0, 25.0, 25.0, 45.0, 45.0, 73.0, 97.0, 126.0, 177.0, 225.0, 290.0, 379.0, 471.0, 609.0, 774.0, 1030.0, 1305.0, 1427.0, 1537.0, 1705.0, 1689.0, 1630.0, 1330.0, 1221.0, 1034.0, 832.0, 607.0, 479.0, 338.0, 255.0, 212.0, 151.0, 129.0, 102.0, 70.0, 48.0, 39.0, 26.0, 17.0, 17.0, 22.0, 9.0, 13.0, 4.0, 4.0, 3.0, 4.0, 6.0, 1.0, 2.0, 2.0, 0.0, 1.0, 1.0], "bins": [-0.7193730473518372, -0.6957225203514099, -0.6720719933509827, -0.6484214663505554, -0.624770998954773, -0.6011204719543457, -0.5774699449539185, -0.5538194179534912, -0.530168890953064, -0.5065183639526367, -0.4828678369522095, -0.4592173397541046, -0.43556681275367737, -0.4119162857532501, -0.38826578855514526, -0.364615261554718, -0.34096473455429077, -0.3173142075538635, -0.2936636805534363, -0.2700131833553314, -0.24636265635490417, -0.22271212935447693, -0.19906161725521088, -0.17541110515594482, -0.15176057815551758, -0.12811005115509033, -0.10445953905582428, -0.08080901950597763, -0.05715849995613098, -0.03350798040628433, -0.009857460856437683, 0.01379305124282837, 0.03744363784790039, 0.06109415739774704, 0.08474467694759369, 0.10839519649744034, 0.132045716047287, 0.15569624304771423, 0.17934675514698029, 0.20299726724624634, 0.22664779424667358, 0.25029832124710083, 0.2739488482475281, 0.29759934544563293, 0.3212498724460602, 0.3449003994464874, 0.3685508966445923, 0.39220142364501953, 0.4158519506454468, 0.439502477645874, 0.46315300464630127, 0.48680350184440613, 0.5104540586471558, 0.5341045260429382, 0.5577550530433655, 0.5814055800437927, 0.60505610704422, 0.6287066340446472, 0.6523571610450745, 0.6760076880455017, 0.6996581554412842, 0.7233086824417114, 0.7469592094421387, 0.7706097364425659, 0.7942602634429932]}, "parameters/linears.0.bias": {"_type": "histogram", "values": [1.0, 0.0, 0.0, 0.0, 0.0, 0.0, 0.0, 0.0, 0.0, 0.0, 0.0, 0.0, 0.0, 1.0, 1.0, 0.0, 0.0, 0.0, 2.0, 1.0, 0.0, 2.0, 0.0, 1.0, 0.0, 1.0, 0.0, 0.0, 1.0, 2.0, 1.0, 0.0, 1.0, 1.0, 1.0, 2.0, 2.0, 0.0, 1.0, 3.0, 2.0, 4.0, 3.0, 6.0, 2.0, 1.0, 7.0, 10.0, 5.0, 5.0, 8.0, 5.0, 8.0, 3.0, 5.0, 3.0, 4.0, 3.0, 6.0, 2.0, 4.0, 3.0, 2.0, 2.0], "bins": [-0.3955238163471222, -0.3872377574443817, -0.37895169854164124, -0.37066566944122314, -0.36237961053848267, -0.3540935516357422, -0.3458074927330017, -0.33752143383026123, -0.32923537492752075, -0.3209493160247803, -0.3126632571220398, -0.3043772280216217, -0.2960911691188812, -0.28780511021614075, -0.27951905131340027, -0.2712329924106598, -0.2629469633102417, -0.2546609044075012, -0.24637486040592194, -0.23808880150318146, -0.22980275750160217, -0.2215166985988617, -0.21323063969612122, -0.20494458079338074, -0.19665853679180145, -0.18837247788906097, -0.1800864338874817, -0.1718003749847412, -0.16351431608200073, -0.15522827208042145, -0.14694221317768097, -0.13865616917610168, -0.1303701251745224, -0.12208407372236252, -0.11379802227020264, -0.10551196336746216, -0.09722591191530228, -0.0889398604631424, -0.08065380156040192, -0.07236775010824203, -0.06408169865608215, -0.05579564720392227, -0.04750959202647209, -0.03922353684902191, -0.03093748539686203, -0.02265143394470215, -0.014365378767251968, -0.006079323589801788, 0.0022067278623580933, 0.010492781177163124, 0.018778834491968155, 0.027064887806773186, 0.03535094112157822, 0.0436369925737381, 0.05192304775118828, 0.06020910292863846, 0.06849515438079834, 0.07678120583295822, 0.0850672572851181, 0.09335331618785858, 0.10163936764001846, 0.10992541909217834, 0.11821147799491882, 0.1264975368976593, 0.1347835808992386]}, "parameters/linears.1.weight": {"_type": "histogram", "values": [2.0, 0.0, 1.0, 0.0, 0.0, 1.0, 1.0, 1.0, 2.0, 1.0, 6.0, 7.0, 9.0, 10.0, 2.0, 10.0, 8.0, 5.0, 5.0, 6.0, 6.0, 2.0, 4.0, 10.0, 3.0, 6.0, 5.0, 7.0, 9.0, 7.0, 8.0, 5.0, 8.0, 11.0, 5.0, 8.0, 10.0, 11.0, 6.0, 9.0, 8.0, 6.0, 6.0, 6.0, 0.0, 2.0, 1.0, 3.0, 1.0, 0.0, 1.0, 1.0, 0.0, 0.0, 0.0, 2.0, 0.0, 0.0, 0.0, 0.0, 1.0, 0.0, 0.0, 1.0], "bins": [-0.13710881769657135, -0.13208355009555817, -0.12705828249454498, -0.1220330223441124, -0.11700776219367981, -0.11198249459266663, -0.10695722699165344, -0.10193196684122086, -0.09690670669078827, -0.09188143908977509, -0.0868561789393425, -0.08183091133832932, -0.07680565118789673, -0.07178038358688354, -0.06675511598587036, -0.061729855835437775, -0.05670458823442459, -0.051679324358701706, -0.04665406048297882, -0.04162879288196564, -0.03660353273153305, -0.03157826513051987, -0.026553001254796982, -0.021527737379074097, -0.01650247350335121, -0.011477209627628326, -0.006451944820582867, -0.001426680013537407, 0.003598583862185478, 0.008623847737908363, 0.013649113476276398, 0.018674377351999283, 0.023699641227722168, 0.028724905103445053, 0.03375016897916794, 0.03877543658018112, 0.04380069673061371, 0.04882596433162689, 0.05385122820734978, 0.05887649208307266, 0.06390175223350525, 0.06892701983451843, 0.07395227998495102, 0.0789775475859642, 0.08400280773639679, 0.08902807533740997, 0.09405334293842316, 0.09907860308885574, 0.10410387068986893, 0.10912913829088211, 0.1141543984413147, 0.11917966604232788, 0.12420492619276047, 0.12923018634319305, 0.13425545394420624, 0.13928072154521942, 0.1443059891462326, 0.1493312567472458, 0.15435652434825897, 0.15938177704811096, 0.16440704464912415, 0.16943231225013733, 0.1744575798511505, 0.1794828474521637, 0.18450810015201569]}, "parameters/linears.1.bias": {"_type": "histogram", "values": [1.0, 0.0, 0.0, 0.0, 0.0, 0.0, 0.0, 0.0, 0.0, 0.0, 0.0, 0.0, 0.0, 0.0, 0.0, 0.0, 0.0, 0.0, 0.0, 0.0, 0.0, 0.0, 0.0, 0.0, 0.0, 0.0, 0.0, 0.0, 0.0, 0.0, 0.0, 0.0, 0.0, 0.0, 0.0, 0.0, 0.0, 0.0, 0.0, 0.0, 0.0, 0.0, 0.0, 0.0, 0.0, 0.0, 0.0, 0.0, 0.0, 0.0, 0.0, 0.0, 0.0, 0.0, 0.0, 0.0, 0.0, 0.0, 0.0, 0.0, 0.0, 0.0, 0.0, 1.0], "bins": [-0.19978812336921692, -0.19709759950637817, -0.19440707564353943, -0.1917165368795395, -0.18902601301670074, -0.186335489153862, -0.18364496529102325, -0.1809544414281845, -0.17826390266418457, -0.17557337880134583, -0.17288285493850708, -0.17019231617450714, -0.1675017923116684, -0.16481126844882965, -0.1621207445859909, -0.15943022072315216, -0.15673969686031342, -0.15404917299747467, -0.15135864913463593, -0.148668110370636, -0.14597758650779724, -0.1432870626449585, -0.14059653878211975, -0.137906014919281, -0.13521547615528107, -0.13252495229244232, -0.12983442842960358, -0.12714388966560364, -0.12445336580276489, -0.12176284193992615, -0.1190723180770874, -0.11638178676366806, -0.11369125545024872, -0.11100073158740997, -0.10831020027399063, -0.10561967641115189, -0.10292914509773254, -0.1002386212348938, -0.09754809737205505, -0.09485756605863571, -0.09216704219579697, -0.08947651833295822, -0.08678598701953888, -0.08409546315670013, -0.08140493184328079, -0.07871440798044205, -0.0760238766670227, -0.07333335280418396, -0.07064282894134521, -0.06795230507850647, -0.06526177376508713, -0.06257124990224838, -0.05988072231411934, -0.057190194725990295, -0.05449966713786125, -0.05180913954973221, -0.04911861568689346, -0.04642808809876442, -0.043737560510635376, -0.04104703664779663, -0.03835650905966759, -0.035665981471538544, -0.0329754538834095, -0.030284928157925606, -0.027594398707151413]}, "train_rmse": 0.37873681927662745, "test_rmse": 0.5439049194090565, "_runtime": 376.8210916519165, "_step": 40, "gradients/linears.1.bias": {"_type": "histogram", "values": [1.0, 0.0, 0.0, 0.0, 0.0, 0.0, 0.0, 0.0, 0.0, 0.0, 0.0, 0.0, 0.0, 0.0, 0.0, 0.0, 0.0, 0.0, 0.0, 0.0, 0.0, 0.0, 0.0, 0.0, 0.0, 0.0, 0.0, 0.0, 0.0, 0.0, 0.0, 0.0, 0.0, 0.0, 0.0, 0.0, 0.0, 0.0, 0.0, 0.0, 0.0, 0.0, 0.0, 0.0, 0.0, 0.0, 0.0, 0.0, 0.0, 0.0, 0.0, 0.0, 0.0, 0.0, 0.0, 0.0, 0.0, 0.0, 0.0, 0.0, 0.0, 0.0, 0.0, 1.0], "bins": [-0.001451175194233656, -0.0006718712393194437, 0.00010743271559476852, 0.0008867366705089808, 0.001666040625423193, 0.002445344580337405, 0.0032246485352516174, 0.004003952722996473, 0.004783256445080042, 0.005562560632824898, 0.006341864354908466, 0.007121168076992035, 0.007900472730398178, 0.008679776452481747, 0.009459080174565315, 0.010238384827971458, 0.011017687618732452, 0.011796991340816021, 0.01257629506289959, 0.013355599716305733, 0.014134903438389301, 0.01491420716047287, 0.015693511813879013, 0.016472816467285156, 0.01725211925804615, 0.018031423911452293, 0.018810726702213287, 0.01959003135561943, 0.020369336009025574, 0.021148638799786568, 0.02192794345319271, 0.022707246243953705, 0.023486550897359848, 0.02426585555076599, 0.025045158341526985, 0.02582446299493313, 0.026603765785694122, 0.027383070439100266, 0.02816237509250641, 0.028941679745912552, 0.029720982536673546, 0.03050028719007969, 0.03127958998084068, 0.032058894634246826, 0.03283819928765297, 0.03361750394105911, 0.03439680486917496, 0.0351761095225811, 0.035955414175987244, 0.03673471882939339, 0.03751402348279953, 0.038293324410915375, 0.03907262906432152, 0.03985193371772766, 0.040631238371133804, 0.04141054302453995, 0.04218984395265579, 0.042969148606061935, 0.04374845325946808, 0.04452775418758392, 0.045307058840990067, 0.04608636349439621, 0.04686566814780235, 0.047644972801208496, 0.04842427745461464]}, "gradients/linears.1.weight": {"_type": "histogram", "values": [1.0, 0.0, 1.0, 0.0, 0.0, 1.0, 1.0, 3.0, 0.0, 4.0, 0.0, 2.0, 2.0, 1.0, 3.0, 2.0, 4.0, 4.0, 2.0, 1.0, 6.0, 2.0, 2.0, 3.0, 100.0, 4.0, 8.0, 3.0, 6.0, 2.0, 12.0, 3.0, 3.0, 6.0, 4.0, 4.0, 2.0, 5.0, 3.0, 6.0, 3.0, 3.0, 1.0, 4.0, 3.0, 1.0, 2.0, 4.0, 2.0, 3.0, 4.0, 2.0, 0.0, 1.0, 0.0, 1.0, 1.0, 0.0, 1.0, 1.0, 1.0, 0.0, 1.0, 1.0], "bins": [-0.03961234539747238, -0.03799426183104515, -0.03637617826461792, -0.03475809842348099, -0.03314001485705376, -0.031521931290626526, -0.029903847724199295, -0.028285764157772064, -0.026667682453989983, -0.025049598887562752, -0.02343151718378067, -0.02181343361735344, -0.02019535005092621, -0.018577268347144127, -0.016959184780716896, -0.01534110214561224, -0.013723019510507584, -0.012104936875402927, -0.010486854240298271, -0.00886877067387104, -0.007250688038766384, -0.005632605403661728, -0.004014521837234497, -0.002396439202129841, -0.0007783565670251846, 0.0008397263009101152, 0.002457809168845415, 0.004075892269611359, 0.005693974904716015, 0.007312057539820671, 0.008930141106247902, 0.010548223741352558, 0.012166306376457214, 0.01378438901156187, 0.015402471646666527, 0.017020555213093758, 0.01863863691687584, 0.02025672048330307, 0.0218748040497303, 0.023492887616157532, 0.025110969319939613, 0.026729052886366844, 0.028347134590148926, 0.029965218156576157, 0.03158330172300339, 0.03320138156414032, 0.03481946885585785, 0.03643754869699478, 0.03805563226342201, 0.03967371582984924, 0.041291799396276474, 0.042909882962703705, 0.04452796280384064, 0.04614604637026787, 0.0477641299366951, 0.04938221350312233, 0.05100029706954956, 0.05261838063597679, 0.05423646420240402, 0.055854544043540955, 0.057472627609968185, 0.059090711176395416, 0.06070879474282265, 0.06232687830924988, 0.06394495815038681]}, "gradients/linears.0.bias": {"_type": "histogram", "values": [1.0, 1.0, 0.0, 1.0, 0.0, 2.0, 0.0, 2.0, 0.0, 0.0, 1.0, 2.0, 1.0, 3.0, 3.0, 0.0, 1.0, 2.0, 0.0, 0.0, 2.0, 1.0, 49.0, 0.0, 1.0, 2.0, 0.0, 5.0, 4.0, 2.0, 0.0, 6.0, 0.0, 2.0, 0.0, 2.0, 2.0, 4.0, 1.0, 3.0, 5.0, 1.0, 2.0, 2.0, 1.0, 1.0, 1.0, 2.0, 3.0, 2.0, 0.0, 0.0, 1.0, 0.0, 0.0, 0.0, 0.0, 0.0, 0.0, 0.0, 0.0, 0.0, 0.0, 1.0], "bins": [-0.0034624256659299135, -0.003309115767478943, -0.003155806101858616, -0.0030024962034076452, -0.0028491863049566746, -0.0026958766393363476, -0.002542566740885377, -0.0023892568424344063, -0.0022359471768140793, -0.0020826372783631086, -0.0019293274963274598, -0.001776017714291811, -0.0016227078158408403, -0.0014693980338051915, -0.0013160882517695427, -0.001162778353318572, -0.0010094684548676014, -0.0008561586146242917, -0.0007028487743809819, -0.0005495389923453331, -0.00039622915210202336, -0.00024291931185871363, -8.96095298230648e-05, 6.370036862790585e-05, 0.00021701015066355467, 0.0003703199909068644, 0.0005236298311501741, 0.000676939613185823, 0.0008302494534291327, 0.0009835592936724424, 0.0011368690757080913, 0.001290178974159062, 0.001443488523364067, 0.001596798305399716, 0.0017501082038506866, 0.0019034179858863354, 0.002056727884337306, 0.0022100377827882767, 0.0023633474484086037, 0.0025166573468595743, 0.002669967245310545, 0.0028232771437615156, 0.0029765868093818426, 0.0031298967078328133, 0.003283206606283784, 0.0034365165047347546, 0.0035898261703550816, 0.003743136068806052, 0.003896445734426379, 0.00404975563287735, 0.004203065298497677, 0.004356374964118004, 0.004509685095399618, 0.004662994761019945, 0.0048163048923015594, 0.0049696145579218864, 0.0051229242235422134, 0.0052762338891625404, 0.005429544020444155, 0.005582853686064482, 0.005736163351684809, 0.005889473482966423, 0.00604278314858675, 0.006196092814207077, 0.006349402945488691]}, "gradients/linears.0.weight": {"_type": "histogram", "values": [1.0, 1.0, 2.0, 2.0, 3.0, 2.0, 3.0, 5.0, 4.0, 4.0, 7.0, 10.0, 18.0, 15.0, 29.0, 24.0, 43.0, 56.0, 76.0, 113.0, 148.0, 244.0, 441.0, 851.0, 1672.0, 10848.0, 2194.0, 1217.0, 810.0, 548.0, 370.0, 244.0, 168.0, 139.0, 114.0, 68.0, 45.0, 49.0, 34.0, 18.0, 19.0, 14.0, 14.0, 9.0, 9.0, 5.0, 5.0, 3.0, 5.0, 3.0, 1.0, 3.0, 2.0, 0.0, 0.0, 1.0, 0.0, 1.0, 0.0, 0.0, 0.0, 0.0, 1.0, 1.0], "bins": [-0.0029297987930476665, -0.0028156882617622614, -0.0027015774976462126, -0.0025874669663608074, -0.0024733564350754023, -0.002359245903789997, -0.0022451351396739483, -0.002131024608388543, -0.002016914077103138, -0.001902803429402411, -0.0017886928981170058, -0.0016745822504162788, -0.0015604717191308737, -0.0014463610714301467, -0.0013322504237294197, -0.0012181398924440145, -0.0011040291283279657, -0.0009899184806272388, -0.0008758079493418336, -0.0007616973016411066, -0.0006475867121480405, -0.0005334761226549745, -0.0004193654749542475, -0.0003052548854611814, -0.00019114429596811533, -7.703369192313403e-05, 3.707691212184727e-05, 0.0001511875307187438, 0.0002652981202118099, 0.00037940870970487595, 0.0004935193574056029, 0.000607629946898669, 0.0007217405363917351, 0.0008358511258848011, 0.0009499617153778672, 0.0010640723630785942, 0.0011781828943639994, 0.0012922935420647264, 0.0014064041897654533, 0.0015205147210508585, 0.0016346253687515855, 0.0017487360164523125, 0.0018628465477377176, 0.001976957079023123, 0.0020910678431391716, 0.0022051783744245768, 0.002319288905709982, 0.0024333996698260307, 0.002547510201111436, 0.002661620732396841, 0.00277573149651289, 0.002889842027798295, 0.0030039525590837, 0.003118063323199749, 0.003232173854485154, 0.0033462843857705593, 0.003460395149886608, 0.0035745056811720133, 0.003688616445288062, 0.0038027269765734673, 0.003916837740689516, 0.004030948039144278, 0.004145058803260326, 0.004259169567376375, 0.004373279865831137]}, "gradients/aggr.lstm.weight_ih_l0": {"_type": "histogram", "values": [1.0, 0.0, 0.0, 0.0, 0.0, 1.0, 3.0, 2.0, 3.0, 3.0, 9.0, 6.0, 3.0, 10.0, 12.0, 15.0, 17.0, 29.0, 42.0, 65.0, 85.0, 143.0, 204.0, 326.0, 588.0, 1285.0, 4312.0, 33213.0, 7988.0, 2034.0, 806.0, 441.0, 250.0, 175.0, 110.0, 87.0, 67.0, 36.0, 34.0, 19.0, 9.0, 9.0, 13.0, 6.0, 3.0, 3.0, 3.0, 2.0, 1.0, 3.0, 3.0, 2.0, 2.0, 3.0, 0.0, 1.0, 0.0, 0.0, 0.0, 0.0, 0.0, 0.0, 0.0, 1.0], "bins": [-0.0038745393976569176, -0.003734408877789974, -0.003594278357923031, -0.003454148070886731, -0.003314017551019788, -0.0031738870311528444, -0.0030337567441165447, -0.0028936262242496014, -0.002753495704382658, -0.0026133651845157146, -0.0024732346646487713, -0.0023331043776124716, -0.0021929738577455282, -0.002052843337878585, -0.0019127129344269633, -0.0017725825309753418, -0.0016324520111083984, -0.001492321491241455, -0.0013521910877898335, -0.001212060684338212, -0.0010719301644712687, -0.0009317997028119862, -0.0007916692411527038, -0.0006515388377010822, -0.0005114083178341389, -0.0003712778561748564, -0.00023114739451557398, -9.101693285629153e-05, 4.9113528802990913e-05, 0.00018924399046227336, 0.0003293744521215558, 0.00046950485557317734, 0.000609635841101408, 0.0007497663027606905, 0.0008898967644199729, 0.0010300271678715944, 0.0011701576877385378, 0.0013102882076054811, 0.0014504186110571027, 0.0015905490145087242, 0.0017306795343756676, 0.001870810054242611, 0.0020109405741095543, 0.002151070861145854, 0.0022912013810127974, 0.0024313319008797407, 0.0025714621879160404, 0.0027115927077829838, 0.002851723227649927, 0.0029918537475168705, 0.003131984267383814, 0.0032721145544201136, 0.003412245074287057, 0.0035523755941540003, 0.0036925058811903, 0.0038326364010572433, 0.003972766920924187, 0.00411289744079113, 0.004253027960658073, 0.004393158480525017, 0.00453328900039196, 0.004673419054597616, 0.0048135495744645596, 0.004953680094331503, 0.005093810614198446]}, "gradients/aggr.lstm.weight_hh_l0": {"_type": "histogram", "values": [1.0, 0.0, 0.0, 0.0, 0.0, 0.0, 0.0, 0.0, 1.0, 0.0, 0.0, 1.0, 1.0, 1.0, 2.0, 0.0, 0.0, 0.0, 1.0, 0.0, 0.0, 0.0, 2.0, 2.0, 4.0, 3.0, 3.0, 6.0, 10.0, 12.0, 9.0, 25.0, 36.0, 44.0, 81.0, 140.0, 296.0, 710.0, 2378.0, 17250.0, 3630.0, 861.0, 318.0, 172.0, 96.0, 43.0, 35.0, 26.0, 9.0, 7.0, 6.0, 9.0, 3.0, 1.0, 2.0, 2.0, 2.0, 0.0, 0.0, 1.0, 0.0, 0.0, 0.0, 2.0], "bins": [-0.0038745393976569176, -0.0037767800968140364, -0.003679021028801799, -0.0035812617279589176, -0.0034835024271160364, -0.003385743126273155, -0.0032879840582609177, -0.0031902247574180365, -0.0030924654565751553, -0.002994706155732274, -0.0028969470877200365, -0.0027991877868771553, -0.002701428486034274, -0.002603669185191393, -0.0025059101171791553, -0.002408150816336274, -0.002310391515493393, -0.0022126322146505117, -0.002114873146638274, -0.002017113845795393, -0.0019193545449525118, -0.0018215953605249524, -0.001723836176097393, -0.0016260768752545118, -0.0015283178072422743, -0.001430558622814715, -0.0013327993219718337, -0.0012350401375442743, -0.0011372808367013931, -0.0010395216522738338, -0.0009417624096386135, -0.0008440031670033932, -0.000746243866160512, -0.0006484846235252917, -0.0005507253808900714, -0.00045296616735868156, -0.00035520692472346127, -0.00025744771119207144, -0.00015968846855685115, -6.192922592163086e-05, 3.583001671358943e-05, 0.00013358925934880972, 0.00023134848743211478, 0.00032910771551541984, 0.00042686695815064013, 0.00052462617168203, 0.0006223854143172503, 0.0007201446569524705, 0.0008179038995876908, 0.0009156631422229111, 0.0010134223848581314, 0.0011111815692856908, 0.001208940870128572, 0.0013067000545561314, 0.0014044593553990126, 0.001502218539826572, 0.0015999777242541313, 0.0016977369086816907, 0.001795496209524572, 0.0018932553939521313, 0.0019910146947950125, 0.0020887739956378937, 0.0021865330636501312, 0.0022842923644930124, 0.0023820516653358936]}, "gradients/aggr.lstm.bias_hh_l0": {"_type": "histogram", "values": [1.0, 2.0, 0.0, 0.0, 0.0, 0.0, 1.0, 2.0, 2.0, 1.0, 0.0, 2.0, 2.0, 2.0, 3.0, 2.0, 0.0, 1.0, 1.0, 6.0, 3.0, 10.0, 20.0, 36.0, 67.0, 53.0, 40.0, 12.0, 9.0, 7.0, 9.0, 3.0, 2.0, 2.0, 2.0, 2.0, 3.0, 3.0, 2.0, 1.0, 0.0, 0.0, 1.0, 3.0, 1.0, 0.0, 0.0, 3.0, 0.0, 0.0, 1.0, 0.0, 0.0, 0.0, 0.0, 0.0, 0.0, 0.0, 0.0, 0.0, 0.0, 0.0, 0.0, 1.0], "bins": [-0.006659503094851971, -0.006391105242073536, -0.006122706923633814, -0.005854309070855379, -0.005585910752415657, -0.005317512899637222, -0.0050491150468587875, -0.004780717194080353, -0.004512318875640631, -0.004243921022862196, -0.003975522704422474, -0.003707124851644039, -0.0034387267660349607, -0.0031703286804258823, -0.0029019308276474476, -0.002633532742038369, -0.0023651346564292908, -0.0020967365708202124, -0.0018283386016264558, -0.0015599406324326992, -0.0012915425468236208, -0.0010231444612145424, -0.0007547464920207858, -0.00048634852282702923, -0.00021795043721795082, 5.044759018346667e-05, 0.00031884561758488417, 0.0005872436449863017, 0.0008556416723877192, 0.0011240397579967976, 0.0013924377271905541, 0.0016608356963843107, 0.0019292347133159637, 0.002197632798925042, 0.0024660308845341206, 0.0027344287373125553, 0.0030028268229216337, 0.003271224908530712, 0.003539622761309147, 0.0038080208469182253, 0.004076418932527304, 0.0043448167853057384, 0.0046132151037454605, 0.004881612956523895, 0.00515001080930233, 0.005418409127742052, 0.005686806980520487, 0.005955205298960209, 0.006223603151738644, 0.006492001004517078, 0.0067603993229568005, 0.007028797175735235, 0.007297195494174957, 0.007565593346953392, 0.007833991199731827, 0.008102389052510262, 0.008370786905288696, 0.008639184758067131, 0.008907582610845566, 0.009175981394946575, 0.00944437924772501, 0.009712777100503445, 0.00998117495328188, 0.010249572806060314, 0.010517971590161324]}, "gradients/aggr.lstm.bias_ih_l0": {"_type": "histogram", "values": [1.0, 2.0, 0.0, 0.0, 0.0, 0.0, 1.0, 2.0, 2.0, 1.0, 0.0, 2.0, 2.0, 2.0, 3.0, 2.0, 0.0, 1.0, 1.0, 6.0, 3.0, 10.0, 20.0, 36.0, 67.0, 53.0, 40.0, 12.0, 9.0, 7.0, 9.0, 3.0, 2.0, 2.0, 2.0, 2.0, 3.0, 3.0, 2.0, 1.0, 0.0, 0.0, 1.0, 3.0, 1.0, 0.0, 0.0, 3.0, 0.0, 0.0, 1.0, 0.0, 0.0, 0.0, 0.0, 0.0, 0.0, 0.0, 0.0, 0.0, 0.0, 0.0, 0.0, 1.0], "bins": [-0.006659503094851971, -0.006391105242073536, -0.006122706923633814, -0.005854309070855379, -0.005585910752415657, -0.005317512899637222, -0.0050491150468587875, -0.004780717194080353, -0.004512318875640631, -0.004243921022862196, -0.003975522704422474, -0.003707124851644039, -0.0034387267660349607, -0.0031703286804258823, -0.0029019308276474476, -0.002633532742038369, -0.0023651346564292908, -0.0020967365708202124, -0.0018283386016264558, -0.0015599406324326992, -0.0012915425468236208, -0.0010231444612145424, -0.0007547464920207858, -0.00048634852282702923, -0.00021795043721795082, 5.044759018346667e-05, 0.00031884561758488417, 0.0005872436449863017, 0.0008556416723877192, 0.0011240397579967976, 0.0013924377271905541, 0.0016608356963843107, 0.0019292347133159637, 0.002197632798925042, 0.0024660308845341206, 0.0027344287373125553, 0.0030028268229216337, 0.003271224908530712, 0.003539622761309147, 0.0038080208469182253, 0.004076418932527304, 0.0043448167853057384, 0.0046132151037454605, 0.004881612956523895, 0.00515001080930233, 0.005418409127742052, 0.005686806980520487, 0.005955205298960209, 0.006223603151738644, 0.006492001004517078, 0.0067603993229568005, 0.007028797175735235, 0.007297195494174957, 0.007565593346953392, 0.007833991199731827, 0.008102389052510262, 0.008370786905288696, 0.008639184758067131, 0.008907582610845566, 0.009175981394946575, 0.00944437924772501, 0.009712777100503445, 0.00998117495328188, 0.010249572806060314, 0.010517971590161324]}, "gradients/convs.1.lin_skip.bias": {"_type": "histogram", "values": [1.0, 0.0, 0.0, 0.0, 0.0, 0.0, 0.0, 0.0, 0.0, 0.0, 0.0, 0.0, 0.0, 0.0, 1.0, 0.0, 3.0, 0.0, 3.0, 0.0, 0.0, 2.0, 1.0, 0.0, 1.0, 2.0, 1.0, 2.0, 3.0, 5.0, 1.0, 2.0, 3.0, 3.0, 2.0, 4.0, 4.0, 2.0, 2.0, 1.0, 1.0, 3.0, 2.0, 1.0, 3.0, 4.0, 1.0, 2.0, 1.0, 0.0, 1.0, 3.0, 0.0, 1.0, 3.0, 2.0, 1.0, 1.0, 0.0, 0.0, 0.0, 0.0, 0.0, 2.0], "bins": [-0.037720996886491776, -0.03666067123413086, -0.03560034558176994, -0.03454001992940903, -0.03347969800233841, -0.03241937234997749, -0.03135904669761658, -0.03029872104525566, -0.029238395392894745, -0.02817806974053383, -0.027117745950818062, -0.026057420298457146, -0.02499709464609623, -0.023936770856380463, -0.022876445204019547, -0.02181611955165863, -0.020755795761942863, -0.019695470109581947, -0.01863514631986618, -0.017574820667505264, -0.016514495015144348, -0.015454170294106007, -0.014393845573067665, -0.013333519920706749, -0.012273195199668407, -0.011212870478630066, -0.01015254482626915, -0.009092220105230808, -0.008031895384192467, -0.006971569731831551, -0.005911245010793209, -0.00485091982409358, -0.0037905946373939514, -0.0027302694506943226, -0.0016699444968253374, -0.0006096195429563522, 0.0004507056437432766, 0.0015110308304429054, 0.002571355551481247, 0.0036316807381808758, 0.004692005924880505, 0.0057523311115801334, 0.006812656298279762, 0.007872981019318104, 0.008933305740356445, 0.009993631392717361, 0.011053956113755703, 0.012114280834794044, 0.01317460648715496, 0.014234931208193302, 0.015295256860554218, 0.01635558158159256, 0.017415907233953476, 0.018476232886314392, 0.01953655667603016, 0.020596882328391075, 0.021657206118106842, 0.022717531770467758, 0.023777855560183525, 0.02483818121254444, 0.025898506864905357, 0.026958830654621124, 0.02801915630698204, 0.029079481959342957, 0.030139807611703873]}, "gradients/convs.1.lin_skip.weight": {"_type": "histogram", "values": [1.0, 0.0, 0.0, 0.0, 0.0, 0.0, 0.0, 3.0, 0.0, 3.0, 0.0, 2.0, 2.0, 3.0, 3.0, 4.0, 4.0, 13.0, 10.0, 22.0, 17.0, 24.0, 30.0, 46.0, 66.0, 80.0, 117.0, 140.0, 189.0, 246.0, 338.0, 396.0, 745.0, 1155.0, 733.0, 497.0, 371.0, 269.0, 232.0, 176.0, 153.0, 107.0, 87.0, 52.0, 40.0, 35.0, 27.0, 18.0, 24.0, 12.0, 10.0, 14.0, 10.0, 5.0, 9.0, 5.0, 4.0, 2.0, 3.0, 2.0, 1.0, 3.0, 0.0, 1.0], "bins": [-0.01968509890139103, -0.01909993402659893, -0.01851477101445198, -0.01792960613965988, -0.017344441264867783, -0.016759278252720833, -0.016174113377928734, -0.01558894943445921, -0.015003785490989685, -0.01441862154752016, -0.013833457604050636, -0.013248292729258537, -0.012663128785789013, -0.012077964842319489, -0.01149279996752739, -0.010907636024057865, -0.01032247208058834, -0.009737308137118816, -0.009152144193649292, -0.008566979318857193, -0.007981815375387669, -0.007396651431918144, -0.0068114870227873325, -0.006226322613656521, -0.0056411586701869965, -0.005055994726717472, -0.00447083031758666, -0.0038856661412864923, -0.0033005019649863243, -0.0027153377886861563, -0.0021301736123859882, -0.0015450092032551765, -0.0009598471224308014, -0.00037468294613063335, 0.00021048123016953468, 0.0007956454064697027, 0.0013808095827698708, 0.001965973759070039, 0.002551137935370207, 0.0031363023445010185, 0.003721466287970543, 0.004306630231440067, 0.004891794640570879, 0.005476959049701691, 0.006062122993171215, 0.0066472869366407394, 0.007232451345771551, 0.007817615754902363, 0.008402779698371887, 0.008987943641841412, 0.009573107585310936, 0.010158272460103035, 0.01074343640357256, 0.011328600347042084, 0.011913765221834183, 0.012498929165303707, 0.013084093108773232, 0.013669257052242756, 0.01425442099571228, 0.01483958587050438, 0.015424749813973904, 0.016009913757443428, 0.016595078632235527, 0.017180241644382477, 0.017765406519174576]}, "gradients/convs.1.lin_edge.weight": {"_type": "histogram", "values": [1.0, 0.0, 1.0, 0.0, 1.0, 0.0, 0.0, 0.0, 0.0, 2.0, 0.0, 0.0, 0.0, 2.0, 2.0, 2.0, 2.0, 3.0, 1.0, 0.0, 2.0, 4.0, 6.0, 5.0, 4.0, 4.0, 7.0, 7.0, 8.0, 12.0, 6.0, 14.0, 10.0, 13.0, 13.0, 7.0, 15.0, 4.0, 4.0, 11.0, 14.0, 7.0, 7.0, 4.0, 8.0, 6.0, 2.0, 3.0, 2.0, 1.0, 3.0, 3.0, 2.0, 1.0, 2.0, 1.0, 0.0, 1.0, 1.0, 0.0, 0.0, 1.0, 0.0, 1.0], "bins": [-0.018508581444621086, -0.017955489456653595, -0.017402395606040955, -0.016849303618073463, -0.016296209767460823, -0.015743117779493332, -0.015190024860203266, -0.0146369319409132, -0.01408383995294571, -0.013530747033655643, -0.012977654114365578, -0.012424562126398087, -0.01187146920710802, -0.011318376287817955, -0.01076528336852789, -0.010212190449237823, -0.009659097529947758, -0.009106004610657692, -0.008552911691367626, -0.00799981877207756, -0.007446726784110069, -0.0068936338648200035, -0.006340540945529938, -0.005787448026239872, -0.0052343555726110935, -0.004681262653321028, -0.004128170199692249, -0.0035750772804021835, -0.0030219845939427614, -0.0024688919074833393, -0.0019157989881932735, -0.0013627063017338514, -0.0008096136152744293, -0.0002565208706073463, 0.00029657187405973673, 0.0008496646769344807, 0.0014027573633939028, 0.001955850049853325, 0.0025089429691433907, 0.0030620356556028128, 0.003615128342062235, 0.004168221261352301, 0.004721313714981079, 0.005274406634271145, 0.005827499553561211, 0.006380592007189989, 0.006933684926480055, 0.007486777380108833, 0.008039870299398899, 0.008592963218688965, 0.00914605613797903, 0.009699149057269096, 0.010252241045236588, 0.010805333964526653, 0.011358426883816719, 0.011911519803106785, 0.01246461272239685, 0.013017705641686916, 0.013570798560976982, 0.014123890548944473, 0.014676983468234539, 0.015230076387524605, 0.015783168375492096, 0.016336262226104736, 0.016889354214072227]}, "gradients/convs.1.lin_value.bias": {"_type": "histogram", "values": [1.0, 0.0, 0.0, 0.0, 0.0, 0.0, 0.0, 0.0, 0.0, 0.0, 0.0, 0.0, 0.0, 1.0, 0.0, 0.0, 1.0, 2.0, 2.0, 1.0, 0.0, 2.0, 0.0, 1.0, 0.0, 4.0, 0.0, 2.0, 5.0, 2.0, 3.0, 1.0, 0.0, 5.0, 3.0, 4.0, 3.0, 1.0, 4.0, 1.0, 1.0, 0.0, 3.0, 2.0, 2.0, 4.0, 5.0, 0.0, 0.0, 1.0, 0.0, 1.0, 3.0, 2.0, 2.0, 0.0, 3.0, 1.0, 0.0, 0.0, 0.0, 0.0, 0.0, 2.0], "bins": [-0.03767051175236702, -0.036618974059820175, -0.03556743264198303, -0.03451589494943619, -0.03346435725688934, -0.0324128195643425, -0.031361278146505356, -0.03030974045395851, -0.029258200898766518, -0.028206661343574524, -0.02715512365102768, -0.026103584095835686, -0.025052044540643692, -0.024000506848096848, -0.022948967292904854, -0.02189742773771286, -0.020845890045166016, -0.019794350489974022, -0.018742812797427177, -0.017691273242235184, -0.01663973554968834, -0.015588195994496346, -0.014536656439304352, -0.013485117815434933, -0.012433579191565514, -0.011382040567696095, -0.010330501943826675, -0.009278962388634682, -0.008227423764765263, -0.0071758851408958435, -0.006124346051365137, -0.005072806961834431, -0.004021268337965012, -0.002969729481264949, -0.001918190624564886, -0.0008666517678648233, 0.0001848870888352394, 0.0012364257127046585, 0.002287964802235365, 0.0033395038917660713, 0.00439104251563549, 0.0054425811395049095, 0.006494120229035616, 0.007545659318566322, 0.008597197942435741, 0.00964873656630516, 0.010700276121497154, 0.011751814745366573, 0.012803353369235992, 0.013854891993105412, 0.01490643061697483, 0.015957970172166824, 0.01700950786471367, 0.018061047419905663, 0.019112586975097656, 0.0201641246676445, 0.021215664222836494, 0.022267203778028488, 0.023318741470575333, 0.024370281025767326, 0.02542182058095932, 0.026473358273506165, 0.027524897828698158, 0.028576437383890152, 0.029627975076436996]}, "gradients/convs.1.lin_value.weight": {"_type": "histogram", "values": [1.0, 1.0, 0.0, 0.0, 1.0, 0.0, 1.0, 2.0, 1.0, 0.0, 7.0, 5.0, 9.0, 6.0, 7.0, 9.0, 19.0, 22.0, 35.0, 47.0, 55.0, 66.0, 88.0, 132.0, 156.0, 207.0, 289.0, 376.0, 549.0, 840.0, 1040.0, 623.0, 490.0, 341.0, 216.0, 212.0, 165.0, 118.0, 95.0, 60.0, 56.0, 38.0, 49.0, 27.0, 19.0, 15.0, 17.0, 12.0, 7.0, 10.0, 4.0, 4.0, 6.0, 0.0, 1.0, 3.0, 1.0, 0.0, 0.0, 0.0, 0.0, 0.0, 0.0, 1.0], "bins": [-0.01637684367597103, -0.015836553648114204, -0.015296264551579952, -0.0147559754550457, -0.014215685427188873, -0.013675395399332047, -0.013135106302797794, -0.012594817206263542, -0.012054527178406715, -0.011514237150549889, -0.010973948054015636, -0.010433658957481384, -0.009893368929624557, -0.00935307890176773, -0.008812789805233479, -0.008272500708699226, -0.0077322106808424, -0.00719192111864686, -0.006651631556451321, -0.006111341994255781, -0.005571052432060242, -0.005030762869864702, -0.004490473307669163, -0.003950183745473623, -0.003409894183278084, -0.0028696046210825443, -0.002329315058887005, -0.0017890254966914654, -0.001248735934495926, -0.0007084463723003864, -0.00016815681010484695, 0.0003721327520906925, 0.000912422314286232, 0.0014527118764817715, 0.001993001438677311, 0.0025332910008728504, 0.00307358056306839, 0.0036138701252639294, 0.004154159687459469, 0.004694449249655008, 0.005234738811850548, 0.005775028374046087, 0.006315317936241627, 0.006855607498437166, 0.007395897060632706, 0.007936187088489532, 0.008476476185023785, 0.009016765281558037, 0.009557055309414864, 0.01009734533727169, 0.010637634433805943, 0.011177923530340195, 0.011718213558197021, 0.012258503586053848, 0.0127987926825881, 0.013339081779122353, 0.01387937180697918, 0.014419661834836006, 0.014959950931370258, 0.01550024002790451, 0.016040530055761337, 0.016580820083618164, 0.01712111011147499, 0.01766139827668667, 0.018201688304543495]}, "gradients/convs.1.lin_key.bias": {"_type": "histogram", "values": [1.0, 0.0, 2.0, 4.0, 0.0, 0.0, 0.0, 0.0, 2.0, 5.0, 0.0, 3.0, 2.0, 1.0, 4.0, 1.0, 0.0, 0.0, 1.0, 3.0, 3.0, 3.0, 3.0, 0.0, 3.0, 1.0, 3.0, 1.0, 3.0, 6.0, 3.0, 1.0, 2.0, 0.0, 0.0, 2.0, 4.0, 3.0, 0.0, 3.0, 1.0, 2.0, 0.0, 1.0, 0.0, 0.0, 0.0, 0.0, 0.0, 2.0, 0.0, 0.0, 0.0, 1.0, 0.0, 0.0, 0.0, 0.0, 0.0, 0.0, 0.0, 0.0, 0.0, 1.0], "bins": [-2.3283064365386963e-10, -2.233377927041147e-10, -2.1384494175435975e-10, -2.0435209080460481e-10, -1.9485923985484987e-10, -1.8536638890509494e-10, -1.7587353795534e-10, -1.6638068700558506e-10, -1.5688783605583012e-10, -1.4739498510607518e-10, -1.3790213415632024e-10, -1.284092832065653e-10, -1.1891643225681037e-10, -1.0942358130705543e-10, -9.993073035730049e-11, -9.043787940754555e-11, -8.094502845779061e-11, -7.145217750803567e-11, -6.195932655828074e-11, -5.24664756085258e-11, -4.297362465877086e-11, -3.348077370901592e-11, -2.3987922759260982e-11, -1.4495071809506044e-11, -5.002220859751105e-12, 4.490630090003833e-12, 1.3983481039758772e-11, 2.347633198951371e-11, 3.296918293926865e-11, 4.246203388902359e-11, 5.1954884838778526e-11, 6.144773578853346e-11, 7.09405867382884e-11, 8.043343768804334e-11, 8.992628863779828e-11, 9.941913958755322e-11, 1.0891199053730816e-10, 1.184048414870631e-10, 1.2789769243681803e-10, 1.3739054338657297e-10, 1.468833943363279e-10, 1.5637624528608285e-10, 1.658690962358378e-10, 1.7536194718559273e-10, 1.8485479813534766e-10, 1.943476490851026e-10, 2.0384050003485754e-10, 2.1333335098461248e-10, 2.2282620193436742e-10, 2.3231905288412236e-10, 2.418119038338773e-10, 2.5130475478363223e-10, 2.6079760573338717e-10, 2.702904566831421e-10, 2.7978330763289705e-10, 2.89276158582652e-10, 2.9876900953240693e-10, 3.0826186048216186e-10, 3.177547114319168e-10, 3.2724756238167174e-10, 3.367404133314267e-10, 3.462332642811816e-10, 3.5572611523093656e-10, 3.652189661806915e-10, 3.7471181713044643e-10]}, "gradients/convs.1.lin_key.weight": {"_type": "histogram", "values": [2.0, 0.0, 2.0, 1.0, 2.0, 3.0, 6.0, 0.0, 3.0, 5.0, 7.0, 13.0, 9.0, 14.0, 18.0, 18.0, 34.0, 30.0, 42.0, 66.0, 65.0, 80.0, 95.0, 131.0, 157.0, 208.0, 255.0, 307.0, 354.0, 430.0, 487.0, 560.0, 560.0, 471.0, 380.0, 332.0, 303.0, 233.0, 159.0, 163.0, 115.0, 81.0, 73.0, 56.0, 59.0, 36.0, 32.0, 27.0, 15.0, 10.0, 13.0, 17.0, 5.0, 3.0, 8.0, 1.0, 2.0, 1.0, 0.0, 0.0, 0.0, 0.0, 1.0, 1.0], "bins": [-0.0020294166170060635, -0.0019655984360724688, -0.0019017801387235522, -0.0018379619577899575, -0.001774143660441041, -0.0017103254795074463, -0.0016465072985738516, -0.0015826891176402569, -0.0015188708202913404, -0.0014550526393577456, -0.0013912343420088291, -0.0013274161610752344, -0.0012635979801416397, -0.0011997796827927232, -0.0011359615018591285, -0.001072143204510212, -0.0010083250235766172, -0.0009445067844353616, -0.000880688545294106, -0.0008168703643605113, -0.0007530521252192557, -0.0006892338860780001, -0.0006254157051444054, -0.0005615974660031497, -0.0004977792268618941, -0.0004339609877206385, -0.00037014277768321335, -0.0003063245676457882, -0.00024250632850453258, -0.00017868808936327696, -0.0001148698793258518, -5.105166928842664e-05, 1.276656985282898e-05, 7.658479444216937e-05, 0.00014040301903150976, 0.00020422124362085015, 0.00026803946821019053, 0.00033185770735144615, 0.0003956759173888713, 0.00045949412742629647, 0.0005233123665675521, 0.0005871306057088077, 0.0006509488448500633, 0.000714767025783658, 0.0007785852649249136, 0.0008424035040661693, 0.000906221684999764, 0.0009700399241410196, 0.0010338581632822752, 0.00109767634421587, 0.0011614946415647864, 0.0012253128224983811, 0.0012891311198472977, 0.0013529493007808924, 0.001416767481714487, 0.0014805856626480818, 0.0015444039599969983, 0.001608222140930593, 0.0016720404382795095, 0.0017358586192131042, 0.001799676800146699, 0.0018634950974956155, 0.0019273132784292102, 0.0019911315757781267, 0.0020549497567117214]}, "gradients/convs.1.lin_query.bias": {"_type": "histogram", "values": [1.0, 0.0, 0.0, 0.0, 0.0, 0.0, 0.0, 1.0, 0.0, 0.0, 0.0, 0.0, 0.0, 4.0, 1.0, 1.0, 0.0, 0.0, 2.0, 5.0, 2.0, 2.0, 1.0, 0.0, 2.0, 2.0, 1.0, 3.0, 1.0, 2.0, 2.0, 1.0, 2.0, 3.0, 1.0, 0.0, 1.0, 2.0, 1.0, 2.0, 1.0, 3.0, 4.0, 2.0, 6.0, 3.0, 1.0, 3.0, 3.0, 0.0, 0.0, 1.0, 2.0, 1.0, 3.0, 0.0, 1.0, 0.0, 0.0, 0.0, 0.0, 0.0, 0.0, 1.0], "bins": [-0.008272170089185238, -0.008026557974517345, -0.007780946791172028, -0.007535334676504135, -0.00728972302749753, -0.007044111378490925, -0.00679849972948432, -0.0065528880804777145, -0.006307275965809822, -0.006061664316803217, -0.005816052667796612, -0.005570440553128719, -0.005324828904122114, -0.005079217255115509, -0.004833605606108904, -0.004587993957102299, -0.004342382308095694, -0.0040967706590890884, -0.0038511587772518396, -0.0036055471282452345, -0.0033599352464079857, -0.0031143235974013805, -0.0028687119483947754, -0.0026231002993881702, -0.0023774884175509214, -0.0021318767685443163, -0.0018862648867070675, -0.0016406532377004623, -0.0013950414722785354, -0.0011494297068566084, -0.0009038180578500032, -0.0006582062924280763, -0.0004125949926674366, -0.00016698325634934008, 7.862847996875644e-05, 0.0003242401871830225, 0.0005698519526049495, 0.0008154637180268764, 0.0010610753670334816, 0.0013066871324554086, 0.0015522988978773355, 0.0017979106632992625, 0.0020435224287211895, 0.0022891340777277946, 0.0025347457267344, 0.0027803576085716486, 0.0030259692575782537, 0.0032715811394155025, 0.0035171927884221077, 0.003762804437428713, 0.004008416086435318, 0.0042540282011032104, 0.004499639850109816, 0.004745251499116421, 0.004990863148123026, 0.005236474797129631, 0.0054820869117975235, 0.005727698560804129, 0.005973310209810734, 0.006218922324478626, 0.006464533973485231, 0.0067101456224918365, 0.006955757271498442, 0.007201368920505047, 0.007446980569511652]}, "gradients/convs.1.lin_query.weight": {"_type": "histogram", "values": [2.0, 0.0, 2.0, 1.0, 0.0, 2.0, 1.0, 3.0, 5.0, 5.0, 3.0, 3.0, 4.0, 7.0, 11.0, 16.0, 17.0, 20.0, 17.0, 30.0, 31.0, 43.0, 48.0, 70.0, 106.0, 130.0, 202.0, 257.0, 359.0, 454.0, 632.0, 757.0, 766.0, 617.0, 500.0, 374.0, 278.0, 219.0, 148.0, 95.0, 72.0, 47.0, 46.0, 30.0, 21.0, 22.0, 15.0, 15.0, 12.0, 9.0, 12.0, 7.0, 3.0, 4.0, 4.0, 1.0, 0.0, 1.0, 2.0, 1.0, 1.0, 0.0, 0.0, 1.0], "bins": [-0.0030520304571837187, -0.002956649987027049, -0.0028612695168703794, -0.0027658892795443535, -0.002670508809387684, -0.0025751283392310143, -0.0024797478690743446, -0.002384367398917675, -0.0022889869287610054, -0.002193606458604336, -0.002098225988447666, -0.0020028455182909966, -0.0019074652809649706, -0.001812084810808301, -0.0017167043406516314, -0.0016213238704949617, -0.0015259436331689358, -0.0014305631630122662, -0.0013351828092709184, -0.0012398023391142488, -0.001144421985372901, -0.0010490415152162313, -0.0009536610450595617, -0.000858280633110553, -0.0007629002211615443, -0.0006675198092125356, -0.0005721393972635269, -0.0004767589271068573, -0.0003813785151578486, -0.0002859981032088399, -0.00019061763305217028, -9.523722110316157e-05, 1.4295801520347595e-07, 9.552338451612741e-05, 0.00019090381101705134, 0.0002862842520698905, 0.0003816646640188992, 0.0004770450759679079, 0.0005724255461245775, 0.0006678059580735862, 0.0007631863700225949, 0.0008585667819716036, 0.0009539471939206123, 0.001049327664077282, 0.0011447081342339516, 0.0012400884879752994, 0.001335468958131969, 0.0014308493118733168, 0.0015262297820299864, 0.001621610252186656, 0.0017169906059280038, 0.0018123710760846734, 0.0019077514298260212, 0.002003131899982691, 0.0020985123701393604, 0.00219389284029603, 0.0022892733104526997, 0.0023846537806093693, 0.002480034250766039, 0.0025754147209227085, 0.0026707949582487345, 0.002766175428405404, 0.0028615558985620737, 0.0029569363687187433, 0.0030523166060447693]}, "gradients/convs.0.lin_skip.bias": {"_type": "histogram", "values": [1.0, 0.0, 1.0, 0.0, 0.0, 0.0, 0.0, 0.0, 2.0, 0.0, 1.0, 1.0, 0.0, 2.0, 3.0, 1.0, 3.0, 3.0, 3.0, 2.0, 1.0, 4.0, 15.0, 4.0, 7.0, 1.0, 2.0, 1.0, 1.0, 3.0, 1.0, 0.0, 2.0, 2.0, 0.0, 0.0, 0.0, 2.0, 3.0, 2.0, 1.0, 0.0, 0.0, 0.0, 0.0, 0.0, 1.0, 1.0, 0.0, 0.0, 0.0, 1.0, 0.0, 0.0, 0.0, 0.0, 0.0, 1.0, 1.0, 0.0, 0.0, 0.0, 0.0, 1.0], "bins": [-0.013878668658435345, -0.013269267976284027, -0.01265986729413271, -0.012050466611981392, -0.011441066861152649, -0.010831665247678757, -0.010222265496850014, -0.009612864814698696, -0.009003464132547379, -0.008394063450396061, -0.007784662768244743, -0.007175262551754713, -0.0065658618696033955, -0.005956461187452078, -0.005347060970962048, -0.00473766028881073, -0.004128259606659412, -0.003518858924508095, -0.002909458475187421, -0.002300058025866747, -0.0016906573437154293, -0.0010812566615641117, -0.00047185621224343777, 0.00013754423707723618, 0.0007469449192285538, 0.0013563454849645495, 0.0019657460507005453, 0.0025751465000212193, 0.003184547182172537, 0.0037939478643238544, 0.004403348080813885, 0.005012748762965202, 0.005622148513793945, 0.006231549195945263, 0.0068409498780965805, 0.007450350094586611, 0.008059751242399216, 0.008669150993227959, 0.009278551675379276, 0.009887952357530594, 0.010497353039681911, 0.011106753721833229, 0.011716154403984547, 0.012325555086135864, 0.012934954836964607, 0.0135443564504385, 0.014153756201267242, 0.01476315688341856, 0.015372557565569878, 0.01598195731639862, 0.016591358929872513, 0.017200758680701256, 0.017810160294175148, 0.01841956004500389, 0.019028961658477783, 0.019638361409306526, 0.02024776116013527, 0.020857160910964012, 0.021466562524437904, 0.022075962275266647, 0.02268536388874054, 0.023294763639569283, 0.023904165253043175, 0.024513565003871918, 0.02512296661734581]}, "gradients/convs.0.lin_skip.weight": {"_type": "histogram", "values": [1.0, 0.0, 0.0, 0.0, 0.0, 1.0, 0.0, 2.0, 0.0, 0.0, 1.0, 1.0, 0.0, 1.0, 0.0, 1.0, 2.0, 2.0, 2.0, 4.0, 4.0, 5.0, 6.0, 6.0, 9.0, 9.0, 8.0, 12.0, 99.0, 46.0, 19.0, 14.0, 12.0, 12.0, 8.0, 3.0, 4.0, 1.0, 5.0, 0.0, 3.0, 1.0, 1.0, 1.0, 1.0, 4.0, 2.0, 1.0, 3.0, 1.0, 0.0, 1.0, 2.0, 0.0, 1.0, 0.0, 0.0, 0.0, 0.0, 0.0, 0.0, 0.0, 0.0, 2.0], "bins": [-0.013976957648992538, -0.013493257574737072, -0.013009557500481606, -0.012525856494903564, -0.012042156420648098, -0.011558456346392632, -0.01107475534081459, -0.010591055266559124, -0.010107355192303658, -0.009623655118048191, -0.009139955043792725, -0.008656254038214684, -0.008172553963959217, -0.007688853889703751, -0.007205153349786997, -0.006721452809870243, -0.006237752735614777, -0.00575405266135931, -0.005270352121442556, -0.004786651581525803, -0.004302951507270336, -0.003819251200184226, -0.003335550893098116, -0.002851850586012006, -0.0023681502789258957, -0.0018844499718397856, -0.0014007496647536755, -0.0009170493576675653, -0.00043334905058145523, 5.0351256504654884e-05, 0.000534051563590765, 0.0010177518706768751, 0.0015014521777629852, 0.0019851524848490953, 0.0024688527919352055, 0.0029525530990213156, 0.0034362534061074257, 0.003919953480362892, 0.004403654020279646, 0.0048873545601964, 0.005371054634451866, 0.005854754708707333, 0.006338455248624086, 0.00682215578854084, 0.007305855862796307, 0.007789555937051773, 0.008273256942629814, 0.00875695701688528, 0.009240657091140747, 0.009724357165396214, 0.01020805723965168, 0.010691758245229721, 0.011175458319485188, 0.011659158393740654, 0.012142859399318695, 0.012626559473574162, 0.013110259547829628, 0.013593959622085094, 0.014077659696340561, 0.014561360701918602, 0.015045060776174068, 0.015528760850429535, 0.016012461856007576, 0.016496160998940468, 0.01697986200451851]}, "gradients/convs.0.lin_edge.weight": {"_type": "histogram", "values": [2.0, 1.0, 0.0, 1.0, 1.0, 0.0, 0.0, 0.0, 1.0, 0.0, 0.0, 2.0, 2.0, 3.0, 7.0, 6.0, 7.0, 11.0, 4.0, 9.0, 10.0, 15.0, 14.0, 28.0, 19.0, 13.0, 7.0, 9.0, 10.0, 6.0, 6.0, 3.0, 3.0, 1.0, 8.0, 1.0, 2.0, 5.0, 2.0, 5.0, 2.0, 0.0, 0.0, 1.0, 2.0, 1.0, 3.0, 1.0, 2.0, 1.0, 1.0, 0.0, 1.0, 0.0, 0.0, 1.0, 1.0, 0.0, 0.0, 1.0, 0.0, 0.0, 0.0, 1.0], "bins": [-0.006450070068240166, -0.006177884992212057, -0.005905699450522661, -0.005633514374494553, -0.005361328832805157, -0.005089143756777048, -0.0048169586807489395, -0.004544773139059544, -0.004272587597370148, -0.004000402521342039, -0.003728216979652643, -0.0034560319036245346, -0.0031838463619351387, -0.00291166128590703, -0.002639475977048278, -0.0023672906681895256, -0.002095105592161417, -0.0018229202833026648, -0.0015507349744439125, -0.001278549782000482, -0.0010063644731417298, -0.0007341791642829776, -0.00046199397183954716, -0.0001898086629807949, 8.237664587795734e-05, 0.00035456192563287914, 0.0006267472053878009, 0.0008989324560388923, 0.0011711177648976445, 0.0014433030737563968, 0.0017154882661998272, 0.0019876735750585794, 0.0022598588839173317, 0.002532044192776084, 0.002804229501634836, 0.003076414577662945, 0.0033486001193523407, 0.0036207851953804493, 0.0038929705042392015, 0.004165155813097954, 0.00443734135478735, 0.004709526430815458, 0.004981711972504854, 0.005253897048532963, 0.005526082590222359, 0.005798267666250467, 0.006070452742278576, 0.006342638283967972, 0.00661482335999608, 0.006887008436024189, 0.007159193977713585, 0.0074313790537416935, 0.007703564595431089, 0.007975749671459198, 0.008247935213148594, 0.00852012075483799, 0.008792305365204811, 0.009064490906894207, 0.009336675517261028, 0.009608861058950424, 0.00988104660063982, 0.010153232142329216, 0.010425416752696037, 0.010697602294385433, 0.010969787836074829]}, "gradients/convs.0.lin_value.bias": {"_type": "histogram", "values": [1.0, 1.0, 0.0, 0.0, 0.0, 0.0, 0.0, 0.0, 2.0, 0.0, 0.0, 2.0, 1.0, 3.0, 0.0, 3.0, 4.0, 5.0, 2.0, 2.0, 0.0, 5.0, 15.0, 5.0, 4.0, 1.0, 2.0, 0.0, 4.0, 0.0, 1.0, 3.0, 0.0, 1.0, 0.0, 0.0, 3.0, 1.0, 2.0, 1.0, 0.0, 1.0, 0.0, 1.0, 0.0, 0.0, 1.0, 0.0, 0.0, 0.0, 0.0, 1.0, 0.0, 0.0, 0.0, 0.0, 1.0, 1.0, 0.0, 0.0, 0.0, 0.0, 0.0, 1.0], "bins": [-0.013709976337850094, -0.01309281587600708, -0.012475656345486641, -0.011858495883643627, -0.011241336353123188, -0.010624175891280174, -0.010007016360759735, -0.009389855898916721, -0.008772695437073708, -0.008155534975230694, -0.007538375444710255, -0.006921214982867241, -0.006304055452346802, -0.005686894990503788, -0.0050697349943220615, -0.004452574998140335, -0.003835415467619896, -0.0032182554714381695, -0.002601095475256443, -0.001983935246244073, -0.0013667752500623465, -0.00074961525388062, -0.0001324550248682499, 0.00048470497131347656, 0.001101864967495203, 0.0017190249636769295, 0.002336184959858656, 0.002953345188871026, 0.0035705051850527525, 0.004187664948403835, 0.004804825410246849, 0.0054219854064285755, 0.006039144471287727, 0.006656304467469454, 0.00727346446365118, 0.007890624925494194, 0.008507784456014633, 0.009124944917857647, 0.00974210537970066, 0.0103592649102211, 0.010976424440741539, 0.011593584902584553, 0.012210744433104992, 0.012827904894948006, 0.013445064425468445, 0.014062224887311459, 0.014679385349154472, 0.015296544879674911, 0.0159137062728405, 0.01653086580336094, 0.017148027196526527, 0.017765186727046967, 0.018382346257567406, 0.018999505788087845, 0.019616667181253433, 0.020233826711773872, 0.02085098624229431, 0.02146814577281475, 0.02208530716598034, 0.022702466696500778, 0.023319626227021217, 0.023936785757541656, 0.024553947150707245, 0.025171106681227684, 0.025788266211748123]}, "gradients/convs.0.lin_value.weight": {"_type": "histogram", "values": [1.0, 0.0, 0.0, 0.0, 1.0, 0.0, 1.0, 3.0, 2.0, 3.0, 3.0, 6.0, 7.0, 6.0, 5.0, 7.0, 6.0, 15.0, 21.0, 16.0, 47.0, 55.0, 18.0, 17.0, 12.0, 11.0, 16.0, 4.0, 4.0, 4.0, 7.0, 4.0, 2.0, 1.0, 1.0, 2.0, 2.0, 0.0, 0.0, 1.0, 1.0, 1.0, 2.0, 4.0, 0.0, 0.0, 1.0, 0.0, 0.0, 0.0, 1.0, 0.0, 0.0, 0.0, 0.0, 1.0, 1.0, 0.0, 0.0, 0.0, 0.0, 0.0, 0.0, 1.0], "bins": [-0.008400228805840015, -0.008001036942005157, -0.007601846009492874, -0.0072026546113193035, -0.006803463213145733, -0.006404271814972162, -0.006005080416798592, -0.005605889018625021, -0.00520669762045145, -0.00480750622227788, -0.004408314824104309, -0.0040091234259307384, -0.003609932027757168, -0.003210740629583597, -0.0028115492314100266, -0.002412357833236456, -0.0020131664350628853, -0.0016139750368893147, -0.001214783638715744, -0.0008155922405421734, -0.00041640084236860275, -1.720944419503212e-05, 0.0003819819539785385, 0.0007811733521521091, 0.0011803647503256798, 0.0015795561484992504, 0.001978747546672821, 0.0023779389448463917, 0.0027771303430199623, 0.003176321741193533, 0.0035755131393671036, 0.003974704537540674, 0.0043738968670368195, 0.00477308826521039, 0.005172279663383961, 0.005571471061557531, 0.005970662459731102, 0.006369853857904673, 0.006769045256078243, 0.007168236654251814, 0.0075674280524253845, 0.007966618984937668, 0.008365810848772526, 0.008765002712607384, 0.009164193645119667, 0.00956338457763195, 0.009962576441466808, 0.010361768305301666, 0.01076095923781395, 0.011160150170326233, 0.01155934203416109, 0.011958533897995949, 0.012357724830508232, 0.012756915763020515, 0.013156107626855373, 0.013555299490690231, 0.013954490423202515, 0.014353681355714798, 0.014752873219549656, 0.015152065083384514, 0.015551256015896797, 0.01595044694840908, 0.016349639743566513, 0.016748830676078796, 0.01714802160859108]}, "gradients/convs.0.lin_key.bias": {"_type": "histogram", "values": [1.0, 0.0, 0.0, 0.0, 0.0, 1.0, 0.0, 0.0, 0.0, 0.0, 0.0, 0.0, 0.0, 0.0, 0.0, 0.0, 0.0, 5.0, 0.0, 0.0, 1.0, 0.0, 0.0, 6.0, 2.0, 0.0, 1.0, 0.0, 0.0, 9.0, 1.0, 0.0, 6.0, 2.0, 13.0, 0.0, 2.0, 3.0, 1.0, 1.0, 6.0, 0.0, 0.0, 4.0, 0.0, 1.0, 6.0, 0.0, 0.0, 0.0, 2.0, 0.0, 2.0, 0.0, 0.0, 1.0, 0.0, 0.0, 2.0, 0.0, 0.0, 0.0, 0.0, 2.0], "bins": [-1.7462298274040222e-10, -1.6962076188065112e-10, -1.646185410209e-10, -1.596163201611489e-10, -1.546140993013978e-10, -1.496118784416467e-10, -1.446096575818956e-10, -1.3960743672214448e-10, -1.3460521586239338e-10, -1.2960299500264227e-10, -1.2460077414289117e-10, -1.1959855328314006e-10, -1.1459633242338896e-10, -1.0959411156363785e-10, -1.0459189070388675e-10, -9.958966984413564e-11, -9.458744898438454e-11, -8.958522812463343e-11, -8.458300726488233e-11, -7.958078640513122e-11, -7.457856554538012e-11, -6.957634468562901e-11, -6.45741238258779e-11, -5.95719029661268e-11, -5.4569682106375694e-11, -4.956746124662459e-11, -4.4565240386873484e-11, -3.956301952712238e-11, -3.456079866737127e-11, -2.955857780762017e-11, -2.4556356947869062e-11, -1.9554136088117957e-11, -1.4551915228366852e-11, -9.549694368615746e-12, -4.547473508864641e-12, 4.547473508864641e-13, 5.4569682106375694e-12, 1.0459189070388675e-11, 1.546140993013978e-11, 2.0463630789890885e-11, 2.546585164964199e-11, 3.0468072509393096e-11, 3.54702933691442e-11, 4.0472514228895307e-11, 4.547473508864641e-11, 5.047695594839752e-11, 5.547917680814862e-11, 6.048139766789973e-11, 6.548361852765083e-11, 7.048583938740194e-11, 7.548806024715304e-11, 8.049028110690415e-11, 8.549250196665525e-11, 9.049472282640636e-11, 9.549694368615746e-11, 1.0049916454590857e-10, 1.0550138540565968e-10, 1.1050360626541078e-10, 1.1550582712516189e-10, 1.20508047984913e-10, 1.255102688446641e-10, 1.305124897044152e-10, 1.355147105641663e-10, 1.405169314239174e-10, 1.4551915228366852e-10]}, "gradients/convs.0.lin_key.weight": {"_type": "histogram", "values": [1.0, 1.0, 2.0, 1.0, 1.0, 0.0, 2.0, 3.0, 3.0, 0.0, 3.0, 4.0, 3.0, 3.0, 5.0, 4.0, 6.0, 5.0, 8.0, 9.0, 7.0, 6.0, 11.0, 13.0, 10.0, 7.0, 10.0, 11.0, 10.0, 16.0, 13.0, 15.0, 7.0, 14.0, 6.0, 9.0, 9.0, 13.0, 8.0, 10.0, 4.0, 6.0, 7.0, 4.0, 2.0, 8.0, 4.0, 3.0, 1.0, 3.0, 3.0, 0.0, 3.0, 1.0, 1.0, 1.0, 1.0, 1.0, 0.0, 0.0, 0.0, 1.0, 0.0, 1.0], "bins": [-0.0006499586161226034, -0.0006280883681029081, -0.0006062181200832129, -0.0005843478720635176, -0.0005624775658361614, -0.0005406073178164661, -0.0005187370697967708, -0.0004968668217770755, -0.0004749965446535498, -0.0004531262966338545, -0.00043125601951032877, -0.0004093857714906335, -0.0003875155234709382, -0.00036564524634741247, -0.0003437749983277172, -0.00032190472120419145, -0.00030003447318449616, -0.0002781642251648009, -0.00025629394804127514, -0.00023442370002157986, -0.00021255343744996935, -0.00019068317487835884, -0.00016881292685866356, -0.00014694266428705305, -0.00012507240171544254, -0.00010320213914383203, -8.133188384817913e-05, -5.9461628552526236e-05, -3.7591365980915725e-05, -1.5721103409305215e-05, 6.149144610390067e-06, 2.8019407182000577e-05, 4.988966975361109e-05, 7.17599323252216e-05, 9.36301876208745e-05, 0.00011550044291652739, 0.0001373707054881379, 0.0001592409680597484, 0.0001811112160794437, 0.0002029814786510542, 0.00022485174122266471, 0.00024672198924236, 0.00026859226636588573, 0.000290462514385581, 0.0003123327624052763, 0.00033420303952880204, 0.0003560732875484973, 0.00037794356467202306, 0.00039981381269171834, 0.0004216840607114136, 0.00044355433783493936, 0.00046542458585463464, 0.0004872948629781604, 0.0005091651109978557, 0.0005310353590175509, 0.0005529056070372462, 0.0005747758550569415, 0.0005966461030766368, 0.0006185163510963321, 0.0006403865991160274, 0.0006622569053433836, 0.0006841271533630788, 0.0007059974013827741, 0.0007278676494024694, 0.0007497379556298256]}, "gradients/convs.0.lin_query.bias": {"_type": "histogram", "values": [1.0, 0.0, 0.0, 2.0, 1.0, 2.0, 0.0, 0.0, 1.0, 1.0, 3.0, 2.0, 1.0, 1.0, 2.0, 2.0, 3.0, 0.0, 1.0, 1.0, 0.0, 1.0, 0.0, 2.0, 0.0, 3.0, 1.0, 3.0, 1.0, 2.0, 2.0, 4.0, 2.0, 1.0, 1.0, 0.0, 3.0, 1.0, 2.0, 5.0, 0.0, 3.0, 3.0, 0.0, 4.0, 2.0, 0.0, 1.0, 2.0, 1.0, 0.0, 2.0, 1.0, 1.0, 0.0, 0.0, 1.0, 0.0, 0.0, 0.0, 1.0, 0.0, 0.0, 1.0], "bins": [-0.002145451493561268, -0.002076060278341174, -0.0020066690631210804, -0.0019372777314856648, -0.0018678865162655711, -0.0017984953010454774, -0.0017291039694100618, -0.0016597127541899681, -0.0015903215389698744, -0.0015209303237497807, -0.001451539108529687, -0.0013821477768942714, -0.0013127565616741776, -0.001243365346454084, -0.0011739740148186684, -0.0011045827995985746, -0.001035191584378481, -0.0009658003691583872, -0.0008964090957306325, -0.0008270178223028779, -0.0007576266070827842, -0.0006882353918626904, -0.0006188441184349358, -0.0005494528450071812, -0.00048006162978708744, -0.00041067038546316326, -0.00034127914113923907, -0.0002718878968153149, -0.0002024966524913907, -0.00013310540816746652, -6.371416384354234e-05, 5.6770804803818464e-06, 7.506855763494968e-05, 0.00014445980195887387, 0.00021385104628279805, 0.00028324229060672224, 0.0003526335349306464, 0.0004220247792545706, 0.0004914160235784948, 0.0005608072970062494, 0.0006301985122263432, 0.0006995897274464369, 0.0007689810008741915, 0.0008383722743019462, 0.0009077634895220399, 0.0009771547047421336, 0.0010465460363775492, 0.001115937251597643, 0.0011853284668177366, 0.0012547196820378304, 0.001324110897257924, 0.0013935022288933396, 0.0014628934441134334, 0.001532284659333527, 0.0016016759909689426, 0.0016710672061890364, 0.00174045842140913, 0.0018098496366292238, 0.0018792408518493176, 0.001948632183484733, 0.002018023282289505, 0.0020874147303402424, 0.002156805945560336, 0.00222619716078043, 0.0022955883760005236]}, "gradients/convs.0.lin_query.weight": {"_type": "histogram", "values": [1.0, 0.0, 1.0, 0.0, 1.0, 0.0, 3.0, 1.0, 1.0, 2.0, 1.0, 3.0, 5.0, 1.0, 1.0, 4.0, 2.0, 3.0, 5.0, 5.0, 5.0, 10.0, 11.0, 9.0, 5.0, 6.0, 9.0, 10.0, 11.0, 11.0, 14.0, 10.0, 11.0, 9.0, 18.0, 11.0, 9.0, 19.0, 8.0, 9.0, 4.0, 8.0, 9.0, 16.0, 6.0, 6.0, 6.0, 6.0, 4.0, 3.0, 0.0, 1.0, 1.0, 1.0, 0.0, 0.0, 1.0, 2.0, 1.0, 1.0, 1.0, 0.0, 1.0, 1.0], "bins": [-0.0013319924473762512, -0.001291247783228755, -0.001250503002665937, -0.001209758222103119, -0.0011690135579556227, -0.0011282688938081264, -0.0010875241132453084, -0.0010467793326824903, -0.0010060346685349941, -0.000965289946179837, -0.0009245452238246799, -0.0008838005014695227, -0.0008430557791143656, -0.0008023110567592084, -0.0007615663344040513, -0.0007208216120488942, -0.000680076889693737, -0.0006393321673385799, -0.0005985874449834228, -0.0005578427226282656, -0.0005170980002731085, -0.00047635327791795135, -0.0004356085555627942, -0.00039486383320763707, -0.00035411911085247993, -0.0003133743884973228, -0.00027262966614216566, -0.00023188494378700852, -0.0001911402214318514, -0.00015039549907669425, -0.00010965077672153711, -6.890605436637998e-05, -2.816133201122284e-05, 1.2583390343934298e-05, 5.3328112699091434e-05, 9.407283505424857e-05, 0.0001348175574094057, 0.00017556227976456285, 0.00021630700211971998, 0.0002570517244748771, 0.00029779644683003426, 0.0003385411691851914, 0.00037928589154034853, 0.00042003061389550567, 0.0004607753362506628, 0.0005015200586058199, 0.0005422647809609771, 0.0005830095033161342, 0.0006237542256712914, 0.0006644989480264485, 0.0007052436703816056, 0.0007459883927367628, 0.0007867331150919199, 0.000827477837447077, 0.0008682225598022342, 0.0009089672821573913, 0.0009497120045125484, 0.0009904566686600447, 0.0010312014492228627, 0.0010719462297856808, 0.001112690893933177, 0.0011534355580806732, 0.0011941803386434913, 0.0012349251192063093, 0.0012756697833538055]}, "_wandb": {"runtime": 377}}