{"parameters/convs.0.lin_key.weight": {"_type": "histogram", "values": [1.0, 1.0, 0.0, 0.0, 0.0, 4.0, 1.0, 1.0, 1.0, 1.0, 2.0, 2.0, 8.0, 2.0, 2.0, 3.0, 8.0, 8.0, 7.0, 3.0, 7.0, 8.0, 6.0, 8.0, 7.0, 5.0, 6.0, 7.0, 6.0, 6.0, 9.0, 12.0, 8.0, 9.0, 11.0, 10.0, 10.0, 2.0, 6.0, 9.0, 10.0, 8.0, 12.0, 5.0, 3.0, 5.0, 15.0, 7.0, 6.0, 5.0, 7.0, 6.0, 5.0, 4.0, 3.0, 2.0, 5.0, 2.0, 2.0, 3.0, 0.0, 1.0, 0.0, 1.0], "bins": [-0.7391658425331116, -0.7173688411712646, -0.6955718398094177, -0.6737748384475708, -0.6519777774810791, -0.6301807761192322, -0.6083837747573853, -0.5865867733955383, -0.5647897720336914, -0.5429927706718445, -0.5211957693099976, -0.49939873814582825, -0.47760170698165894, -0.455804705619812, -0.4340077042579651, -0.41221070289611816, -0.39041364192962646, -0.36861664056777954, -0.34681960940361023, -0.3250226080417633, -0.303225576877594, -0.28142857551574707, -0.25963157415390015, -0.23783455789089203, -0.2160375416278839, -0.1942405253648758, -0.17244350910186768, -0.15064650774002075, -0.12884949147701263, -0.10705247521400452, -0.08525547385215759, -0.06345845758914948, -0.04166144132614136, -0.019864428788423538, 0.001932583749294281, 0.023729592561721802, 0.04552660882472992, 0.06732362508773804, 0.08912062644958496, 0.11091764271259308, 0.1327146589756012, 0.15451167523860931, 0.17630869150161743, 0.19810569286346436, 0.21990270912647247, 0.2416997253894806, 0.2634967267513275, 0.2852937579154968, 0.30709075927734375, 0.3288877606391907, 0.35068479180336, 0.3724817931652069, 0.3942788243293762, 0.41607582569122314, 0.43787282705307007, 0.459669828414917, 0.4814668595790863, 0.5032638907432556, 0.5250608921051025, 0.5468578934669495, 0.5686548948287964, 0.5904519557952881, 0.6122488975524902, 0.6340459585189819, 0.6558429598808289]}, "_timestamp": 1668812846.76968, "parameters/convs.0.lin_key.bias": {"_type": "histogram", "values": [2.0, 3.0, 1.0, 1.0, 1.0, 5.0, 3.0, 0.0, 0.0, 1.0, 2.0, 1.0, 1.0, 1.0, 0.0, 2.0, 1.0, 3.0, 2.0, 3.0, 2.0, 0.0, 2.0, 1.0, 1.0, 2.0, 1.0, 0.0, 1.0, 0.0, 1.0, 0.0, 1.0, 2.0, 1.0, 0.0, 1.0, 1.0, 2.0, 1.0, 0.0, 2.0, 1.0, 1.0, 0.0, 2.0, 0.0, 0.0, 2.0, 3.0, 1.0, 2.0, 0.0, 0.0, 1.0, 0.0, 0.0, 2.0, 0.0, 1.0, 2.0, 4.0, 3.0, 1.0], "bins": [-0.496296226978302, -0.4809137284755707, -0.46553122997283936, -0.45014873147010803, -0.4347662329673767, -0.419383704662323, -0.4040012061595917, -0.38861870765686035, -0.37323620915412903, -0.3578537106513977, -0.3424712121486664, -0.32708871364593506, -0.31170618534088135, -0.2963237166404724, -0.2809411883354187, -0.2655586898326874, -0.25017619132995605, -0.23479369282722473, -0.2194111943244934, -0.2040286809206009, -0.18864618241786957, -0.17326368391513824, -0.15788117051124573, -0.1424986720085144, -0.12711617350578308, -0.11173367500305176, -0.09635116904973984, -0.08096866309642792, -0.0655861645936966, -0.05020366609096527, -0.03482116013765335, -0.01943865418434143, -0.004056155681610107, 0.011326346546411514, 0.026708848774433136, 0.04209135100245476, 0.05747385323047638, 0.0728563517332077, 0.08823885768651962, 0.10362136363983154, 0.11900386214256287, 0.1343863606452942, 0.1497688591480255, 0.16515137255191803, 0.18053387105464935, 0.19591636955738068, 0.2112988829612732, 0.22668138146400452, 0.24206387996673584, 0.25744637846946716, 0.2728288769721985, 0.2882113754749298, 0.30359387397766113, 0.31897640228271484, 0.33435890078544617, 0.3497413992881775, 0.3651238977909088, 0.38050639629364014, 0.39588889479637146, 0.4112713932991028, 0.4266539216041565, 0.44203639030456543, 0.45741891860961914, 0.47280141711235046, 0.4881839156150818]}, "parameters/convs.0.lin_query.weight": {"_type": "histogram", "values": [1.0, 0.0, 0.0, 0.0, 0.0, 0.0, 0.0, 0.0, 0.0, 0.0, 0.0, 1.0, 1.0, 1.0, 1.0, 1.0, 0.0, 0.0, 3.0, 1.0, 2.0, 3.0, 4.0, 9.0, 3.0, 9.0, 9.0, 14.0, 9.0, 9.0, 9.0, 10.0, 16.0, 8.0, 6.0, 9.0, 10.0, 7.0, 9.0, 10.0, 12.0, 12.0, 11.0, 6.0, 9.0, 10.0, 12.0, 7.0, 8.0, 8.0, 4.0, 13.0, 10.0, 6.0, 7.0, 2.0, 2.0, 2.0, 2.0, 2.0, 0.0, 1.0, 1.0, 2.0], "bins": [-1.0980390310287476, -1.0696766376495361, -1.0413142442703247, -1.0129518508911133, -0.9845894575119019, -0.9562270641326904, -0.9278647303581238, -0.8995023369789124, -0.8711399435997009, -0.8427775502204895, -0.8144151568412781, -0.7860527634620667, -0.7576904296875, -0.7293280363082886, -0.7009656429290771, -0.6726032495498657, -0.6442408561706543, -0.6158784627914429, -0.5875160694122314, -0.55915367603302, -0.5307912826538086, -0.5024288892745972, -0.4740665555000305, -0.4457041621208191, -0.41734176874160767, -0.38897937536239624, -0.3606169819831848, -0.3322546184062958, -0.30389222502708435, -0.2755298316478729, -0.2471674531698227, -0.21880507469177246, -0.1904427409172058, -0.16208034753799438, -0.13371796905994415, -0.10535558313131332, -0.0769931972026825, -0.04863080382347107, -0.020268425345420837, 0.008093953132629395, 0.03645634651184082, 0.06481873244047165, 0.09318111836910248, 0.1215435042977333, 0.14990589022636414, 0.17826828360557556, 0.2066306620836258, 0.23499304056167603, 0.26335543394088745, 0.2917178273200989, 0.3200802206993103, 0.34844258427619934, 0.37680497765541077, 0.4051673710346222, 0.43352973461151123, 0.46189212799072266, 0.4902545213699341, 0.5186169147491455, 0.5469793081283569, 0.5753417015075684, 0.6037040948867798, 0.6320664882659912, 0.6604288220405579, 0.6887912154197693, 0.7171536087989807]}, "parameters/convs.0.lin_query.bias": {"_type": "histogram", "values": [1.0, 1.0, 0.0, 0.0, 0.0, 0.0, 0.0, 0.0, 2.0, 2.0, 0.0, 0.0, 1.0, 2.0, 1.0, 1.0, 0.0, 4.0, 2.0, 2.0, 4.0, 2.0, 2.0, 4.0, 0.0, 3.0, 1.0, 1.0, 0.0, 0.0, 1.0, 4.0, 0.0, 3.0, 0.0, 2.0, 4.0, 3.0, 1.0, 4.0, 1.0, 0.0, 1.0, 1.0, 3.0, 2.0, 1.0, 2.0, 1.0, 2.0, 0.0, 1.0, 0.0, 0.0, 2.0, 1.0, 1.0, 1.0, 0.0, 1.0, 0.0, 1.0, 0.0, 1.0], "bins": [-0.5196256637573242, -0.5026307106018066, -0.48563575744628906, -0.4686408042907715, -0.4516458511352539, -0.43465089797973633, -0.41765591502189636, -0.4006609618663788, -0.3836660087108612, -0.36667105555534363, -0.34967610239982605, -0.33268114924430847, -0.3156861662864685, -0.2986912131309509, -0.28169625997543335, -0.26470130681991577, -0.2477063536643982, -0.23071140050888062, -0.21371644735336304, -0.19672147929668427, -0.1797265261411667, -0.1627315729856491, -0.14573660492897034, -0.12874165177345276, -0.11174669861793518, -0.0947517454624176, -0.07775678485631943, -0.06076182797551155, -0.043766871094703674, -0.026771917939186096, -0.009776957333087921, 0.007218003273010254, 0.024212956428527832, 0.04120791330933571, 0.058202870190143585, 0.07519783079624176, 0.09219278395175934, 0.10918773710727692, 0.1261827051639557, 0.14317765831947327, 0.16017261147499084, 0.17716756463050842, 0.194162517786026, 0.21115748584270477, 0.22815243899822235, 0.24514739215373993, 0.2621423602104187, 0.2791373133659363, 0.29613226652145386, 0.31312721967697144, 0.330122172832489, 0.3471171259880066, 0.36411207914352417, 0.38110703229904175, 0.3981020152568817, 0.4150969684123993, 0.43209192156791687, 0.44908687472343445, 0.466081827878952, 0.4830767810344696, 0.5000717639923096, 0.5170667171478271, 0.5340616703033447, 0.5510566234588623, 0.5680515766143799]}, "parameters/convs.0.lin_value.weight": {"_type": "histogram", "values": [2.0, 1.0, 0.0, 0.0, 0.0, 0.0, 0.0, 0.0, 0.0, 0.0, 2.0, 1.0, 2.0, 0.0, 1.0, 3.0, 1.0, 1.0, 1.0, 4.0, 3.0, 3.0, 8.0, 3.0, 6.0, 9.0, 7.0, 5.0, 6.0, 9.0, 10.0, 6.0, 14.0, 10.0, 13.0, 10.0, 4.0, 6.0, 7.0, 15.0, 4.0, 12.0, 12.0, 14.0, 11.0, 5.0, 13.0, 9.0, 13.0, 9.0, 7.0, 8.0, 9.0, 4.0, 4.0, 5.0, 2.0, 5.0, 0.0, 1.0, 1.0, 0.0, 1.0, 2.0], "bins": [-1.4785847663879395, -1.441172480583191, -1.4037600755691528, -1.3663477897644043, -1.3289353847503662, -1.2915230989456177, -1.2541108131408691, -1.216698408126831, -1.1792861223220825, -1.141873836517334, -1.104461431503296, -1.0670491456985474, -1.0296368598937988, -0.9922244548797607, -0.9548121690750122, -0.9173998236656189, -0.8799874782562256, -0.8425751328468323, -0.805162787437439, -0.7677505016326904, -0.7303381562232971, -0.6929258108139038, -0.6555135250091553, -0.618101179599762, -0.5806888341903687, -0.5432764887809753, -0.505864143371582, -0.4684518575668335, -0.4310395121574402, -0.3936271667480469, -0.35621485114097595, -0.31880253553390503, -0.28139007091522217, -0.24397774040699005, -0.20656540989875793, -0.16915307939052582, -0.1317407488822937, -0.09432841837406158, -0.05691608786582947, -0.019503772258758545, 0.017908573150634766, 0.05532090365886688, 0.092733234167099, 0.13014556467533112, 0.16755789518356323, 0.20497022569179535, 0.24238255620002747, 0.2797948718070984, 0.3172072172164917, 0.354619562625885, 0.39203187823295593, 0.42944419384002686, 0.46685653924942017, 0.5042688846588135, 0.541681170463562, 0.5790935158729553, 0.6165058612823486, 0.6539182066917419, 0.6913305521011353, 0.7287428379058838, 0.7661551833152771, 0.8035675287246704, 0.840979814529419, 0.8783921599388123, 0.9158045053482056]}, "parameters/convs.0.lin_value.bias": {"_type": "histogram", "values": [1.0, 1.0, 1.0, 1.0, 0.0, 0.0, 1.0, 1.0, 1.0, 2.0, 1.0, 1.0, 0.0, 0.0, 1.0, 1.0, 1.0, 0.0, 1.0, 3.0, 0.0, 0.0, 1.0, 0.0, 0.0, 1.0, 0.0, 3.0, 0.0, 2.0, 2.0, 3.0, 1.0, 3.0, 2.0, 1.0, 2.0, 3.0, 2.0, 0.0, 2.0, 5.0, 1.0, 0.0, 0.0, 2.0, 0.0, 4.0, 1.0, 2.0, 0.0, 2.0, 1.0, 3.0, 0.0, 2.0, 3.0, 1.0, 0.0, 4.0, 1.0, 1.0, 0.0, 2.0], "bins": [-0.5865742564201355, -0.5699552297592163, -0.5533362627029419, -0.5367172956466675, -0.5200982689857483, -0.5034792423248291, -0.4868602752685547, -0.4702412784099579, -0.4536222815513611, -0.4370032846927643, -0.4203842878341675, -0.4037652909755707, -0.3871462941169739, -0.3705272972583771, -0.3539083003997803, -0.33728930354118347, -0.32067030668258667, -0.30405130982398987, -0.28743231296539307, -0.27081331610679626, -0.25419431924819946, -0.23757532238960266, -0.22095632553100586, -0.20433732867240906, -0.18771833181381226, -0.17109933495521545, -0.15448033809661865, -0.13786134123802185, -0.12124234437942505, -0.10462334752082825, -0.08800435066223145, -0.07138535380363464, -0.05476638674736023, -0.03814738988876343, -0.021528393030166626, -0.004909396171569824, 0.011709600687026978, 0.02832859754562378, 0.04494759440422058, 0.06156659126281738, 0.07818558812141418, 0.09480458498001099, 0.11142358183860779, 0.1280425786972046, 0.1446615755558014, 0.1612805724143982, 0.177899569272995, 0.1945185661315918, 0.2111375629901886, 0.2277565598487854, 0.2443755567073822, 0.260994553565979, 0.2776135504245758, 0.2942325472831726, 0.3108515441417694, 0.3274705410003662, 0.344089537858963, 0.3607085347175598, 0.3773275315761566, 0.3939465284347534, 0.4105655252933502, 0.427184522151947, 0.4438035190105438, 0.4604225158691406, 0.4770415127277374]}, "parameters/convs.0.lin_edge.weight": {"_type": "histogram", "values": [1.0, 0.0, 0.0, 1.0, 0.0, 1.0, 0.0, 0.0, 2.0, 0.0, 0.0, 0.0, 2.0, 1.0, 3.0, 2.0, 1.0, 2.0, 3.0, 5.0, 4.0, 4.0, 6.0, 11.0, 6.0, 5.0, 7.0, 9.0, 2.0, 10.0, 5.0, 6.0, 5.0, 8.0, 9.0, 4.0, 5.0, 11.0, 7.0, 4.0, 9.0, 4.0, 3.0, 6.0, 10.0, 8.0, 2.0, 6.0, 4.0, 4.0, 6.0, 5.0, 1.0, 7.0, 4.0, 4.0, 2.0, 2.0, 1.0, 1.0, 1.0, 0.0, 0.0, 1.0], "bins": [-1.23465096950531, -1.2015817165374756, -1.1685123443603516, -1.135443091392517, -1.1023738384246826, -1.0693045854568481, -1.0362353324890137, -1.0031659603118896, -0.9700967073440552, -0.9370274543762207, -0.9039581418037415, -0.8708888292312622, -0.8378195762634277, -0.8047503232955933, -0.771681010723114, -0.7386116981506348, -0.7055424451828003, -0.6724731922149658, -0.6394038796424866, -0.6063345670700073, -0.5732653141021729, -0.5401960611343384, -0.5071267485618591, -0.47405746579170227, -0.4409881830215454, -0.40791890025138855, -0.3748496174812317, -0.34178033471107483, -0.30871105194091797, -0.2756417691707611, -0.24257248640060425, -0.2095032036304474, -0.17643380165100098, -0.14336451888084412, -0.11029523611068726, -0.0772259533405304, -0.044156670570373535, -0.011087387800216675, 0.021981894969940186, 0.055051177740097046, 0.0881204605102539, 0.12118974328041077, 0.15425902605056763, 0.1873283088207245, 0.22039759159088135, 0.2534668743610382, 0.28653615713119507, 0.31960543990135193, 0.3526747226715088, 0.38574400544166565, 0.4188132882118225, 0.45188257098197937, 0.48495185375213623, 0.5180211067199707, 0.55109041929245, 0.5841597318649292, 0.6172289848327637, 0.6502982378005981, 0.6833675503730774, 0.7164368629455566, 0.7495061159133911, 0.7825753688812256, 0.8156446814537048, 0.8487139940261841, 0.8817832469940186]}, "parameters/convs.0.lin_skip.weight": {"_type": "histogram", "values": [1.0, 0.0, 1.0, 2.0, 0.0, 2.0, 2.0, 2.0, 2.0, 4.0, 1.0, 2.0, 3.0, 1.0, 3.0, 5.0, 8.0, 5.0, 9.0, 8.0, 1.0, 7.0, 5.0, 7.0, 5.0, 7.0, 6.0, 6.0, 3.0, 11.0, 2.0, 5.0, 8.0, 8.0, 11.0, 11.0, 11.0, 9.0, 9.0, 4.0, 11.0, 6.0, 10.0, 5.0, 9.0, 10.0, 11.0, 7.0, 4.0, 7.0, 8.0, 4.0, 7.0, 3.0, 4.0, 7.0, 3.0, 2.0, 1.0, 4.0, 0.0, 2.0, 1.0, 1.0], "bins": [-1.024550199508667, -0.9975442290306091, -0.9705382585525513, -0.9435323476791382, -0.9165263772010803, -0.8895204067230225, -0.8625144958496094, -0.8355085253715515, -0.8085025548934937, -0.7814965844154358, -0.7544906139373779, -0.7274847030639648, -0.700478732585907, -0.6734727621078491, -0.646466851234436, -0.6194608807563782, -0.5924549102783203, -0.5654489398002625, -0.5384429693222046, -0.5114370584487915, -0.48443108797073364, -0.4574251174926758, -0.4304191768169403, -0.40341323614120483, -0.376407265663147, -0.3494012951850891, -0.32239535450935364, -0.29538941383361816, -0.2683834433555603, -0.24137748777866364, -0.21437153220176697, -0.1873655766248703, -0.16035962104797363, -0.13335366547107697, -0.1063477098941803, -0.07934175431728363, -0.05233579874038696, -0.025329843163490295, 0.001676112413406372, 0.02868206799030304, 0.05568802356719971, 0.08269397914409637, 0.10969993472099304, 0.1367058902978897, 0.16371184587478638, 0.19071780145168304, 0.2177237570285797, 0.24472971260547638, 0.27173566818237305, 0.2987416386604309, 0.3257475793361664, 0.35275352001190186, 0.3797594904899597, 0.4067654609680176, 0.43377140164375305, 0.4607773423194885, 0.4877833127975464, 0.5147892832756042, 0.5417952537536621, 0.5688011646270752, 0.5958071351051331, 0.6228131055831909, 0.649819016456604, 0.6768249869346619, 0.7038309574127197]}, "parameters/convs.0.lin_skip.bias": {"_type": "histogram", "values": [1.0, 1.0, 0.0, 1.0, 3.0, 0.0, 1.0, 1.0, 2.0, 2.0, 1.0, 1.0, 2.0, 1.0, 3.0, 2.0, 3.0, 1.0, 2.0, 1.0, 0.0, 2.0, 2.0, 1.0, 5.0, 3.0, 2.0, 1.0, 2.0, 1.0, 2.0, 2.0, 1.0, 1.0, 1.0, 3.0, 3.0, 1.0, 0.0, 1.0, 0.0, 1.0, 1.0, 1.0, 0.0, 2.0, 2.0, 0.0, 1.0, 2.0, 1.0, 2.0, 1.0, 0.0, 0.0, 1.0, 0.0, 0.0, 0.0, 0.0, 1.0, 0.0, 0.0, 2.0], "bins": [-0.6147142052650452, -0.5966005325317383, -0.5784868597984314, -0.5603731274604797, -0.5422594547271729, -0.524145781993866, -0.5060321092605591, -0.4879184365272522, -0.4698047339916229, -0.45169106125831604, -0.43357735872268677, -0.4154636859893799, -0.397350013256073, -0.3792363107204437, -0.36112263798713684, -0.34300893545150757, -0.3248952627182007, -0.3067815899848938, -0.2886678874492645, -0.27055421471595764, -0.25244051218032837, -0.23432683944702148, -0.2162131667137146, -0.19809947907924652, -0.17998579144477844, -0.16187210381031036, -0.14375841617584229, -0.1256447434425354, -0.10753105580806732, -0.08941736817359924, -0.07130368798971176, -0.05319000780582428, -0.0350763201713562, -0.01696263626217842, 0.0011510476469993591, 0.01926473155617714, 0.03737841546535492, 0.055492103099823, 0.07360578328371048, 0.09171946346759796, 0.10983315110206604, 0.12794683873653412, 0.1460605263710022, 0.16417419910430908, 0.18228788673877716, 0.20040157437324524, 0.21851524710655212, 0.2366289347410202, 0.2547426223754883, 0.27285629510879517, 0.29096999764442444, 0.3090836703777313, 0.3271973729133606, 0.3453110456466675, 0.36342471837997437, 0.38153839111328125, 0.3996520936489105, 0.4177657663822174, 0.4358794689178467, 0.45399314165115356, 0.47210681438446045, 0.4902205169200897, 0.508334219455719, 0.5264478921890259, 0.5445615649223328]}, "parameters/convs.1.lin_key.weight": {"_type": "histogram", "values": [2.0, 0.0, 0.0, 1.0, 0.0, 3.0, 1.0, 0.0, 1.0, 3.0, 1.0, 2.0, 6.0, 5.0, 8.0, 6.0, 10.0, 16.0, 16.0, 27.0, 28.0, 35.0, 60.0, 59.0, 77.0, 103.0, 163.0, 205.0, 222.0, 302.0, 348.0, 459.0, 491.0, 531.0, 522.0, 460.0, 483.0, 446.0, 339.0, 262.0, 200.0, 163.0, 124.0, 94.0, 53.0, 51.0, 34.0, 33.0, 28.0, 11.0, 18.0, 7.0, 12.0, 4.0, 4.0, 7.0, 7.0, 3.0, 4.0, 0.0, 0.0, 0.0, 0.0, 1.0], "bins": [-1.2691324949264526, -1.2320079803466797, -1.1948835849761963, -1.1577590703964233, -1.1206345558166504, -1.083510160446167, -1.046385645866394, -1.009261131286621, -0.9721367359161377, -0.9350122809410095, -0.8978878259658813, -0.8607633113861084, -0.8236388564109802, -0.786514401435852, -0.7493898868560791, -0.7122654318809509, -0.6751409769058228, -0.6380165219306946, -0.6008920669555664, -0.5637675523757935, -0.5266430974006653, -0.4895186424255371, -0.45239415764808655, -0.415269672870636, -0.3781452178955078, -0.34102076292037964, -0.3038962781429291, -0.2667717933654785, -0.22964733839035034, -0.19252286851406097, -0.1553983986377716, -0.11827391386032104, -0.08114933967590332, -0.04402486979961395, -0.006900399923324585, 0.030224069952964783, 0.06734853982925415, 0.10447300970554352, 0.14159747958183289, 0.17872196435928345, 0.21584641933441162, 0.2529708743095398, 0.29009535908699036, 0.3272198438644409, 0.3643442988395691, 0.40146875381469727, 0.4385932385921478, 0.4757177233695984, 0.5128421783447266, 0.5499666333198547, 0.5870910882949829, 0.6242156028747559, 0.661340057849884, 0.6984645128250122, 0.7355890274047852, 0.7727134823799133, 0.8098379373550415, 0.8469623923301697, 0.8840868473052979, 0.9212113618850708, 0.958335816860199, 0.9954602718353271, 1.0325847864151, 1.069709300994873, 1.1068336963653564]}, "parameters/convs.1.lin_key.bias": {"_type": "histogram", "values": [1.0, 0.0, 2.0, 1.0, 0.0, 0.0, 2.0, 1.0, 2.0, 2.0, 2.0, 1.0, 4.0, 1.0, 2.0, 2.0, 2.0, 1.0, 3.0, 2.0, 1.0, 1.0, 5.0, 1.0, 0.0, 0.0, 0.0, 3.0, 2.0, 0.0, 4.0, 1.0, 3.0, 0.0, 1.0, 0.0, 0.0, 3.0, 1.0, 2.0, 1.0, 0.0, 0.0, 3.0, 1.0, 1.0, 1.0, 2.0, 1.0, 0.0, 0.0, 0.0, 1.0, 1.0, 1.0, 1.0, 0.0, 1.0, 3.0, 1.0, 0.0, 0.0, 2.0, 1.0], "bins": [-0.11245382577180862, -0.10890771448612213, -0.10536161065101624, -0.10181549936532974, -0.09826938807964325, -0.09472328424453735, -0.09117717295885086, -0.08763106167316437, -0.08408495783805847, -0.08053884655237198, -0.07699274271726608, -0.07344663143157959, -0.0699005201458931, -0.0663544088602066, -0.06280830502510071, -0.059262193739414215, -0.05571608245372772, -0.05216997489333153, -0.048623863607645035, -0.04507775604724884, -0.04153164476156235, -0.03798553720116615, -0.03443942964076996, -0.030893320217728615, -0.02734721079468727, -0.023801101371645927, -0.020254991948604584, -0.01670888438820839, -0.013162774965167046, -0.009616665542125702, -0.0060705579817295074, -0.0025244485586881638, 0.0010216683149337769, 0.004567777272313833, 0.00811388622969389, 0.011659994721412659, 0.015206104144454002, 0.018752213567495346, 0.02229832112789154, 0.025844430550932884, 0.029390539973974228, 0.03293664753437042, 0.036482758820056915, 0.04002886638045311, 0.043574973940849304, 0.0471210852265358, 0.05066719278693199, 0.054213300347328186, 0.05775941163301468, 0.06130551919341087, 0.06485162675380707, 0.06839773803949356, 0.07194384932518005, 0.07548995316028595, 0.07903606444597244, 0.08258217573165894, 0.08612827956676483, 0.08967439085245132, 0.09322049468755722, 0.09676660597324371, 0.1003127172589302, 0.1038588285446167, 0.1074049323797226, 0.11095104366540909, 0.11449715495109558]}, "parameters/convs.1.lin_query.weight": {"_type": "histogram", "values": [2.0, 0.0, 0.0, 0.0, 0.0, 0.0, 1.0, 0.0, 1.0, 4.0, 2.0, 1.0, 4.0, 9.0, 13.0, 9.0, 8.0, 16.0, 16.0, 24.0, 52.0, 49.0, 67.0, 94.0, 101.0, 156.0, 201.0, 285.0, 341.0, 407.0, 498.0, 562.0, 541.0, 546.0, 503.0, 448.0, 378.0, 309.0, 227.0, 178.0, 135.0, 94.0, 73.0, 52.0, 42.0, 27.0, 18.0, 13.0, 11.0, 14.0, 7.0, 3.0, 4.0, 2.0, 4.0, 3.0, 2.0, 2.0, 1.0, 0.0, 0.0, 0.0, 0.0, 1.0], "bins": [-1.2612091302871704, -1.2226366996765137, -1.184064269065857, -1.1454918384552002, -1.106919527053833, -1.0683470964431763, -1.0297746658325195, -0.9912022352218628, -0.952629804611206, -0.9140573740005493, -0.8754849433898926, -0.8369125723838806, -0.7983401417732239, -0.7597677111625671, -0.7211953401565552, -0.6826229095458984, -0.6440504789352417, -0.605478048324585, -0.5669056177139282, -0.5283332467079163, -0.4897608160972595, -0.4511883854866028, -0.41261598467826843, -0.3740435838699341, -0.33547115325927734, -0.2968987226486206, -0.25832632184028625, -0.2197539061307907, -0.18118149042129517, -0.14260907471179962, -0.10403665900230408, -0.06546425819396973, -0.026891708374023438, 0.011680707335472107, 0.05025312304496765, 0.0888255387544632, 0.12739795446395874, 0.16597037017345428, 0.20454278588294983, 0.24311518669128418, 0.2816876173019409, 0.32026004791259766, 0.358832448720932, 0.39740484952926636, 0.4359772801399231, 0.47454971075057983, 0.5131220817565918, 0.5516945123672485, 0.5902669429779053, 0.628839373588562, 0.6674118041992188, 0.7059841752052307, 0.7445566058158875, 0.7831290364265442, 0.8217014074325562, 0.8602738380432129, 0.8988462686538696, 0.9374186992645264, 0.9759911298751831, 1.0145635604858398, 1.053135871887207, 1.0917083024978638, 1.1302807331085205, 1.1688531637191772, 1.207425594329834]}, "parameters/convs.1.lin_query.bias": {"_type": "histogram", "values": [1.0, 1.0, 1.0, 3.0, 2.0, 5.0, 0.0, 1.0, 1.0, 0.0, 2.0, 2.0, 2.0, 1.0, 1.0, 0.0, 2.0, 0.0, 0.0, 2.0, 0.0, 2.0, 3.0, 3.0, 1.0, 1.0, 3.0, 2.0, 0.0, 0.0, 1.0, 1.0, 1.0, 1.0, 3.0, 1.0, 2.0, 2.0, 0.0, 1.0, 0.0, 2.0, 1.0, 2.0, 2.0, 0.0, 1.0, 4.0, 3.0, 3.0, 1.0, 0.0, 0.0, 1.0, 2.0, 1.0, 0.0, 1.0, 0.0, 0.0, 0.0, 0.0, 1.0, 1.0], "bins": [-0.34734922647476196, -0.3355557322502136, -0.3237622380256653, -0.31196874380111694, -0.3001752495765686, -0.2883817255496979, -0.27658823132514954, -0.2647947371006012, -0.25300124287605286, -0.24120774865150452, -0.22941425442695618, -0.21762074530124664, -0.2058272510766983, -0.19403375685214996, -0.18224024772644043, -0.1704467535018921, -0.15865325927734375, -0.1468597650527954, -0.13506627082824707, -0.12327276170253754, -0.1114792674779892, -0.09968577325344086, -0.08789227157831192, -0.07609876990318298, -0.06430527567863464, -0.052511777728796005, -0.04071827977895737, -0.02892478182911873, -0.01713128387928009, -0.005337785929441452, 0.006455712020397186, 0.018249213695526123, 0.030042707920074463, 0.0418362058699131, 0.05362970381975174, 0.06542320549488068, 0.07721669971942902, 0.08901019394397736, 0.10080369561910629, 0.11259719729423523, 0.12439069151878357, 0.1361841857433319, 0.14797767996788025, 0.15977118909358978, 0.17156468331813812, 0.18335817754268646, 0.195151686668396, 0.20694518089294434, 0.21873867511749268, 0.23053216934204102, 0.24232566356658936, 0.2541191577911377, 0.26591265201568604, 0.27770617604255676, 0.2894996702671051, 0.30129316449165344, 0.3130866587162018, 0.3248801529407501, 0.33667364716529846, 0.3484671413898468, 0.36026066541671753, 0.37205415964126587, 0.3838476538658142, 0.39564114809036255, 0.4074346423149109]}, "parameters/convs.1.lin_value.weight": {"_type": "histogram", "values": [1.0, 0.0, 0.0, 0.0, 0.0, 0.0, 0.0, 0.0, 0.0, 1.0, 0.0, 0.0, 2.0, 0.0, 0.0, 1.0, 2.0, 0.0, 0.0, 0.0, 5.0, 3.0, 6.0, 3.0, 3.0, 5.0, 8.0, 10.0, 13.0, 19.0, 19.0, 37.0, 56.0, 56.0, 71.0, 122.0, 108.0, 171.0, 203.0, 279.0, 355.0, 407.0, 521.0, 610.0, 650.0, 626.0, 584.0, 490.0, 369.0, 227.0, 173.0, 108.0, 71.0, 53.0, 32.0, 23.0, 18.0, 16.0, 10.0, 5.0, 5.0, 3.0, 0.0, 1.0], "bins": [-2.218013048171997, -2.16858172416687, -2.1191506385803223, -2.0697193145751953, -2.0202879905700684, -1.970856785774231, -1.9214255809783936, -1.8719942569732666, -1.8225630521774292, -1.7731318473815918, -1.7237005233764648, -1.6742693185806274, -1.62483811378479, -1.575406789779663, -1.5259755849838257, -1.4765443801879883, -1.4271130561828613, -1.377681851387024, -1.328250527381897, -1.2788193225860596, -1.2293881177902222, -1.1799567937850952, -1.1305255889892578, -1.0810942649841309, -1.031663179397583, -0.9822319149971008, -0.9328007102012634, -0.8833694458007812, -0.8339381814002991, -0.7845069169998169, -0.7350757122039795, -0.6856444478034973, -0.6362131834030151, -0.586781919002533, -0.5373507142066956, -0.4879194498062134, -0.4384881854057312, -0.3890569508075714, -0.3396257162094116, -0.29019445180892944, -0.24076321721076965, -0.19133196771144867, -0.14190071821212769, -0.0924694836139679, -0.04303823411464691, 0.006393015384674072, 0.05582424998283386, 0.10525551438331604, 0.15468674898147583, 0.20411799848079681, 0.2535492479801178, 0.3029804825782776, 0.35241174697875977, 0.40184298157691956, 0.45127421617507935, 0.5007054805755615, 0.5501366853713989, 0.5995679497718811, 0.6489991545677185, 0.6984304189682007, 0.7478616833686829, 0.797292947769165, 0.8467241525650024, 0.8961554169654846, 0.9455866813659668]}, "parameters/convs.1.lin_value.bias": {"_type": "histogram", "values": [2.0, 1.0, 1.0, 0.0, 0.0, 0.0, 1.0, 1.0, 1.0, 1.0, 2.0, 0.0, 0.0, 1.0, 2.0, 1.0, 2.0, 1.0, 2.0, 2.0, 2.0, 4.0, 0.0, 1.0, 5.0, 0.0, 1.0, 2.0, 3.0, 3.0, 1.0, 1.0, 2.0, 3.0, 2.0, 1.0, 4.0, 4.0, 4.0, 0.0, 2.0, 2.0, 2.0, 0.0, 0.0, 1.0, 0.0, 2.0, 2.0, 0.0, 2.0, 0.0, 0.0, 2.0, 0.0, 1.0, 0.0, 0.0, 0.0, 0.0, 0.0, 0.0, 0.0, 1.0], "bins": [-0.18368901312351227, -0.17728278040885925, -0.17087654769420624, -0.16447031497955322, -0.1580640971660614, -0.1516578495502472, -0.14525163173675537, -0.13884539902210236, -0.13243916630744934, -0.12603293359279633, -0.11962670087814331, -0.11322047561407089, -0.10681424289941788, -0.10040801018476486, -0.09400178492069244, -0.08759555220603943, -0.08118931949138641, -0.0747830867767334, -0.06837685406208038, -0.061970628798007965, -0.05556439608335495, -0.049158163368701935, -0.04275193437933922, -0.0363457053899765, -0.029939472675323486, -0.02353324182331562, -0.017127010971307755, -0.010720780119299889, -0.004314549267292023, 0.0020916834473609924, 0.008497912436723709, 0.014904141426086426, 0.02131037414073944, 0.027716604992747307, 0.03412283584475517, 0.04052906483411789, 0.046935297548770905, 0.05334153026342392, 0.059747759252786636, 0.06615398824214935, 0.07256022095680237, 0.07896645367145538, 0.0853726863861084, 0.09177891165018082, 0.09818514436483383, 0.10459137707948685, 0.11099760234355927, 0.11740383505821228, 0.1238100677728653, 0.1302163004875183, 0.13662253320217133, 0.14302876591682434, 0.14943498373031616, 0.15584123134613037, 0.1622474491596222, 0.1686536818742752, 0.17505991458892822, 0.18146614730358124, 0.18787238001823425, 0.19427861273288727, 0.20068484544754028, 0.2070910632610321, 0.21349729597568512, 0.21990352869033813, 0.22630976140499115]}, "parameters/convs.1.lin_edge.weight": {"_type": "histogram", "values": [2.0, 0.0, 0.0, 0.0, 1.0, 0.0, 1.0, 0.0, 1.0, 1.0, 2.0, 0.0, 5.0, 1.0, 7.0, 3.0, 6.0, 7.0, 5.0, 5.0, 4.0, 4.0, 4.0, 5.0, 7.0, 8.0, 1.0, 3.0, 4.0, 5.0, 3.0, 6.0, 3.0, 6.0, 6.0, 9.0, 3.0, 4.0, 0.0, 9.0, 2.0, 7.0, 8.0, 7.0, 5.0, 5.0, 1.0, 4.0, 7.0, 3.0, 7.0, 7.0, 4.0, 6.0, 6.0, 3.0, 3.0, 3.0, 2.0, 0.0, 3.0, 7.0, 1.0, 1.0], "bins": [-0.9777417182922363, -0.9510315656661987, -0.9243213534355164, -0.8976112008094788, -0.8709010481834412, -0.8441908359527588, -0.8174806833267212, -0.7907705307006836, -0.764060378074646, -0.7373502254486084, -0.710640013217926, -0.6839298605918884, -0.6572197079658508, -0.6305094957351685, -0.6037993431091309, -0.5770891904830933, -0.5503789782524109, -0.5236688256263733, -0.4969586431980133, -0.4702484607696533, -0.4435383081436157, -0.41682812571525574, -0.39011794328689575, -0.36340779066085815, -0.33669760823249817, -0.3099874258041382, -0.2832772731781006, -0.2565670907497406, -0.2298569232225418, -0.20314675569534302, -0.17643657326698303, -0.14972640573978424, -0.12301617860794067, -0.09630601108074188, -0.0695958361029625, -0.042885661125183105, -0.016175493597984314, 0.010534673929214478, 0.03724485635757446, 0.06395502388477325, 0.09066519141197205, 0.11737535893917084, 0.14408552646636963, 0.17079570889472961, 0.1975058764219284, 0.2242160439491272, 0.2509262263774872, 0.27763640880584717, 0.30434656143188477, 0.33105674386024475, 0.35776689648628235, 0.38447707891464233, 0.41118723154067993, 0.4378974139690399, 0.4646075963973999, 0.4913177490234375, 0.5180279016494751, 0.5447380542755127, 0.5714482665061951, 0.5981584191322327, 0.6248685717582703, 0.6515787839889526, 0.6782889366149902, 0.7049990892410278, 0.7317093014717102]}, "parameters/convs.1.lin_skip.weight": {"_type": "histogram", "values": [1.0, 0.0, 0.0, 1.0, 0.0, 2.0, 2.0, 4.0, 3.0, 4.0, 2.0, 6.0, 8.0, 4.0, 13.0, 7.0, 14.0, 20.0, 29.0, 24.0, 41.0, 46.0, 63.0, 61.0, 83.0, 90.0, 134.0, 156.0, 185.0, 234.0, 269.0, 319.0, 400.0, 480.0, 503.0, 546.0, 517.0, 513.0, 434.0, 363.0, 307.0, 180.0, 132.0, 112.0, 85.0, 48.0, 33.0, 26.0, 18.0, 9.0, 12.0, 2.0, 4.0, 4.0, 3.0, 3.0, 0.0, 1.0, 0.0, 0.0, 0.0, 0.0, 0.0, 1.0], "bins": [-1.4495563507080078, -1.4093217849731445, -1.3690873384475708, -1.3288527727127075, -1.2886183261871338, -1.2483837604522705, -1.2081493139266968, -1.1679147481918335, -1.1276803016662598, -1.0874457359313965, -1.0472112894058228, -1.0069767236709595, -0.9667422771453857, -0.9265077114105225, -0.886273205280304, -0.8460386991500854, -0.8058041334152222, -0.7655696272850037, -0.7253351211547852, -0.6851006150245667, -0.6448661088943481, -0.6046315431594849, -0.5643970370292664, -0.5241625308990479, -0.48392802476882935, -0.44369351863861084, -0.40345901250839233, -0.36322447657585144, -0.32298997044563293, -0.28275546431541443, -0.24252094328403473, -0.20228642225265503, -0.16205191612243652, -0.12181740254163742, -0.08158288896083832, -0.041348375380039215, -0.0011138617992401123, 0.039120644330978394, 0.0793551653623581, 0.11958968639373779, 0.1598241925239563, 0.2000586986541748, 0.2402932196855545, 0.2805277407169342, 0.3207622468471527, 0.3609967529773712, 0.4012312889099121, 0.4414657950401306, 0.4817003011703491, 0.5219348073005676, 0.5621693134307861, 0.6024038195610046, 0.6426383256912231, 0.6828728914260864, 0.7231073975563049, 0.7633419036865234, 0.8035764098167419, 0.8438109159469604, 0.884045422077179, 0.9242799282073975, 0.9645144939422607, 1.0047489404678345, 1.0449835062026978, 1.0852179527282715, 1.1254525184631348]}, "parameters/convs.1.lin_skip.bias": {"_type": "histogram", "values": [1.0, 0.0, 0.0, 1.0, 1.0, 1.0, 0.0, 0.0, 0.0, 0.0, 2.0, 0.0, 0.0, 0.0, 0.0, 1.0, 0.0, 0.0, 0.0, 1.0, 0.0, 1.0, 1.0, 2.0, 2.0, 3.0, 2.0, 5.0, 2.0, 2.0, 3.0, 4.0, 0.0, 2.0, 1.0, 2.0, 3.0, 2.0, 2.0, 2.0, 5.0, 2.0, 1.0, 3.0, 5.0, 1.0, 3.0, 0.0, 1.0, 2.0, 1.0, 0.0, 0.0, 1.0, 2.0, 0.0, 2.0, 0.0, 0.0, 1.0, 0.0, 0.0, 1.0, 1.0], "bins": [-0.37169504165649414, -0.36100247502326965, -0.35030993819236755, -0.33961737155914307, -0.3289248049259186, -0.3182322382926941, -0.307539701461792, -0.2968471348285675, -0.286154568195343, -0.27546200156211853, -0.26476946473121643, -0.25407689809799194, -0.24338433146476746, -0.23269177973270416, -0.22199922800064087, -0.21130666136741638, -0.20061412453651428, -0.189921572804451, -0.1792290061712265, -0.1685364544391632, -0.15784388780593872, -0.14715133607387543, -0.13645878434181213, -0.12576621770858765, -0.11507366597652435, -0.10438110679388046, -0.09368854761123657, -0.08299599587917328, -0.07230343669652939, -0.0616108775138855, -0.050918325781822205, -0.040225766599178314, -0.02953323721885681, -0.01884067989885807, -0.00814812257885933, 0.0025444328784942627, 0.013236992061138153, 0.023929551243782043, 0.03462210297584534, 0.04531466215848923, 0.05600722134113312, 0.06669978052377701, 0.0773923397064209, 0.08808489143848419, 0.09877745062112808, 0.10947000980377197, 0.12016256153583527, 0.13085511326789856, 0.14154767990112305, 0.15224023163318634, 0.16293279826641083, 0.17362534999847412, 0.1843179166316986, 0.1950104683637619, 0.2057030200958252, 0.21639558672904968, 0.22708813846111298, 0.23778069019317627, 0.24847325682640076, 0.25916582345962524, 0.26985836029052734, 0.28055092692375183, 0.2912434935569763, 0.3019360303878784, 0.3126285970211029]}, "parameters/aggr.lstm.weight_ih_l0": {"_type": "histogram", "values": [2.0, 1.0, 0.0, 0.0, 2.0, 0.0, 1.0, 1.0, 1.0, 1.0, 2.0, 5.0, 4.0, 5.0, 8.0, 14.0, 26.0, 23.0, 35.0, 37.0, 44.0, 62.0, 85.0, 142.0, 209.0, 273.0, 400.0, 564.0, 904.0, 1183.0, 1717.0, 2584.0, 3657.0, 5215.0, 6660.0, 7234.0, 6281.0, 4786.0, 3268.0, 2186.0, 1466.0, 1058.0, 769.0, 511.0, 352.0, 242.0, 125.0, 97.0, 75.0, 48.0, 40.0, 20.0, 17.0, 20.0, 5.0, 6.0, 5.0, 1.0, 3.0, 0.0, 3.0, 1.0, 1.0, 1.0], "bins": [-2.945610761642456, -2.8625383377075195, -2.779465913772583, -2.6963934898376465, -2.613321304321289, -2.5302488803863525, -2.447176456451416, -2.3641040325164795, -2.281031608581543, -2.1979591846466064, -2.11488676071167, -2.0318145751953125, -1.9487420320510864, -1.8656697273254395, -1.782597303390503, -1.6995248794555664, -1.6164525747299194, -1.533380150794983, -1.450307846069336, -1.3672354221343994, -1.284162998199463, -1.2010905742645264, -1.1180182695388794, -1.0349458456039429, -0.9518734812736511, -0.8688011169433594, -0.7857286930084229, -0.7026563286781311, -0.6195839643478394, -0.5365115404129028, -0.4534391760826111, -0.37036675214767456, -0.2872943878173828, -0.20422199368476868, -0.12114961445331573, -0.03807723522186279, 0.04499515891075134, 0.12806755304336548, 0.21113991737365723, 0.29421234130859375, 0.3772847056388855, 0.46035709977149963, 0.5434294939041138, 0.6265018582344055, 0.7095742225646973, 0.7926466464996338, 0.8757190108299255, 0.9587914347648621, 1.0418637990951538, 1.1249362230300903, 1.2080085277557373, 1.2910809516906738, 1.3741533756256104, 1.4572257995605469, 1.5402981042861938, 1.6233705282211304, 1.7064428329467773, 1.7895152568817139, 1.8725875616073608, 1.9556599855422974, 2.0387322902679443, 2.121804714202881, 2.2048771381378174, 2.287949562072754, 2.3710219860076904]}, "parameters/aggr.lstm.weight_hh_l0": {"_type": "histogram", "values": [2.0, 0.0, 0.0, 0.0, 2.0, 1.0, 1.0, 0.0, 5.0, 3.0, 2.0, 6.0, 5.0, 4.0, 9.0, 15.0, 19.0, 33.0, 49.0, 69.0, 56.0, 105.0, 157.0, 221.0, 285.0, 381.0, 490.0, 687.0, 849.0, 1245.0, 1565.0, 1929.0, 2421.0, 2668.0, 2671.0, 2374.0, 1996.0, 1500.0, 1100.0, 852.0, 664.0, 471.0, 362.0, 235.0, 214.0, 141.0, 119.0, 73.0, 57.0, 38.0, 27.0, 19.0, 16.0, 4.0, 8.0, 10.0, 4.0, 1.0, 2.0, 0.0, 0.0, 1.0, 0.0, 1.0], "bins": [-1.953791618347168, -1.895843505859375, -1.837895393371582, -1.779947280883789, -1.721999168395996, -1.6640510559082031, -1.6061029434204102, -1.5481548309326172, -1.4902067184448242, -1.4322586059570312, -1.3743104934692383, -1.3163623809814453, -1.2584142684936523, -1.2004661560058594, -1.1425180435180664, -1.0845699310302734, -1.0266218185424805, -0.9686737060546875, -0.9107255935668945, -0.8527774810791016, -0.7948293685913086, -0.7368812561035156, -0.6789331436157227, -0.6209850311279297, -0.5630367994308472, -0.5050886869430542, -0.44714057445526123, -0.38919246196746826, -0.3312443494796753, -0.27329620718955994, -0.21534809470176697, -0.157399982213974, -0.09945189952850342, -0.04150378331542015, 0.016444332897663116, 0.07439245283603668, 0.13234056532382965, 0.1902886927127838, 0.24823680520057678, 0.30618491768836975, 0.3641330301761627, 0.4220811426639557, 0.48002925515174866, 0.537977397441864, 0.595925509929657, 0.65387362241745, 0.7118217349052429, 0.7697698473930359, 0.8277179598808289, 0.8856660723686218, 0.9436141848564148, 1.0015623569488525, 1.0595104694366455, 1.1174585819244385, 1.1754066944122314, 1.2333548069000244, 1.2913029193878174, 1.3492510318756104, 1.4071991443634033, 1.4651472568511963, 1.5230953693389893, 1.5810434818267822, 1.6389915943145752, 1.6969397068023682, 1.7548878192901611]}, "parameters/aggr.lstm.bias_ih_l0": {"_type": "histogram", "values": [2.0, 1.0, 1.0, 1.0, 0.0, 3.0, 1.0, 0.0, 1.0, 4.0, 2.0, 4.0, 0.0, 5.0, 3.0, 4.0, 4.0, 5.0, 6.0, 7.0, 5.0, 7.0, 8.0, 8.0, 12.0, 5.0, 10.0, 8.0, 14.0, 12.0, 11.0, 11.0, 12.0, 16.0, 6.0, 9.0, 12.0, 6.0, 3.0, 13.0, 11.0, 9.0, 5.0, 8.0, 8.0, 7.0, 6.0, 4.0, 1.0, 4.0, 2.0, 1.0, 4.0, 1.0, 1.0, 3.0, 2.0, 2.0, 0.0, 1.0, 1.0, 0.0, 0.0, 1.0], "bins": [-0.2764700949192047, -0.26905882358551025, -0.2616475820541382, -0.2542363107204437, -0.24682505428791046, -0.2394137978553772, -0.23200252652168274, -0.22459127008914948, -0.2171800136566162, -0.20976875722408295, -0.2023574858903885, -0.19494622945785522, -0.18753497302532196, -0.1801237165927887, -0.17271244525909424, -0.16530118882656097, -0.15788991749286652, -0.15047866106033325, -0.1430673897266388, -0.13565613329410553, -0.12824487686157227, -0.1208336129784584, -0.11342234909534454, -0.10601109266281128, -0.09859982877969742, -0.09118856489658356, -0.08377730846405029, -0.07636604458093643, -0.06895478069782257, -0.06154352426528931, -0.054132260382175446, -0.04672100022435188, -0.03930974006652832, -0.03189847990870476, -0.024487217888236046, -0.017075955867767334, -0.009664695709943771, -0.0022534355521202087, 0.005157828330993652, 0.012569088488817215, 0.019980348646640778, 0.02739160880446434, 0.0348028689622879, 0.042214132845401764, 0.04962539300322533, 0.05703665316104889, 0.06444791704416275, 0.07185918092727661, 0.07927043735980988, 0.08668170124292374, 0.094092957675457, 0.10150422155857086, 0.10891547799110413, 0.11632674187421799, 0.12373800575733185, 0.1311492621898651, 0.13856053352355957, 0.14597178995609283, 0.1533830612897873, 0.16079431772232056, 0.16820557415485382, 0.17561683058738708, 0.18302810192108154, 0.1904393583536148, 0.19785061478614807]}, "parameters/aggr.lstm.bias_hh_l0": {"_type": "histogram", "values": [1.0, 0.0, 0.0, 0.0, 1.0, 1.0, 1.0, 3.0, 3.0, 1.0, 1.0, 3.0, 2.0, 2.0, 3.0, 2.0, 5.0, 3.0, 5.0, 1.0, 2.0, 5.0, 1.0, 8.0, 6.0, 4.0, 3.0, 13.0, 5.0, 13.0, 16.0, 11.0, 14.0, 11.0, 5.0, 9.0, 13.0, 9.0, 7.0, 14.0, 12.0, 20.0, 8.0, 9.0, 6.0, 9.0, 8.0, 7.0, 7.0, 8.0, 3.0, 4.0, 4.0, 2.0, 4.0, 1.0, 1.0, 0.0, 0.0, 2.0, 0.0, 1.0, 0.0, 1.0], "bins": [-0.3166344463825226, -0.30880582332611084, -0.3009772300720215, -0.29314863681793213, -0.2853200137615204, -0.27749139070510864, -0.2696627974510193, -0.26183420419692993, -0.2540055811405182, -0.24617697298526764, -0.2383483648300171, -0.23051975667476654, -0.222691148519516, -0.21486254036426544, -0.2070339322090149, -0.19920532405376434, -0.1913767158985138, -0.18354810774326324, -0.1757194995880127, -0.16789089143276215, -0.1600622832775116, -0.15223367512226105, -0.1444050669670105, -0.13657645881175995, -0.1287478506565094, -0.12091924250125885, -0.1130906343460083, -0.10526202619075775, -0.0974334180355072, -0.08960480988025665, -0.0817762017250061, -0.07394759356975555, -0.06611897051334381, -0.05829036235809326, -0.05046175420284271, -0.04263314604759216, -0.034804537892341614, -0.026975929737091064, -0.019147321581840515, -0.011318713426589966, -0.0034901052713394165, 0.004338502883911133, 0.012167111039161682, 0.01999571919441223, 0.02782432734966278, 0.03565293550491333, 0.04348154366016388, 0.05131015181541443, 0.05913875997066498, 0.06696736812591553, 0.07479597628116608, 0.08262458443641663, 0.09045319259166718, 0.09828180074691772, 0.10611040890216827, 0.11393901705741882, 0.12176762521266937, 0.12959623336791992, 0.13742484152317047, 0.14525344967842102, 0.15308205783367157, 0.16091066598892212, 0.16873927414417267, 0.17656788229942322, 0.18439649045467377]}, "parameters/linears.0.weight": {"_type": "histogram", "values": [1.0, 0.0, 0.0, 0.0, 0.0, 0.0, 0.0, 0.0, 1.0, 1.0, 0.0, 0.0, 1.0, 1.0, 0.0, 1.0, 1.0, 2.0, 0.0, 3.0, 2.0, 6.0, 3.0, 12.0, 6.0, 25.0, 25.0, 48.0, 73.0, 98.0, 152.0, 264.0, 417.0, 504.0, 732.0, 1026.0, 1556.0, 1899.0, 2216.0, 2316.0, 2201.0, 1871.0, 1549.0, 1210.0, 806.0, 546.0, 385.0, 251.0, 175.0, 85.0, 79.0, 61.0, 29.0, 31.0, 17.0, 16.0, 10.0, 8.0, 5.0, 2.0, 2.0, 3.0, 0.0, 2.0], "bins": [-1.3708515167236328, -1.3364639282226562, -1.3020763397216797, -1.2676888704299927, -1.2333012819290161, -1.1989136934280396, -1.164526104927063, -1.1301385164260864, -1.0957510471343994, -1.0613634586334229, -1.0269758701324463, -0.9925883412361145, -0.9582008123397827, -0.9238132238388062, -0.8894256353378296, -0.855038046836853, -0.8206504583358765, -0.7862628698348999, -0.7518753409385681, -0.7174877524375916, -0.6831002235412598, -0.6487126350402832, -0.6143250465393066, -0.5799374580383301, -0.5455499291419983, -0.5111623406410217, -0.47677481174468994, -0.4423872232437134, -0.4079996645450592, -0.37361210584640503, -0.33922451734542847, -0.3048369586467743, -0.27044951915740967, -0.2360619604587555, -0.20167438685894012, -0.16728681325912476, -0.13289925456047058, -0.0985116958618164, -0.06412412226200104, -0.02973654866218567, 0.004651010036468506, 0.03903857618570328, 0.07342614233493805, 0.10781370848417282, 0.1422012746334076, 0.17658883333206177, 0.21097640693187714, 0.2453639805316925, 0.2797515392303467, 0.31413909792900085, 0.34852665662765503, 0.3829142451286316, 0.41730180382728577, 0.45168936252593994, 0.4860769510269165, 0.5204645395278931, 0.5548520684242249, 0.5892396569252014, 0.6236271858215332, 0.6580147743225098, 0.6924023628234863, 0.7267898917198181, 0.7611774802207947, 0.7955650091171265, 0.829952597618103]}, "parameters/linears.0.bias": {"_type": "histogram", "values": [1.0, 0.0, 1.0, 0.0, 1.0, 1.0, 1.0, 0.0, 0.0, 0.0, 0.0, 0.0, 0.0, 0.0, 0.0, 0.0, 1.0, 3.0, 0.0, 1.0, 0.0, 0.0, 0.0, 1.0, 2.0, 2.0, 1.0, 1.0, 0.0, 2.0, 2.0, 1.0, 2.0, 3.0, 0.0, 3.0, 2.0, 4.0, 0.0, 3.0, 2.0, 3.0, 6.0, 8.0, 6.0, 5.0, 5.0, 4.0, 6.0, 7.0, 2.0, 4.0, 6.0, 7.0, 2.0, 3.0, 1.0, 3.0, 2.0, 2.0, 3.0, 0.0, 1.0, 1.0], "bins": [-0.34997284412384033, -0.34232422709465027, -0.3346756100654602, -0.32702702283859253, -0.31937840580940247, -0.3117297887802124, -0.30408117175102234, -0.2964325547218323, -0.2887839674949646, -0.28113535046577454, -0.2734867334365845, -0.2658381462097168, -0.25818952918052673, -0.25054091215133667, -0.2428922951221466, -0.23524369299411774, -0.22759506106376648, -0.21994644403457642, -0.21229784190654755, -0.20464922487735748, -0.1970006227493286, -0.18935200572013855, -0.1817033886909485, -0.17405478656291962, -0.16640618443489075, -0.15875756740570068, -0.15110896527767181, -0.14346034824848175, -0.13581174612045288, -0.12816312909126282, -0.12051451951265335, -0.11286590993404388, -0.10521729290485382, -0.09756868332624435, -0.08992007374763489, -0.08227145671844482, -0.07462284713983536, -0.06697423756122589, -0.059325627982616425, -0.05167701467871666, -0.04402840510010719, -0.036379795521497726, -0.02873118221759796, -0.021082572638988495, -0.013433961197733879, -0.005785349756479263, 0.0018632598221302032, 0.009511873126029968, 0.017160482704639435, 0.02480909414589405, 0.032457705587148666, 0.04010631516575813, 0.0477549284696579, 0.055403538048267365, 0.06305214762687683, 0.0707007646560669, 0.07834936678409576, 0.08599797636270523, 0.0936465859413147, 0.10129520297050476, 0.10894381254911423, 0.1165924221277237, 0.12424103170633316, 0.13188964128494263, 0.1395382583141327]}, "parameters/linears.1.weight": {"_type": "histogram", "values": [1.0, 0.0, 1.0, 0.0, 0.0, 1.0, 1.0, 0.0, 1.0, 0.0, 0.0, 2.0, 1.0, 0.0, 0.0, 2.0, 3.0, 5.0, 7.0, 12.0, 11.0, 7.0, 4.0, 10.0, 6.0, 6.0, 8.0, 6.0, 7.0, 9.0, 10.0, 11.0, 8.0, 15.0, 8.0, 5.0, 13.0, 10.0, 6.0, 12.0, 15.0, 7.0, 8.0, 2.0, 2.0, 1.0, 1.0, 1.0, 0.0, 5.0, 1.0, 1.0, 1.0, 0.0, 1.0, 0.0, 0.0, 0.0, 0.0, 0.0, 0.0, 0.0, 0.0, 1.0], "bins": [-0.22042210400104523, -0.2131669670343399, -0.20591183006763458, -0.19865669310092926, -0.19140155613422394, -0.18414641916751862, -0.1768912822008133, -0.16963614523410797, -0.16238100826740265, -0.15512587130069733, -0.147870734333992, -0.14061559736728668, -0.13336046040058136, -0.12610532343387604, -0.11885018646717072, -0.1115950495004654, -0.10433991253376007, -0.09708477556705475, -0.08982963860034943, -0.0825745016336441, -0.07531936466693878, -0.06806422770023346, -0.06080909073352814, -0.053553953766822815, -0.04629881680011749, -0.03904367983341217, -0.03178854286670685, -0.024533405900001526, -0.017278268933296204, -0.010023131966590881, -0.002767994999885559, 0.004487141966819763, 0.01174229383468628, 0.0189974308013916, 0.026252567768096924, 0.033507704734802246, 0.04076284170150757, 0.04801797866821289, 0.05527311563491821, 0.06252825260162354, 0.06978338956832886, 0.07703852653503418, 0.0842936635017395, 0.09154880046844482, 0.09880393743515015, 0.10605907440185547, 0.11331421136856079, 0.12056934833526611, 0.12782448530197144, 0.13507962226867676, 0.14233475923538208, 0.1495898962020874, 0.15684503316879272, 0.16410017013549805, 0.17135530710220337, 0.1786104440689087, 0.185865581035614, 0.19312071800231934, 0.20037585496902466, 0.20763099193572998, 0.2148861289024353, 0.22214126586914062, 0.22939640283584595, 0.23665153980255127, 0.2439066767692566]}, "parameters/linears.1.bias": {"_type": "histogram", "values": [1.0, 0.0, 0.0, 0.0, 0.0, 0.0, 0.0, 0.0, 0.0, 0.0, 0.0, 0.0, 0.0, 0.0, 0.0, 0.0, 0.0, 0.0, 0.0, 0.0, 0.0, 0.0, 0.0, 0.0, 0.0, 0.0, 0.0, 0.0, 0.0, 0.0, 0.0, 0.0, 0.0, 0.0, 0.0, 0.0, 0.0, 0.0, 0.0, 0.0, 0.0, 0.0, 0.0, 0.0, 0.0, 0.0, 0.0, 0.0, 0.0, 0.0, 0.0, 0.0, 0.0, 0.0, 0.0, 0.0, 0.0, 0.0, 0.0, 0.0, 0.0, 0.0, 0.0, 1.0], "bins": [-0.21016743779182434, -0.2070619761943817, -0.2039565145969391, -0.20085103809833527, -0.19774557650089264, -0.19464011490345, -0.19153465330600739, -0.18842917680740356, -0.18532371520996094, -0.1822182536125183, -0.17911279201507568, -0.17600731551647186, -0.17290185391902924, -0.1697963923215866, -0.16669093072414398, -0.16358545422554016, -0.16047999262809753, -0.1573745310306549, -0.15426906943321228, -0.15116359293460846, -0.14805813133716583, -0.1449526697397232, -0.14184720814228058, -0.13874173164367676, -0.13563627004623413, -0.1325308084487915, -0.12942534685134888, -0.12631987035274506, -0.12321440875530243, -0.1201089471578598, -0.11700347810983658, -0.11389801651239395, -0.11079256236553192, -0.1076871007680893, -0.10458163172006607, -0.10147617012262344, -0.09837070107460022, -0.09526523947715759, -0.09215977042913437, -0.08905430883169174, -0.08594883978366852, -0.08284337818622589, -0.07973790913820267, -0.07663244754076004, -0.07352697849273682, -0.07042151689529419, -0.06731604784727097, -0.06421058624982834, -0.06110512092709541, -0.05799965560436249, -0.05489419028162956, -0.05178872495889664, -0.04868325963616371, -0.045577794313430786, -0.04247233271598816, -0.039366863667964935, -0.03626139834523201, -0.033155933022499084, -0.03005046769976616, -0.026945002377033234, -0.023839537054300308, -0.020734071731567383, -0.017628608271479607, -0.014523142948746681, -0.01141767855733633]}, "train_rmse": 0.41055649241943726, "test_rmse": 0.562233549245598, "_runtime": 411.3925230503082, "_step": 40, "gradients/linears.1.bias": {"_type": "histogram", "values": [1.0, 0.0, 0.0, 0.0, 0.0, 0.0, 0.0, 0.0, 0.0, 0.0, 0.0, 0.0, 0.0, 0.0, 0.0, 0.0, 0.0, 0.0, 0.0, 0.0, 0.0, 0.0, 0.0, 0.0, 0.0, 0.0, 0.0, 0.0, 0.0, 0.0, 0.0, 0.0, 0.0, 0.0, 0.0, 0.0, 0.0, 0.0, 0.0, 0.0, 0.0, 0.0, 0.0, 0.0, 0.0, 0.0, 0.0, 0.0, 0.0, 0.0, 0.0, 0.0, 0.0, 0.0, 0.0, 0.0, 0.0, 0.0, 0.0, 0.0, 0.0, 0.0, 0.0, 1.0], "bins": [-0.010487178340554237, -0.010104618966579437, -0.009722060523927212, -0.009339501149952412, -0.008956942707300186, -0.008574383333325386, -0.00819182489067316, -0.0078092655166983604, -0.007426707074046135, -0.007044148165732622, -0.006661589257419109, -0.0062790303491055965, -0.005896471440792084, -0.005513912532478571, -0.005131353624165058, -0.004748794250190258, -0.004366235341876745, -0.003983676433563232, -0.0036011175252497196, -0.003218558616936207, -0.002835999708622694, -0.002453440800309181, -0.0020708816591650248, -0.001688322750851512, -0.0013057638425379992, -0.0009232049342244864, -0.0005406459677033126, -0.00015808700118213892, 0.00022447190713137388, 0.0006070308154448867, 0.0009895898401737213, 0.0013721487484872341, 0.001754707656800747, 0.0021372665651142597, 0.0025198254734277725, 0.0029023843817412853, 0.003284943290054798, 0.003667502198368311, 0.004050061106681824, 0.004432620480656624, 0.004815178923308849, 0.005197737831622362, 0.005580296739935875, 0.005962855648249388, 0.0063454145565629005, 0.006727973464876413, 0.007110532373189926, 0.007493091747164726, 0.007875651121139526, 0.008258210495114326, 0.008640768937766552, 0.009023328311741352, 0.009405886754393578, 0.009788446128368378, 0.010171004571020603, 0.010553563944995403, 0.010936122387647629, 0.011318681761622429, 0.011701240204274654, 0.012083799578249454, 0.01246635802090168, 0.01284891739487648, 0.013231475837528706, 0.013614035211503506, 0.013996593654155731]}, "gradients/linears.1.weight": {"_type": "histogram", "values": [2.0, 0.0, 0.0, 1.0, 0.0, 2.0, 0.0, 1.0, 0.0, 0.0, 2.0, 2.0, 1.0, 0.0, 3.0, 0.0, 2.0, 2.0, 2.0, 3.0, 0.0, 1.0, 2.0, 2.0, 2.0, 3.0, 5.0, 6.0, 5.0, 1.0, 3.0, 3.0, 2.0, 2.0, 6.0, 8.0, 109.0, 5.0, 3.0, 11.0, 3.0, 3.0, 4.0, 3.0, 9.0, 8.0, 2.0, 1.0, 4.0, 3.0, 0.0, 1.0, 2.0, 2.0, 2.0, 2.0, 1.0, 1.0, 0.0, 1.0, 0.0, 1.0, 0.0, 1.0], "bins": [-0.047879211604595184, -0.04656634479761124, -0.04525347799062729, -0.04394060745835304, -0.042627740651369095, -0.04131487384438515, -0.0400020033121109, -0.03868913650512695, -0.037376269698143005, -0.03606340289115906, -0.03475053608417511, -0.033437665551900864, -0.032124798744916916, -0.030811931937932968, -0.02949906326830387, -0.028186194598674774, -0.026873327791690826, -0.02556046098470688, -0.02424759231507778, -0.022934723645448685, -0.021621856838464737, -0.02030899003148079, -0.018996121361851692, -0.017683252692222595, -0.016370385885238647, -0.015057518146932125, -0.013744650408625603, -0.01243178267031908, -0.011118914932012558, -0.009806047193706036, -0.008493179455399513, -0.007180311717092991, -0.0058674439787864685, -0.004554576240479946, -0.0032417085021734238, -0.0019288407638669014, -0.000615973025560379, 0.0006968947127461433, 0.0020097624510526657, 0.003322630189359188, 0.0046354979276657104, 0.005948365665972233, 0.007261233404278755, 0.008574101142585278, 0.0098869688808918, 0.011199836619198322, 0.012512704357504845, 0.013825572095811367, 0.01513843983411789, 0.016451306641101837, 0.017764175310730934, 0.01907704398036003, 0.02038991078734398, 0.021702777594327927, 0.023015646263957024, 0.02432851493358612, 0.02564138174057007, 0.026954248547554016, 0.028267117217183113, 0.02957998588681221, 0.030892852693796158, 0.032205719500780106, 0.03351859003305435, 0.0348314568400383, 0.03614432364702225]}, "gradients/linears.0.bias": {"_type": "histogram", "values": [1.0, 1.0, 0.0, 0.0, 0.0, 0.0, 0.0, 2.0, 0.0, 0.0, 0.0, 0.0, 1.0, 0.0, 4.0, 2.0, 1.0, 2.0, 0.0, 2.0, 1.0, 55.0, 3.0, 3.0, 0.0, 2.0, 3.0, 0.0, 1.0, 4.0, 2.0, 2.0, 1.0, 0.0, 3.0, 3.0, 1.0, 0.0, 2.0, 4.0, 3.0, 2.0, 3.0, 1.0, 1.0, 2.0, 0.0, 0.0, 0.0, 0.0, 2.0, 2.0, 0.0, 2.0, 1.0, 1.0, 0.0, 0.0, 0.0, 1.0, 0.0, 0.0, 0.0, 1.0], "bins": [-0.0033806287683546543, -0.003225803142413497, -0.0030709775164723396, -0.0029161518905311823, -0.002761326264590025, -0.0026065006386488676, -0.0024516750127077103, -0.0022968491539359093, -0.0021420237608253956, -0.0019871981348842382, -0.001832372508943081, -0.0016775468830019236, -0.0015227212570607662, -0.0013678956311196089, -0.0012130698887631297, -0.0010582442628219724, -0.0009034185204654932, -0.0007485928945243359, -0.0005937672685831785, -0.00043894158443436027, -0.0002841159584932029, -0.00012929033255204558, 2.553535159677267e-05, 0.00018036097753793, 0.00033518660347908735, 0.0004900122294202447, 0.000644837855361402, 0.0007996635395102203, 0.0009544891654513776, 0.0011093148496001959, 0.0012641404755413532, 0.0014189661014825106, 0.001573791727423668, 0.0017286173533648252, 0.0018834429793059826, 0.00203826860524714, 0.0021930942311882973, 0.0023479198571294546, 0.002502745483070612, 0.002657571341842413, 0.0028123967349529266, 0.002967222360894084, 0.0031220479868352413, 0.0032768736127763987, 0.003431699238717556, 0.0035865248646587133, 0.0037413504905998707, 0.0038961763493716717, 0.004051001742482185, 0.004205827601253986, 0.0043606529943645, 0.004515478853136301, 0.004670304246246815, 0.004825130105018616, 0.004979955498129129, 0.00513478135690093, 0.005289607215672731, 0.005444433074444532, 0.005599258467555046, 0.005754084326326847, 0.005908909719437361, 0.006063735578209162, 0.0062185609713196754, 0.0063733868300914764, 0.00652821222320199]}, "gradients/linears.0.weight": {"_type": "histogram", "values": [4.0, 2.0, 3.0, 2.0, 7.0, 7.0, 8.0, 17.0, 17.0, 29.0, 23.0, 60.0, 68.0, 111.0, 175.0, 254.0, 355.0, 519.0, 842.0, 1540.0, 10982.0, 1767.0, 1101.0, 741.0, 490.0, 368.0, 259.0, 165.0, 166.0, 119.0, 98.0, 84.0, 55.0, 47.0, 55.0, 36.0, 23.0, 18.0, 14.0, 15.0, 15.0, 16.0, 13.0, 10.0, 6.0, 8.0, 3.0, 3.0, 0.0, 2.0, 3.0, 2.0, 1.0, 2.0, 2.0, 2.0, 0.0, 1.0, 0.0, 0.0, 0.0, 0.0, 0.0, 1.0], "bins": [-0.001898548100143671, -0.001806393382139504, -0.0017142386641353369, -0.001622083829715848, -0.0015299291117116809, -0.0014377743937075138, -0.0013456196757033467, -0.0012534649576991796, -0.0011613101232796907, -0.0010691554052755237, -0.0009770006872713566, -0.0008848459110595286, -0.0007926911348477006, -0.0007005364168435335, -0.0006083816988393664, -0.0005162269226275384, -0.0004240722628310323, -0.00033191751572303474, -0.00023976278316695243, -0.00014760805061087012, -5.5453303502872586e-05, 3.670144360512495e-05, 0.00012885616160929203, 0.00022101093782112002, 0.0003131656558252871, 0.00040532040293328464, 0.0004974751500412822, 0.0005896298680454493, 0.0006817845860496163, 0.0007739393622614443, 0.0008660940802656114, 0.0009582488564774394, 0.0010504035744816065, 0.0011425582924857736, 0.0012347130104899406, 0.0013268678449094296, 0.0014190225629135966, 0.0015111772809177637, 0.0016033319989219308, 0.0016954867169260979, 0.0017876415513455868, 0.0018797962693497539, 0.001971950987353921, 0.00206410582177341, 0.002156260423362255, 0.002248415257781744, 0.002340570092201233, 0.002432724693790078, 0.0025248792953789234, 0.0026170341297984123, 0.0027091887313872576, 0.0028013435658067465, 0.0028934981673955917, 0.0029856530018150806, 0.0030778078362345695, 0.003169962437823415, 0.0032621172722429037, 0.0033542721066623926, 0.003446426708251238, 0.0035385815426707268, 0.003630736144259572, 0.003722890978679061, 0.003815045580267906, 0.003907200414687395, 0.003999355249106884]}, "gradients/aggr.lstm.weight_ih_l0": {"_type": "histogram", "values": [2.0, 3.0, 2.0, 1.0, 2.0, 5.0, 0.0, 3.0, 5.0, 4.0, 4.0, 9.0, 15.0, 18.0, 26.0, 38.0, 38.0, 67.0, 79.0, 148.0, 241.0, 463.0, 1115.0, 4213.0, 37376.0, 5586.0, 1397.0, 641.0, 326.0, 210.0, 114.0, 89.0, 67.0, 46.0, 31.0, 25.0, 23.0, 14.0, 6.0, 9.0, 4.0, 4.0, 7.0, 2.0, 0.0, 2.0, 1.0, 1.0, 0.0, 1.0, 2.0, 1.0, 0.0, 0.0, 0.0, 0.0, 0.0, 0.0, 0.0, 0.0, 1.0, 0.0, 0.0, 1.0], "bins": [-0.0042207371443510056, -0.004048967268317938, -0.0038771971594542265, -0.003705427050590515, -0.0035336571745574474, -0.003361887065693736, -0.0031901169568300247, -0.003018347080796957, -0.0028465772047638893, -0.002674807095900178, -0.0025030372198671103, -0.002331267111003399, -0.002159497234970331, -0.00198772712610662, -0.0018159571336582303, -0.0016441871412098408, -0.0014724170323461294, -0.0013006470398977399, -0.0011288770474493504, -0.0009571069967932999, -0.0007853370043449104, -0.0006135670118965209, -0.0004417969612404704, -0.0002700269687920809, -9.825697634369135e-05, 7.351303065661341e-05, 0.00024528303765691817, 0.00041705305920913815, 0.0005888230516575277, 0.0007605930441059172, 0.0009323630947619677, 0.0011041330872103572, 0.0012759030796587467, 0.0014476730721071362, 0.0016194430645555258, 0.0017912131734192371, 0.001962983049452305, 0.002134753158316016, 0.0023065232671797276, 0.0024782931432127953, 0.002650063019245863, 0.0028218331281095743, 0.002993603004142642, 0.0031653731130063534, 0.003337142989039421, 0.0035089130979031324, 0.003680683206766844, 0.0038524530827999115, 0.0040242234244942665, 0.004195993300527334, 0.004367763642221689, 0.004539533518254757, 0.004711303394287825, 0.004883073270320892, 0.005054843612015247, 0.005226613488048315, 0.005398383364081383, 0.0055701532401144505, 0.0057419235818088055, 0.005913693457841873, 0.006085463333874941, 0.006257233209908009, 0.006429003551602364, 0.006600773427635431, 0.006772543303668499]}, "gradients/aggr.lstm.weight_hh_l0": {"_type": "histogram", "values": [1.0, 0.0, 0.0, 0.0, 0.0, 0.0, 1.0, 0.0, 0.0, 2.0, 3.0, 5.0, 3.0, 1.0, 1.0, 5.0, 7.0, 6.0, 11.0, 18.0, 25.0, 31.0, 66.0, 82.0, 152.0, 303.0, 630.0, 1995.0, 17222.0, 4081.0, 828.0, 334.0, 161.0, 110.0, 40.0, 32.0, 23.0, 14.0, 11.0, 6.0, 10.0, 6.0, 5.0, 3.0, 0.0, 4.0, 1.0, 0.0, 0.0, 0.0, 1.0, 1.0, 0.0, 0.0, 1.0, 1.0, 0.0, 0.0, 0.0, 0.0, 0.0, 0.0, 0.0, 1.0], "bins": [-0.0026781349442899227, -0.0025848045479506254, -0.0024914739187806845, -0.002398143522441387, -0.0023048128932714462, -0.002211482496932149, -0.0021181521005928516, -0.0020248214714229107, -0.0019314910750836134, -0.0018381605623289943, -0.0017448300495743752, -0.0016514996532350779, -0.0015581691404804587, -0.0014648386277258396, -0.0013715082313865423, -0.0012781777186319232, -0.001184847205877304, -0.001091516693122685, -0.0009981861803680658, -0.0009048557840287685, -0.0008115252712741494, -0.0007181947585195303, -0.0006248643039725721, -0.0005315338494256139, -0.00043820333667099476, -0.0003448728530202061, -0.00025154236936941743, -0.00015821188571862876, -6.48814020678401e-05, 2.8449081582948565e-05, 0.00012177956523373723, 0.00021511001978069544, 0.0003084407653659582, 0.0004017712490167469, 0.0004951017326675355, 0.0005884321872144938, 0.0006817626999691129, 0.000775093212723732, 0.0008684236672706902, 0.0009617541218176484, 0.0010550846345722675, 0.0011484151473268867, 0.0012417456600815058, 0.001335076056420803, 0.0014284065691754222, 0.0015217370819300413, 0.0016150674782693386, 0.0017083979910239577, 0.0018017285037785769, 0.001895059016533196, 0.001988389529287815, 0.0020817199256271124, 0.0021750503219664097, 0.0022683809511363506, 0.002361711347475648, 0.0024550417438149452, 0.002548372372984886, 0.0026417027693241835, 0.0027350333984941244, 0.0028283637948334217, 0.0029216944240033627, 0.00301502482034266, 0.0031083552166819572, 0.003201685845851898, 0.0032950162421911955]}, "gradients/aggr.lstm.bias_hh_l0": {"_type": "histogram", "values": [1.0, 0.0, 0.0, 0.0, 0.0, 0.0, 0.0, 0.0, 0.0, 1.0, 0.0, 0.0, 1.0, 0.0, 1.0, 0.0, 2.0, 0.0, 2.0, 2.0, 2.0, 3.0, 0.0, 2.0, 6.0, 4.0, 9.0, 28.0, 55.0, 102.0, 37.0, 15.0, 16.0, 7.0, 6.0, 2.0, 4.0, 2.0, 1.0, 1.0, 3.0, 2.0, 2.0, 0.0, 3.0, 0.0, 1.0, 0.0, 0.0, 0.0, 0.0, 0.0, 0.0, 0.0, 0.0, 0.0, 0.0, 0.0, 0.0, 0.0, 0.0, 0.0, 0.0, 1.0], "bins": [-0.013616426847875118, -0.013150493614375591, -0.012684561312198639, -0.012218628078699112, -0.011752694845199585, -0.011286761611700058, -0.010820829309523106, -0.010354896076023579, -0.009888963773846626, -0.0094230305403471, -0.008957098238170147, -0.00849116500467062, -0.008025231771171093, -0.007559299003332853, -0.007093366235494614, -0.006627433001995087, -0.00616149976849556, -0.00569556700065732, -0.005229633767157793, -0.004763700999319553, -0.004297767765820026, -0.0038318349979817867, -0.003365902230143547, -0.0028999692294746637, -0.0024340362288057804, -0.001968103228136897, -0.0015021703438833356, -0.001036237459629774, -0.0005703044589608908, -0.00010437145829200745, 0.0003615613095462322, 0.0008274943102151155, 0.0012934282422065735, 0.0017593612428754568, 0.00222529424354434, 0.00269122701138258, 0.003157160012051463, 0.0036230930127203465, 0.004089025780558586, 0.004554959014058113, 0.005020891781896353, 0.0054868245497345924, 0.005952757783234119, 0.006418690551072359, 0.006884623318910599, 0.007350556552410126, 0.007816489785909653, 0.008282422088086605, 0.008748355321586132, 0.009214288555085659, 0.009680220857262611, 0.010146154090762138, 0.010612087324261665, 0.011078020557761192, 0.011543952859938145, 0.012009886093437672, 0.012475818395614624, 0.012941751629114151, 0.013407683931291103, 0.01387361716479063, 0.014339550398290157, 0.01480548270046711, 0.015271415933966637, 0.015737349167466164, 0.01620328240096569]}, "gradients/aggr.lstm.bias_ih_l0": {"_type": "histogram", "values": [1.0, 0.0, 0.0, 0.0, 0.0, 0.0, 0.0, 0.0, 0.0, 1.0, 0.0, 0.0, 1.0, 0.0, 1.0, 0.0, 2.0, 0.0, 2.0, 2.0, 2.0, 3.0, 0.0, 2.0, 6.0, 4.0, 9.0, 28.0, 55.0, 102.0, 37.0, 15.0, 16.0, 7.0, 6.0, 2.0, 4.0, 2.0, 1.0, 1.0, 3.0, 2.0, 2.0, 0.0, 3.0, 0.0, 1.0, 0.0, 0.0, 0.0, 0.0, 0.0, 0.0, 0.0, 0.0, 0.0, 0.0, 0.0, 0.0, 0.0, 0.0, 0.0, 0.0, 1.0], "bins": [-0.013616426847875118, -0.013150493614375591, -0.012684561312198639, -0.012218628078699112, -0.011752694845199585, -0.011286761611700058, -0.010820829309523106, -0.010354896076023579, -0.009888963773846626, -0.0094230305403471, -0.008957098238170147, -0.00849116500467062, -0.008025231771171093, -0.007559299003332853, -0.007093366235494614, -0.006627433001995087, -0.00616149976849556, -0.00569556700065732, -0.005229633767157793, -0.004763700999319553, -0.004297767765820026, -0.0038318349979817867, -0.003365902230143547, -0.0028999692294746637, -0.0024340362288057804, -0.001968103228136897, -0.0015021703438833356, -0.001036237459629774, -0.0005703044589608908, -0.00010437145829200745, 0.0003615613095462322, 0.0008274943102151155, 0.0012934282422065735, 0.0017593612428754568, 0.00222529424354434, 0.00269122701138258, 0.003157160012051463, 0.0036230930127203465, 0.004089025780558586, 0.004554959014058113, 0.005020891781896353, 0.0054868245497345924, 0.005952757783234119, 0.006418690551072359, 0.006884623318910599, 0.007350556552410126, 0.007816489785909653, 0.008282422088086605, 0.008748355321586132, 0.009214288555085659, 0.009680220857262611, 0.010146154090762138, 0.010612087324261665, 0.011078020557761192, 0.011543952859938145, 0.012009886093437672, 0.012475818395614624, 0.012941751629114151, 0.013407683931291103, 0.01387361716479063, 0.014339550398290157, 0.01480548270046711, 0.015271415933966637, 0.015737349167466164, 0.01620328240096569]}, "gradients/convs.1.lin_skip.bias": {"_type": "histogram", "values": [1.0, 0.0, 0.0, 0.0, 1.0, 0.0, 0.0, 0.0, 0.0, 1.0, 0.0, 1.0, 0.0, 1.0, 1.0, 2.0, 1.0, 0.0, 1.0, 1.0, 0.0, 1.0, 2.0, 3.0, 2.0, 2.0, 2.0, 2.0, 4.0, 3.0, 1.0, 4.0, 5.0, 5.0, 2.0, 5.0, 7.0, 3.0, 2.0, 2.0, 1.0, 2.0, 2.0, 0.0, 1.0, 0.0, 3.0, 0.0, 0.0, 1.0, 0.0, 1.0, 0.0, 0.0, 0.0, 0.0, 0.0, 0.0, 0.0, 0.0, 0.0, 1.0, 0.0, 1.0], "bins": [-0.03197890892624855, -0.030980031937360764, -0.029981154948472977, -0.02898227982223034, -0.027983402833342552, -0.026984525844454765, -0.025985650718212128, -0.02498677372932434, -0.023987896740436554, -0.022989019751548767, -0.02199014276266098, -0.020991267636418343, -0.019992390647530556, -0.01899351365864277, -0.01799463853240013, -0.016995761543512344, -0.015996884554624557, -0.01499800756573677, -0.013999131508171558, -0.013000255450606346, -0.01200137846171856, -0.011002501472830772, -0.01000362541526556, -0.009004749357700348, -0.008005872368812561, -0.0070069958455860615, -0.006008119322359562, -0.005009242799133062, -0.004010366275906563, -0.0030114897526800632, -0.0020126132294535637, -0.0010137367062270641, -1.4863908290863037e-05, 0.0009840126149356365, 0.001982889138162136, 0.0029817656613886356, 0.003980642184615135, 0.004979518707841635, 0.005978395231068134, 0.006977271754294634, 0.007976148277521133, 0.00897502526640892, 0.009973901323974133, 0.010972777381539345, 0.011971654370427132, 0.012970531359314919, 0.01396940741688013, 0.014968283474445343, 0.01596716046333313, 0.016966037452220917, 0.017964914441108704, 0.01896378956735134, 0.019962666556239128, 0.020961543545126915, 0.021960418671369553, 0.02295929566025734, 0.023958172649145126, 0.024957049638032913, 0.0259559266269207, 0.026954801753163338, 0.027953678742051125, 0.02895255573093891, 0.02995143085718155, 0.030950307846069336, 0.03194918483495712]}, "gradients/convs.1.lin_skip.weight": {"_type": "histogram", "values": [1.0, 0.0, 0.0, 0.0, 0.0, 0.0, 0.0, 2.0, 0.0, 0.0, 1.0, 0.0, 2.0, 0.0, 6.0, 3.0, 6.0, 5.0, 13.0, 10.0, 20.0, 33.0, 41.0, 43.0, 75.0, 86.0, 108.0, 127.0, 194.0, 277.0, 413.0, 593.0, 947.0, 1180.0, 681.0, 520.0, 346.0, 216.0, 161.0, 147.0, 83.0, 51.0, 47.0, 28.0, 29.0, 12.0, 11.0, 8.0, 8.0, 8.0, 3.0, 2.0, 2.0, 3.0, 1.0, 3.0, 0.0, 3.0, 0.0, 0.0, 0.0, 0.0, 1.0, 1.0], "bins": [-0.019746532663702965, -0.019152188673615456, -0.018557844683527946, -0.017963502556085587, -0.017369158565998077, -0.016774814575910568, -0.01618047058582306, -0.01558612659573555, -0.01499178260564804, -0.014397438615560532, -0.013803095556795597, -0.013208751566708088, -0.012614407576620579, -0.012020064517855644, -0.011425720527768135, -0.010831376537680626, -0.010237033478915691, -0.009642689488828182, -0.009048346430063248, -0.008454002439975739, -0.00785965844988823, -0.0072653149254620075, -0.006670971401035786, -0.0060766274109482765, -0.005482283886522055, -0.004887940362095833, -0.004293596372008324, -0.003699252847582102, -0.0031049090903252363, -0.002510565333068371, -0.001916221808642149, -0.0013218778185546398, -0.000727534294128418, -0.00013319059507921338, 0.0004611531039699912, 0.0010554967448115349, 0.0016498405020684004, 0.002244184259325266, 0.0028385277837514877, 0.003432871773838997, 0.004027215298265219, 0.004621558822691441, 0.00521590281277895, 0.005810246337205172, 0.006404589861631393, 0.006998933851718903, 0.0075932773761451244, 0.008187621831893921, 0.008781964890658855, 0.009376308880746365, 0.0099706519395113, 0.010564995929598808, 0.011159339919686317, 0.011753683909773827, 0.012348026968538761, 0.01294237095862627, 0.013536714017391205, 0.014131058007478714, 0.014725401066243649, 0.015319745056331158, 0.015914088115096092, 0.0165084321051836, 0.01710277609527111, 0.01769712008535862, 0.01829146407544613]}, "gradients/convs.1.lin_edge.weight": {"_type": "histogram", "values": [1.0, 1.0, 0.0, 0.0, 1.0, 2.0, 2.0, 1.0, 0.0, 2.0, 3.0, 2.0, 0.0, 1.0, 4.0, 6.0, 4.0, 2.0, 4.0, 6.0, 2.0, 4.0, 9.0, 9.0, 6.0, 8.0, 8.0, 12.0, 8.0, 13.0, 10.0, 17.0, 16.0, 12.0, 13.0, 4.0, 10.0, 7.0, 4.0, 5.0, 3.0, 2.0, 1.0, 1.0, 3.0, 4.0, 1.0, 0.0, 0.0, 3.0, 1.0, 0.0, 1.0, 1.0, 0.0, 2.0, 0.0, 0.0, 0.0, 0.0, 0.0, 0.0, 0.0, 1.0], "bins": [-0.013189081102609634, -0.012740075588226318, -0.012291071005165577, -0.011842066422104836, -0.01139306090772152, -0.010944055393338203, -0.010495050810277462, -0.01004604622721672, -0.009597040712833405, -0.009148035198450089, -0.008699030615389347, -0.008250026032328606, -0.00780102051794529, -0.007352015469223261, -0.006903010420501232, -0.006454005371779203, -0.006005000323057175, -0.005555995274335146, -0.005106990225613117, -0.0046579851768910885, -0.00420898012816906, -0.003759975079447031, -0.0033109700307250023, -0.0028619649820029736, -0.002412959933280945, -0.001963954884558916, -0.0015149498358368874, -0.0010659447871148586, -0.0006169397383928299, -0.00016793468967080116, 0.00028107035905122757, 0.0007300754077732563, 0.001179080456495285, 0.0016280855052173138, 0.0020770905539393425, 0.0025260956026613712, 0.0029751006513834, 0.0034241057001054287, 0.0038731107488274574, 0.004322115797549486, 0.004771120846271515, 0.005220125894993544, 0.005669130943715572, 0.006118135992437601, 0.00656714104115963, 0.0070161460898816586, 0.007465151138603687, 0.007914155721664429, 0.008363161236047745, 0.00881216675043106, 0.009261171333491802, 0.009710175916552544, 0.01015918143093586, 0.010608186945319176, 0.011057191528379917, 0.011506196111440659, 0.011955201625823975, 0.01240420714020729, 0.012853211723268032, 0.013302216306328773, 0.01375122182071209, 0.014200227335095406, 0.014649231918156147, 0.015098236501216888, 0.015547242015600204]}, "gradients/convs.1.lin_value.bias": {"_type": "histogram", "values": [1.0, 0.0, 0.0, 0.0, 0.0, 1.0, 0.0, 0.0, 0.0, 0.0, 1.0, 0.0, 1.0, 0.0, 2.0, 0.0, 1.0, 1.0, 2.0, 1.0, 0.0, 1.0, 3.0, 1.0, 3.0, 0.0, 2.0, 2.0, 1.0, 3.0, 6.0, 2.0, 4.0, 6.0, 4.0, 3.0, 5.0, 2.0, 5.0, 1.0, 3.0, 1.0, 3.0, 0.0, 1.0, 0.0, 2.0, 2.0, 0.0, 1.0, 0.0, 0.0, 1.0, 0.0, 0.0, 0.0, 0.0, 0.0, 0.0, 0.0, 1.0, 0.0, 0.0, 1.0], "bins": [-0.03251630812883377, -0.03152187913656235, -0.030527452006936073, -0.0295330248773098, -0.028538597747683525, -0.02754417061805725, -0.026549741625785828, -0.025555314496159554, -0.02456088736653328, -0.023566460236907005, -0.022572031244635582, -0.021577604115009308, -0.020583176985383034, -0.01958874985575676, -0.018594320863485336, -0.017599893733859062, -0.01660546474158764, -0.01561103668063879, -0.014616609551012516, -0.013622181490063667, -0.012627754360437393, -0.011633326299488544, -0.010638898238539696, -0.009644471108913422, -0.008650043047964573, -0.0076556154526770115, -0.00666118785738945, -0.005666759796440601, -0.00467233220115304, -0.0036779046058654785, -0.00268347654491663, -0.0016890489496290684, -0.000694621354341507, 0.0002998063573613763, 0.0012942340690642595, 0.0022886618971824646, 0.003283089492470026, 0.004277517087757587, 0.005271945148706436, 0.006266372743993998, 0.007260800339281559, 0.008255228400230408, 0.009249655529856682, 0.01024408359080553, 0.01123851165175438, 0.012232938781380653, 0.013227366842329502, 0.01422179490327835, 0.015216222032904625, 0.0162106491625309, 0.017205078154802322, 0.018199505284428596, 0.01919393241405487, 0.020188361406326294, 0.021182788535952568, 0.022177215665578842, 0.023171644657850266, 0.02416607178747654, 0.025160500779747963, 0.026154927909374237, 0.02714935503900051, 0.028143782168626785, 0.02913821116089821, 0.030132638290524483, 0.031127065420150757]}, "gradients/convs.1.lin_value.weight": {"_type": "histogram", "values": [1.0, 0.0, 0.0, 0.0, 0.0, 0.0, 1.0, 0.0, 0.0, 0.0, 0.0, 0.0, 0.0, 1.0, 1.0, 0.0, 1.0, 1.0, 0.0, 0.0, 1.0, 3.0, 4.0, 2.0, 6.0, 8.0, 7.0, 10.0, 12.0, 18.0, 25.0, 39.0, 55.0, 61.0, 91.0, 163.0, 234.0, 369.0, 576.0, 932.0, 1363.0, 904.0, 535.0, 371.0, 277.0, 140.0, 114.0, 78.0, 49.0, 33.0, 26.0, 17.0, 10.0, 9.0, 4.0, 3.0, 2.0, 3.0, 0.0, 0.0, 0.0, 0.0, 0.0, 1.0], "bins": [-0.025908268988132477, -0.025268256664276123, -0.02462824620306492, -0.023988235741853714, -0.02334822341799736, -0.022708211094141006, -0.022068200632929802, -0.021428190171718597, -0.020788177847862244, -0.02014816552400589, -0.019508155062794685, -0.01886814460158348, -0.018228132277727127, -0.017588119953870773, -0.01694810949265957, -0.016308099031448364, -0.01566808670759201, -0.015028075315058231, -0.014388063922524452, -0.013748052529990673, -0.013108041137456894, -0.012468029744923115, -0.011828018352389336, -0.011188006959855556, -0.010547995567321777, -0.009907984174787998, -0.009267972782254219, -0.00862796138972044, -0.00798794999718666, -0.007347938604652882, -0.0067079272121191025, -0.006067915819585323, -0.005427905358374119, -0.00478789396584034, -0.0041478825733065605, -0.0035078711807727814, -0.0028678597882390022, -0.002227848395705223, -0.001587837003171444, -0.0009478256106376648, -0.00030781421810388565, 0.0003321971744298935, 0.0009722085669636726, 0.0016122199594974518, 0.002252231352031231, 0.00289224274456501, 0.003532254137098789, 0.004172265529632568, 0.0048122769221663475, 0.005452288314700127, 0.006092299707233906, 0.006732311099767685, 0.007372322492301464, 0.008012333884835243, 0.008652345277369022, 0.009292356669902802, 0.00993236806243658, 0.01057237945497036, 0.011212390847504139, 0.011852402240037918, 0.012492413632571697, 0.013132425025105476, 0.013772436417639256, 0.014412447810173035, 0.015052459202706814]}, "gradients/convs.1.lin_key.bias": {"_type": "histogram", "values": [1.0, 0.0, 0.0, 0.0, 0.0, 0.0, 0.0, 0.0, 0.0, 0.0, 0.0, 0.0, 0.0, 1.0, 0.0, 0.0, 0.0, 0.0, 0.0, 0.0, 1.0, 0.0, 0.0, 0.0, 1.0, 1.0, 2.0, 3.0, 4.0, 1.0, 5.0, 3.0, 3.0, 0.0, 5.0, 1.0, 3.0, 4.0, 1.0, 3.0, 3.0, 5.0, 3.0, 5.0, 3.0, 4.0, 0.0, 0.0, 1.0, 1.0, 3.0, 2.0, 2.0, 3.0, 2.0, 0.0, 0.0, 0.0, 0.0, 0.0, 0.0, 0.0, 0.0, 1.0], "bins": [-4.6202330850064754e-10, -4.5002934712101705e-10, -4.3803538574138656e-10, -4.2604142436175607e-10, -4.140474629821256e-10, -4.020535016024951e-10, -3.900595402228646e-10, -3.780655788432341e-10, -3.660716174636036e-10, -3.540776560839731e-10, -3.4208369470434263e-10, -3.3008973332471214e-10, -3.1809577194508165e-10, -3.0610181056545116e-10, -2.9410784918582067e-10, -2.821138878061902e-10, -2.701199264265597e-10, -2.581259650469292e-10, -2.461320036672987e-10, -2.341380422876682e-10, -2.2214408090803772e-10, -2.1015011952840723e-10, -1.9815615814877674e-10, -1.8616219676914625e-10, -1.7416823538951576e-10, -1.6217427400988527e-10, -1.5018031263025478e-10, -1.3818635125062428e-10, -1.261923898709938e-10, -1.141984284913633e-10, -1.0220446711173281e-10, -9.021050573210232e-11, -7.821654435247183e-11, -6.622258297284134e-11, -5.4228621593210846e-11, -4.2234660213580355e-11, -3.0240698833949864e-11, -1.8246737454319373e-11, -6.252776074688882e-12, 5.7411853049416095e-12, 1.77351466845721e-11, 2.972910806420259e-11, 4.172306944383308e-11, 5.3717030823463574e-11, 6.571099220309407e-11, 7.770495358272456e-11, 8.969891496235505e-11, 1.0169287634198554e-10, 1.1368683772161603e-10, 1.2568079910124652e-10, 1.37674760480877e-10, 1.496687218605075e-10, 1.61662683240138e-10, 1.7365664461976849e-10, 1.8565060599939898e-10, 1.9764456737902947e-10, 2.0963852875865996e-10, 2.2163249013829045e-10, 2.3362645151792094e-10, 2.4562041289755143e-10, 2.576143742771819e-10, 2.696083356568124e-10, 2.816022970364429e-10, 2.935962584160734e-10, 3.055902197957039e-10]}, "gradients/convs.1.lin_key.weight": {"_type": "histogram", "values": [1.0, 0.0, 0.0, 0.0, 0.0, 0.0, 0.0, 0.0, 0.0, 1.0, 0.0, 2.0, 0.0, 2.0, 1.0, 2.0, 1.0, 6.0, 10.0, 12.0, 23.0, 24.0, 27.0, 37.0, 69.0, 88.0, 94.0, 117.0, 151.0, 213.0, 238.0, 310.0, 445.0, 558.0, 572.0, 568.0, 567.0, 504.0, 405.0, 359.0, 282.0, 209.0, 148.0, 114.0, 108.0, 81.0, 63.0, 36.0, 26.0, 23.0, 20.0, 14.0, 10.0, 9.0, 3.0, 0.0, 1.0, 1.0, 1.0, 2.0, 0.0, 2.0, 0.0, 1.0], "bins": [-0.002367892302572727, -0.0023012636229395866, -0.0022346351761370897, -0.002168006496503949, -0.0021013780497014523, -0.0020347493700683117, -0.001968120690435171, -0.0019014921272173524, -0.0018348635639995337, -0.001768235000781715, -0.0017016064375638962, -0.0016349777579307556, -0.0015683491947129369, -0.0015017206314951181, -0.0014350919518619776, -0.0013684633886441588, -0.00130183482542634, -0.0012352062622085214, -0.0011685776989907026, -0.001101949019357562, -0.0010353204561397433, -0.0009686918929219246, -0.0009020632714964449, -0.0008354346500709653, -0.0007688060868531466, -0.0007021775236353278, -0.0006355489022098482, -0.0005689202807843685, -0.0005022917175665498, -0.0004356631252449006, -0.0003690345329232514, -0.0003024059406016022, -0.000235777348279953, -0.0001691487559583038, -0.00010252016363665462, -3.589157131500542e-05, 3.073702100664377e-05, 9.736561332829297e-05, 0.00016399420564994216, 0.00023062279797159135, 0.00029725139029324055, 0.00036387998261488974, 0.00043050857493653893, 0.0004971371963620186, 0.0005637657595798373, 0.0006303943227976561, 0.0006970229442231357, 0.0007636515656486154, 0.0008302801288664341, 0.0008969086920842528, 0.0009635373135097325, 0.0010301659349352121, 0.0010967944981530309, 0.0011634230613708496, 0.0012300517410039902, 0.001296680304221809, 0.0013633088674396276, 0.0014299374306574464, 0.0014965659938752651, 0.0015631946735084057, 0.0016298232367262244, 0.0016964517999440432, 0.0017630804795771837, 0.0018297090427950025, 0.0018963376060128212]}, "gradients/convs.1.lin_query.bias": {"_type": "histogram", "values": [1.0, 0.0, 0.0, 0.0, 0.0, 0.0, 0.0, 0.0, 1.0, 0.0, 0.0, 0.0, 0.0, 0.0, 0.0, 0.0, 0.0, 0.0, 0.0, 0.0, 2.0, 0.0, 1.0, 0.0, 0.0, 1.0, 1.0, 0.0, 1.0, 1.0, 1.0, 0.0, 0.0, 3.0, 0.0, 2.0, 1.0, 4.0, 7.0, 2.0, 5.0, 7.0, 4.0, 1.0, 1.0, 3.0, 3.0, 3.0, 3.0, 2.0, 2.0, 1.0, 3.0, 2.0, 1.0, 3.0, 2.0, 3.0, 0.0, 1.0, 1.0, 0.0, 0.0, 1.0], "bins": [-0.00534919835627079, -0.005226979032158852, -0.0051047601737082005, -0.004982540849596262, -0.004860321991145611, -0.004738102667033672, -0.004615883342921734, -0.004493664484471083, -0.004371445160359144, -0.004249225836247206, -0.0041270069777965546, -0.004004787653684616, -0.0038825685624033213, -0.0037603494711220264, -0.0036381303798407316, -0.003515911288559437, -0.003393692197278142, -0.003271473105996847, -0.0031492540147155523, -0.0030270349234342575, -0.002904815599322319, -0.002782596508041024, -0.0026603774167597294, -0.0025381583254784346, -0.0024159392341971397, -0.002293720142915845, -0.00217150105163455, -0.0020492817275226116, -0.0019270626362413168, -0.001804843544960022, -0.0016826244536787271, -0.0015604053623974323, -0.0014381862711161375, -0.0013159671798348427, -0.001193747972138226, -0.0010715288808569312, -0.0009493097313679755, -0.0008270905818790197, -0.0007048714905977249, -0.0005826523411087692, -0.00046043319161981344, -0.0003382140421308577, -0.00021599492174573243, -9.377580136060715e-05, 2.844334812834859e-05, 0.00015066249761730433, 0.00027288158889859915, 0.0003951007383875549, 0.0005173198878765106, 0.0006395390373654664, 0.0007617581868544221, 0.0008839772781357169, 0.0010061964858323336, 0.0011284155771136284, 0.0012506346683949232, 0.001372853759676218, 0.0014950729673728347, 0.0016172920586541295, 0.0017395112663507462, 0.001861730357632041, 0.001983949448913336, 0.0021061687730252743, 0.0022283876314759254, 0.002350606955587864, 0.0024728260468691587]}, "gradients/convs.1.lin_query.weight": {"_type": "histogram", "values": [4.0, 0.0, 0.0, 2.0, 3.0, 4.0, 1.0, 6.0, 4.0, 9.0, 15.0, 7.0, 10.0, 13.0, 22.0, 30.0, 26.0, 20.0, 34.0, 53.0, 82.0, 78.0, 113.0, 126.0, 174.0, 209.0, 266.0, 360.0, 427.0, 547.0, 608.0, 621.0, 537.0, 451.0, 370.0, 306.0, 250.0, 189.0, 120.0, 117.0, 75.0, 71.0, 37.0, 48.0, 33.0, 20.0, 16.0, 15.0, 5.0, 7.0, 3.0, 3.0, 4.0, 2.0, 1.0, 2.0, 3.0, 0.0, 1.0, 0.0, 0.0, 0.0, 0.0, 1.0], "bins": [-0.001953063765540719, -0.0018905190518125892, -0.0018279743380844593, -0.0017654296243563294, -0.0017028849106281996, -0.0016403401969000697, -0.0015777954831719398, -0.00151525076944381, -0.0014527060557156801, -0.0013901613419875503, -0.0013276166282594204, -0.0012650719145312905, -0.0012025272008031607, -0.0011399824870750308, -0.001077437773346901, -0.001014893059618771, -0.0009523483458906412, -0.0008898036321625113, -0.0008272589184343815, -0.0007647142047062516, -0.0007021694909781218, -0.0006396247772499919, -0.000577080063521862, -0.0005145353497937322, -0.0004519906360656023, -0.00038944592233747244, -0.0003269012086093426, -0.0002643564948812127, -0.00020181178115308285, -0.00013926706742495298, -7.672235369682312e-05, -1.4177639968693256e-05, 4.836707375943661e-05, 0.00011091178748756647, 0.00017345650121569633, 0.0002360012149438262, 0.00029854592867195606, 0.0003610906424000859, 0.0004236353561282158, 0.00048618006985634565, 0.0005487247835844755, 0.0006112694973126054, 0.0006738142110407352, 0.0007363589247688651, 0.000798903638496995, 0.0008614483522251248, 0.0009239930659532547, 0.0009865377796813846, 0.0010490824934095144, 0.0011116272071376443, 0.0011741719208657742, 0.001236716634593904, 0.0012992613483220339, 0.0013618060620501637, 0.0014243507757782936, 0.0014868954895064235, 0.0015494402032345533, 0.0016119849169626832, 0.001674529630690813, 0.001737074344418943, 0.0017996190581470728, 0.0018621637718752027, 0.0019247084856033325, 0.001987253315746784, 0.0020497979130595922]}, "gradients/convs.0.lin_skip.bias": {"_type": "histogram", "values": [1.0, 0.0, 1.0, 0.0, 0.0, 1.0, 0.0, 0.0, 1.0, 1.0, 0.0, 2.0, 2.0, 1.0, 2.0, 1.0, 2.0, 0.0, 2.0, 1.0, 0.0, 1.0, 1.0, 2.0, 2.0, 4.0, 5.0, 10.0, 6.0, 5.0, 1.0, 1.0, 3.0, 0.0, 0.0, 1.0, 2.0, 0.0, 0.0, 0.0, 1.0, 1.0, 0.0, 5.0, 0.0, 0.0, 0.0, 2.0, 0.0, 2.0, 2.0, 0.0, 0.0, 2.0, 0.0, 1.0, 0.0, 2.0, 0.0, 0.0, 0.0, 0.0, 0.0, 1.0], "bins": [-0.013757189735770226, -0.013259628787636757, -0.012762067839503288, -0.012264507822692394, -0.011766946874558926, -0.011269385926425457, -0.010771825909614563, -0.010274264961481094, -0.009776704013347626, -0.009279143065214157, -0.008781582117080688, -0.008284022100269794, -0.007786461152136326, -0.007288900204002857, -0.006791339721530676, -0.006293779239058495, -0.005796218290925026, -0.005298657342791557, -0.004801096860319376, -0.004303536377847195, -0.003805975429713726, -0.003308414714410901, -0.002810853999108076, -0.002313293283805251, -0.0018157325685024261, -0.0013181718531996012, -0.0008206111378967762, -0.0003230504225939512, 0.00017451029270887375, 0.0006720710080116987, 0.0011696317233145237, 0.0016671924386173487, 0.0021647531539201736, 0.0026623138692229986, 0.0031598745845258236, 0.0036574352998286486, 0.0041549960151314735, 0.004652556963264942, 0.0051501174457371235, 0.005647677928209305, 0.0061452388763427734, 0.006642799824476242, 0.007140360306948423, 0.007637920789420605, 0.008135481737554073, 0.008633042685687542, 0.009130602702498436, 0.009628163650631905, 0.010125724598765373, 0.010623285546898842, 0.01112084649503231, 0.011618406511843204, 0.012115967459976673, 0.012613528408110142, 0.013111088424921036, 0.013608649373054504, 0.014106210321187973, 0.014603771269321442, 0.01510133221745491, 0.015598892234265804, 0.016096454113721848, 0.016594013199210167, 0.017091574147343636, 0.017589135095477104, 0.018086696043610573]}, "gradients/convs.0.lin_skip.weight": {"_type": "histogram", "values": [1.0, 0.0, 0.0, 0.0, 0.0, 0.0, 0.0, 1.0, 0.0, 0.0, 0.0, 0.0, 0.0, 0.0, 1.0, 1.0, 2.0, 1.0, 0.0, 2.0, 1.0, 0.0, 1.0, 1.0, 3.0, 3.0, 7.0, 8.0, 9.0, 8.0, 8.0, 5.0, 10.0, 14.0, 65.0, 73.0, 14.0, 11.0, 7.0, 7.0, 9.0, 5.0, 7.0, 3.0, 7.0, 2.0, 4.0, 5.0, 2.0, 1.0, 1.0, 5.0, 3.0, 3.0, 0.0, 0.0, 0.0, 0.0, 1.0, 0.0, 0.0, 1.0, 0.0, 1.0], "bins": [-0.015714433044195175, -0.01526572648435831, -0.014817019924521446, -0.014368313364684582, -0.013919606804847717, -0.013470900245010853, -0.013022193685173988, -0.012573488056659698, -0.01212478056550026, -0.011676074005663395, -0.01122736744582653, -0.010778660885989666, -0.010329954326152802, -0.009881247766315937, -0.009432541206479073, -0.008983835577964783, -0.008535129018127918, -0.008086422458291054, -0.007637715898454189, -0.007189009338617325, -0.00674030277878046, -0.006291596218943596, -0.005842890124768019, -0.005394183564931154, -0.00494547700509429, -0.004496770445257425, -0.004048063885420561, -0.00359935755841434, -0.0031506509985774755, -0.002701944438740611, -0.0022532381117343903, -0.0018045315518975258, -0.0013558249920606613, -0.0009071184904314578, -0.0004584119888022542, -9.705545380711555e-06, 0.0004390010144561529, 0.0008877075742930174, 0.0013364139012992382, 0.0017851204611361027, 0.002233827020972967, 0.0026825335808098316, 0.003131240140646696, 0.003579946467652917, 0.004028652794659138, 0.004477359354496002, 0.004926065914332867, 0.005374772474169731, 0.005823479034006596, 0.00627218559384346, 0.0067208921536803246, 0.007169598713517189, 0.0076183052733540535, 0.008067011833190918, 0.008515717461705208, 0.008964424952864647, 0.009413130581378937, 0.009861837141215801, 0.010310543701052666, 0.01075925026088953, 0.011207956820726395, 0.011656663380563259, 0.012105369940400124, 0.012554075568914413, 0.013002783060073853]}, "gradients/convs.0.lin_edge.weight": {"_type": "histogram", "values": [1.0, 0.0, 1.0, 0.0, 0.0, 0.0, 0.0, 0.0, 1.0, 0.0, 0.0, 0.0, 0.0, 0.0, 0.0, 2.0, 1.0, 3.0, 1.0, 5.0, 4.0, 2.0, 5.0, 5.0, 10.0, 4.0, 6.0, 9.0, 9.0, 9.0, 16.0, 15.0, 22.0, 21.0, 10.0, 11.0, 6.0, 5.0, 4.0, 6.0, 6.0, 3.0, 5.0, 4.0, 3.0, 2.0, 4.0, 4.0, 8.0, 2.0, 0.0, 0.0, 1.0, 1.0, 1.0, 1.0, 0.0, 0.0, 0.0, 0.0, 1.0, 1.0, 0.0, 2.0], "bins": [-0.008962634950876236, -0.008682609535753727, -0.008402584120631218, -0.008122559636831284, -0.007842534221708775, -0.0075625088065862656, -0.0072824833914637566, -0.0070024579763412476, -0.006722433026880026, -0.006442407611757517, -0.006162382662296295, -0.005882357247173786, -0.005602331832051277, -0.0053223068825900555, -0.0050422814674675465, -0.004762256518006325, -0.004482231102883816, -0.004202205687761307, -0.003922180738300085, -0.003642155323177576, -0.0033621301408857107, -0.0030821049585938454, -0.0028020795434713364, -0.002522054361179471, -0.0022420291788876057, -0.0019620039965957403, -0.0016819786978885531, -0.001401953399181366, -0.0011219282168895006, -0.0008419030345976353, -0.0005618777358904481, -0.0002818524371832609, -1.8263235688209534e-06, 0.0002781989169307053, 0.0005582241574302316, 0.0008382493979297578, 0.001118274638429284, 0.0013982998207211494, 0.0016783251194283366, 0.001958350418135524, 0.002238375600427389, 0.0025184007827192545, 0.00279842596501112, 0.003078451380133629, 0.003358476562425494, 0.0036385017447173595, 0.0039185271598398685, 0.00419855210930109, 0.004478577524423599, 0.004758602939546108, 0.00503862788900733, 0.005318653304129839, 0.005598678253591061, 0.00587870366871357, 0.006158729083836079, 0.006438754498958588, 0.006718779448419809, 0.006998804863542318, 0.00727882981300354, 0.007558855228126049, 0.007838880643248558, 0.008118905127048492, 0.008398930542171001, 0.00867895595729351, 0.00895898137241602]}, "gradients/convs.0.lin_value.bias": {"_type": "histogram", "values": [1.0, 1.0, 0.0, 0.0, 0.0, 1.0, 0.0, 0.0, 2.0, 0.0, 0.0, 0.0, 1.0, 3.0, 0.0, 3.0, 1.0, 2.0, 1.0, 1.0, 0.0, 2.0, 2.0, 1.0, 1.0, 3.0, 6.0, 10.0, 8.0, 3.0, 0.0, 3.0, 3.0, 0.0, 1.0, 0.0, 2.0, 0.0, 0.0, 0.0, 1.0, 0.0, 2.0, 3.0, 1.0, 1.0, 0.0, 0.0, 2.0, 2.0, 1.0, 0.0, 1.0, 1.0, 0.0, 1.0, 1.0, 1.0, 0.0, 0.0, 0.0, 0.0, 0.0, 1.0], "bins": [-0.013997244648635387, -0.013491475023329258, -0.012985706329345703, -0.012479936704039574, -0.011974167078733444, -0.011468397453427315, -0.010962627828121185, -0.01045685913413763, -0.009951089508831501, -0.009445319883525372, -0.008939551189541817, -0.008433781564235687, -0.007928011938929558, -0.007422242313623428, -0.006916473153978586, -0.006410703994333744, -0.005904934369027615, -0.005399164743721485, -0.004893395584076643, -0.004387626424431801, -0.0038818567991256714, -0.0033760874066501856, -0.0028703180141747, -0.002364548621699214, -0.0018587792292237282, -0.0013530098367482424, -0.0008472404442727566, -0.0003414710517972708, 0.00016429834067821503, 0.0006700677331537008, 0.0011758371256291866, 0.0016816065181046724, 0.0021873749792575836, 0.0026931443717330694, 0.0031989137642085552, 0.003704683156684041, 0.004210452549159527, 0.004716222174465656, 0.005221991334110498, 0.005727760493755341, 0.00623353011906147, 0.0067392997443675995, 0.007245068904012442, 0.007750838063657284, 0.008256607688963413, 0.008762377314269543, 0.009268146008253098, 0.009773915633559227, 0.010279685258865356, 0.010785454884171486, 0.011291224509477615, 0.01179699320346117, 0.0123027628287673, 0.012808532454073429, 0.013314301148056984, 0.013820070773363113, 0.014325840398669243, 0.014831610023975372, 0.015337379649281502, 0.01584314927458763, 0.01634891703724861, 0.01685468666255474, 0.01736045628786087, 0.017866225913167, 0.01837199553847313]}, "gradients/convs.0.lin_value.weight": {"_type": "histogram", "values": [1.0, 0.0, 0.0, 0.0, 0.0, 0.0, 0.0, 1.0, 0.0, 2.0, 2.0, 1.0, 0.0, 2.0, 2.0, 1.0, 2.0, 3.0, 1.0, 0.0, 4.0, 3.0, 4.0, 9.0, 3.0, 1.0, 6.0, 7.0, 7.0, 9.0, 12.0, 20.0, 29.0, 63.0, 13.0, 17.0, 13.0, 8.0, 2.0, 13.0, 5.0, 6.0, 7.0, 3.0, 4.0, 3.0, 4.0, 3.0, 3.0, 4.0, 3.0, 5.0, 1.0, 1.0, 2.0, 1.0, 4.0, 1.0, 0.0, 1.0, 1.0, 0.0, 0.0, 1.0], "bins": [-0.00897631049156189, -0.008706096559762955, -0.008435881696641445, -0.00816566776484251, -0.007895452901721, -0.007625238969922066, -0.0073550245724618435, -0.007084810175001621, -0.006814595777541399, -0.006544381380081177, -0.0062741669826209545, -0.006003952585160732, -0.005733738653361797, -0.005463523790240288, -0.005193309858441353, -0.004923095460981131, -0.004652881063520908, -0.004382666666060686, -0.004112452268600464, -0.0038422381039708853, -0.003572023706510663, -0.003301809309050441, -0.003031595144420862, -0.00276138074696064, -0.0024911663495004177, -0.0022209519520401955, -0.001950737670995295, -0.0016805233899503946, -0.0014103089924901724, -0.0011400945950299501, -0.0008698803139850497, -0.0005996660329401493, -0.00032945163547992706, -5.923729622736573e-05, 0.0002109770430251956, 0.00048119138227775693, 0.0007514057215303183, 0.0010216201189905405, 0.001291834400035441, 0.0015620486810803413, 0.0018322630785405636, 0.002102477476000786, 0.002372691873461008, 0.0026429060380905867, 0.002913120435550809, 0.003183334833011031, 0.0034535489976406097, 0.003723763395100832, 0.003993977792561054, 0.0042641921900212765, 0.004534406587481499, 0.004804620984941721, 0.005074835382401943, 0.005345049314200878, 0.0056152637116611, 0.005885478109121323, 0.006155692506581545, 0.006425906904041767, 0.006696121301501989, 0.006966335698962212, 0.0072365496307611465, 0.007506764493882656, 0.007776978425681591, 0.0080471932888031, 0.008317407220602036]}, "gradients/convs.0.lin_key.bias": {"_type": "histogram", "values": [1.0, 0.0, 0.0, 0.0, 0.0, 0.0, 0.0, 0.0, 0.0, 0.0, 0.0, 0.0, 0.0, 0.0, 0.0, 0.0, 0.0, 0.0, 0.0, 0.0, 0.0, 8.0, 0.0, 2.0, 1.0, 0.0, 1.0, 0.0, 7.0, 1.0, 2.0, 0.0, 7.0, 3.0, 1.0, 10.0, 2.0, 4.0, 0.0, 7.0, 4.0, 0.0, 9.0, 0.0, 0.0, 0.0, 3.0, 0.0, 1.0, 2.0, 0.0, 0.0, 0.0, 2.0, 0.0, 0.0, 1.0, 0.0, 0.0, 0.0, 1.0, 0.0, 0.0, 1.0], "bins": [-2.9103830456733704e-10, -2.828528522513807e-10, -2.7466739993542433e-10, -2.6648194761946797e-10, -2.582964953035116e-10, -2.5011104298755527e-10, -2.419255906715989e-10, -2.3374013835564256e-10, -2.255546860396862e-10, -2.1736923372372985e-10, -2.091837814077735e-10, -2.0099832909181714e-10, -1.9281287677586079e-10, -1.8462742445990443e-10, -1.7644197214394808e-10, -1.6825651982799172e-10, -1.6007106751203537e-10, -1.5188561519607902e-10, -1.4370016288012266e-10, -1.355147105641663e-10, -1.2732925824820995e-10, -1.191438059322536e-10, -1.1095835361629725e-10, -1.0277290130034089e-10, -9.458744898438454e-11, -8.640199666842818e-11, -7.821654435247183e-11, -7.003109203651547e-11, -6.184563972055912e-11, -5.3660187404602766e-11, -4.547473508864641e-11, -3.728928277269006e-11, -2.9103830456733704e-11, -2.091837814077735e-11, -1.2732925824820995e-11, -4.547473508864641e-12, 3.637978807091713e-12, 1.1823431123048067e-11, 2.000888343900442e-11, 2.8194335754960775e-11, 3.637978807091713e-11, 4.4565240386873484e-11, 5.275069270282984e-11, 6.093614501878619e-11, 6.912159733474255e-11, 7.73070496506989e-11, 8.549250196665525e-11, 9.367795428261161e-11, 1.0186340659856796e-10, 1.1004885891452432e-10, 1.1823431123048067e-10, 1.2641976354643703e-10, 1.3460521586239338e-10, 1.4279066817834973e-10, 1.509761204943061e-10, 1.5916157281026244e-10, 1.673470251262188e-10, 1.7553247744217515e-10, 1.837179297581315e-10, 1.9190338207408786e-10, 2.000888343900442e-10, 2.0827428670600057e-10, 2.1645973902195692e-10, 2.2464519133791327e-10, 2.3283064365386963e-10]}, "gradients/convs.0.lin_key.weight": {"_type": "histogram", "values": [1.0, 0.0, 0.0, 0.0, 0.0, 0.0, 0.0, 0.0, 0.0, 0.0, 0.0, 0.0, 0.0, 1.0, 1.0, 2.0, 1.0, 1.0, 2.0, 1.0, 0.0, 1.0, 4.0, 2.0, 5.0, 7.0, 5.0, 9.0, 16.0, 12.0, 12.0, 21.0, 17.0, 17.0, 21.0, 32.0, 10.0, 16.0, 16.0, 12.0, 11.0, 11.0, 13.0, 11.0, 8.0, 7.0, 1.0, 3.0, 3.0, 3.0, 1.0, 3.0, 0.0, 0.0, 0.0, 0.0, 0.0, 2.0, 0.0, 0.0, 1.0, 0.0, 0.0, 1.0], "bins": [-0.0023037579376250505, -0.0022382985334843397, -0.002172839129343629, -0.0021073794923722744, -0.0020419200882315636, -0.0019764606840908527, -0.001911001279950142, -0.0018455417593941092, -0.0017800822388380766, -0.0017146228346973658, -0.001649163314141333, -0.0015837039100006223, -0.0015182443894445896, -0.0014527849853038788, -0.001387325581163168, -0.0013218660606071353, -0.0012564066564664245, -0.0011909472523257136, -0.001125487731769681, -0.0010600283276289701, -0.0009945688070729375, -0.0009291094029322267, -0.0008636499405838549, -0.0007981904782354832, -0.0007327310158871114, -0.0006672715535387397, -0.0006018120911903679, -0.0005363526288419962, -0.0004708931955974549, -0.00040543373324908316, -0.0003399743000045419, -0.00027451483765617013, -0.00020905537530779839, -0.00014359591295942664, -7.813646516297013e-05, -1.267701736651361e-05, 5.2782444981858134e-05, 0.00011824190733022988, 0.00018370134057477117, 0.0002491608029231429, 0.00031462026527151465, 0.0003800797276198864, 0.00044553918996825814, 0.0005109986523166299, 0.0005764580564573407, 0.0006419175770133734, 0.0007073769811540842, 0.000772836443502456, 0.0008382959058508277, 0.0009037553681991994, 0.0009692148305475712, 0.001034674234688282, 0.0011001337552443147, 0.0011655931593850255, 0.0012310526799410582, 0.001296512084081769, 0.0013619714882224798, 0.0014274308923631907, 0.0014928904129192233, 0.0015583498170599341, 0.0016238093376159668, 0.0016892687417566776, 0.0017547281458973885, 0.0018201876664534211, 0.0018856471870094538]}, "gradients/convs.0.lin_query.bias": {"_type": "histogram", "values": [1.0, 0.0, 0.0, 0.0, 0.0, 0.0, 0.0, 0.0, 1.0, 1.0, 2.0, 0.0, 1.0, 0.0, 0.0, 1.0, 0.0, 1.0, 1.0, 1.0, 0.0, 1.0, 2.0, 1.0, 0.0, 1.0, 1.0, 2.0, 1.0, 4.0, 1.0, 2.0, 3.0, 1.0, 3.0, 3.0, 6.0, 4.0, 2.0, 3.0, 2.0, 2.0, 1.0, 3.0, 1.0, 2.0, 3.0, 5.0, 1.0, 1.0, 3.0, 0.0, 0.0, 0.0, 0.0, 1.0, 1.0, 0.0, 0.0, 1.0, 1.0, 0.0, 0.0, 2.0], "bins": [-0.0026923329569399357, -0.002617776393890381, -0.0025432195980101824, -0.0024686630349606276, -0.002394106239080429, -0.0023195496760308743, -0.0022449931129813194, -0.0021704365499317646, -0.002095879754051566, -0.0020213231910020113, -0.0019467663951218128, -0.001872209832072258, -0.0017976531526073813, -0.0017230964731425047, -0.0016485399100929499, -0.0015739832306280732, -0.0014994265511631966, -0.00142486987169832, -0.0013503131922334433, -0.0012757566291838884, -0.0012011999497190118, -0.0011266432702541351, -0.0010520867072045803, -0.0009775300277397037, -0.000902973348274827, -0.0008284166688099504, -0.0007538600475527346, -0.0006793034262955189, -0.0006047467468306422, -0.0005301900673657656, -0.00045563344610854983, -0.0003810768248513341, -0.0003065199125558138, -0.0002319632621947676, -0.0001574066118337214, -8.28499614726752e-05, -8.29331111162901e-06, 6.626333924941719e-05, 0.00014081998961046338, 0.00021537661086767912, 0.00028993329033255577, 0.00036448994069360197, 0.00043904659105464816, 0.0005136032123118639, 0.0005881598917767406, 0.0006627165712416172, 0.0007372731924988329, 0.0008118298137560487, 0.0008863864932209253, 0.000960943172685802, 0.0010354998521506786, 0.0011100564152002335, 0.0011846130946651101, 0.0012591697741299868, 0.0013337263371795416, 0.0014082830166444182, 0.0014828396961092949, 0.0015573963755741715, 0.0016319530550390482, 0.001706509618088603, 0.0017810662975534797, 0.0018556229770183563, 0.0019301795400679111, 0.002004736103117466, 0.0020792928989976645]}, "gradients/convs.0.lin_query.weight": {"_type": "histogram", "values": [1.0, 0.0, 0.0, 0.0, 0.0, 0.0, 0.0, 0.0, 0.0, 0.0, 1.0, 2.0, 1.0, 2.0, 3.0, 2.0, 1.0, 0.0, 6.0, 2.0, 4.0, 7.0, 3.0, 4.0, 1.0, 7.0, 5.0, 9.0, 15.0, 10.0, 7.0, 13.0, 16.0, 11.0, 16.0, 19.0, 14.0, 19.0, 16.0, 16.0, 10.0, 9.0, 12.0, 5.0, 10.0, 2.0, 8.0, 2.0, 3.0, 3.0, 8.0, 5.0, 6.0, 3.0, 1.0, 1.0, 0.0, 0.0, 0.0, 0.0, 0.0, 1.0, 0.0, 2.0], "bins": [-0.0022206048015505075, -0.0021578562445938587, -0.00209510768763721, -0.0020323588978499174, -0.0019696103408932686, -0.0019068617839366198, -0.001844113226979971, -0.001781364670023322, -0.0017186159966513515, -0.0016558674396947026, -0.001593118766322732, -0.0015303702093660831, -0.0014676216524094343, -0.0014048729790374637, -0.0013421244220808148, -0.0012793757487088442, -0.0012166271917521954, -0.0011538786347955465, -0.0010911299614235759, -0.001028381404466927, -0.0009656327893026173, -0.0009028841741383076, -0.0008401356171816587, -0.000777387002017349, -0.0007146383868530393, -0.0006518897716887295, -0.0005891411565244198, -0.000526392599567771, -0.0004636439844034612, -0.0004008953692391515, -0.0003381467831786722, -0.0002753981971181929, -0.00021264946553856134, -0.00014990086492616683, -8.715226431377232e-05, -2.440366370137781e-05, 3.83449369110167e-05, 0.00010109355207532644, 0.00016384213813580573, 0.000226590724196285, 0.00028933933936059475, 0.0003520879545249045, 0.00041483654058538377, 0.00047758512664586306, 0.0005403337418101728, 0.0006030823569744825, 0.0006658309139311314, 0.0007285795290954411, 0.0007913281442597508, 0.0008540767594240606, 0.0009168253745883703, 0.0009795739315450191, 0.001042322488501668, 0.0011050711618736386, 0.0011678197188302875, 0.0012305683922022581, 0.001293316949158907, 0.0013560655061155558, 0.0014188141794875264, 0.0014815627364441752, 0.001544311409816146, 0.0016070599667727947, 0.0016698085237294436, 0.0017325570806860924, 0.001795305754058063]}, "_wandb": {"runtime": 412}}