{"parameters/graph_1convs.0.lin_key.weight": {"_type": "histogram", "values": [1.0, 0.0, 0.0, 1.0, 1.0, 1.0, 1.0, 1.0, 3.0, 1.0, 2.0, 4.0, 2.0, 6.0, 4.0, 7.0, 8.0, 5.0, 6.0, 7.0, 7.0, 5.0, 10.0, 3.0, 4.0, 6.0, 7.0, 9.0, 5.0, 10.0, 7.0, 7.0, 8.0, 7.0, 7.0, 5.0, 13.0, 6.0, 5.0, 9.0, 8.0, 10.0, 10.0, 5.0, 9.0, 5.0, 4.0, 7.0, 7.0, 14.0, 5.0, 4.0, 6.0, 0.0, 8.0, 5.0, 7.0, 2.0, 3.0, 2.0, 0.0, 0.0, 1.0, 1.0], "bins": [-0.7148141860961914, -0.6939523220062256, -0.6730904579162598, -0.652228593826294, -0.6313666701316833, -0.6105048060417175, -0.5896429419517517, -0.5687810778617859, -0.5479191541671753, -0.5270572900772095, -0.5061954259872437, -0.48533353209495544, -0.46447163820266724, -0.4436097741127014, -0.4227479100227356, -0.4018860459327698, -0.38102418184280396, -0.36016231775283813, -0.3393004238605499, -0.3184385597705841, -0.2975766658782959, -0.2767148017883301, -0.25585293769836426, -0.23499105870723724, -0.21412917971611023, -0.19326730072498322, -0.1724054217338562, -0.15154355764389038, -0.13068167865276337, -0.10981979966163635, -0.08895793557167053, -0.06809605658054352, -0.047234177589416504, -0.026372302323579788, -0.0055104270577430725, 0.015351444482803345, 0.03621332347393036, 0.05707520246505737, 0.0779370665550232, 0.09879894554615021, 0.11966082453727722, 0.14052270352840424, 0.16138458251953125, 0.18224644660949707, 0.20310832560062408, 0.2239702045917511, 0.24483206868171692, 0.2656939625740051, 0.28655582666397095, 0.30741769075393677, 0.328279584646225, 0.3491414487361908, 0.370003342628479, 0.3908652067184448, 0.41172707080841064, 0.43258893489837646, 0.4534508287906647, 0.4743126928806305, 0.4951745867729187, 0.5160364508628845, 0.5368983149528503, 0.5577602386474609, 0.5786221027374268, 0.5994839668273926, 0.6203458309173584]}, "_timestamp": 1668813593.6432097, "parameters/graph_1convs.0.lin_key.bias": {"_type": "histogram", "values": [2.0, 3.0, 1.0, 1.0, 1.0, 4.0, 4.0, 0.0, 0.0, 1.0, 2.0, 1.0, 1.0, 1.0, 0.0, 2.0, 1.0, 3.0, 2.0, 3.0, 2.0, 0.0, 2.0, 1.0, 1.0, 2.0, 1.0, 0.0, 1.0, 0.0, 1.0, 0.0, 1.0, 2.0, 1.0, 0.0, 1.0, 1.0, 2.0, 1.0, 0.0, 2.0, 1.0, 1.0, 0.0, 2.0, 0.0, 0.0, 3.0, 2.0, 1.0, 2.0, 0.0, 0.0, 1.0, 0.0, 0.0, 2.0, 1.0, 0.0, 2.0, 4.0, 3.0, 1.0], "bins": [-0.4965122938156128, -0.48111701011657715, -0.4657216966152191, -0.45032641291618347, -0.43493109941482544, -0.4195358157157898, -0.40414053201675415, -0.3887452185153961, -0.3733499348163605, -0.35795465111732483, -0.3425593376159668, -0.32716405391693115, -0.3117687404155731, -0.2963734567165375, -0.28097814321517944, -0.2655828595161438, -0.25018757581710815, -0.23479227721691132, -0.21939697861671448, -0.20400169491767883, -0.188606396317482, -0.17321109771728516, -0.15781579911708832, -0.14242050051689148, -0.12702518701553345, -0.11162988841533661, -0.09623459726572037, -0.08083929866552353, -0.06544400751590729, -0.05004870891571045, -0.03465341031551361, -0.01925811916589737, -0.003862828016281128, 0.011532467789947987, 0.0269277635961771, 0.04232306033372879, 0.05771835520863533, 0.07311365008354187, 0.08850894868373871, 0.10390423983335495, 0.11929953843355179, 0.13469482958316803, 0.15009012818336487, 0.1654854267835617, 0.18088072538375854, 0.1962760090827942, 0.21167132258415222, 0.22706660628318787, 0.2424619048833847, 0.25785720348358154, 0.2732524871826172, 0.2886478006839752, 0.30404308438301086, 0.3194383978843689, 0.33483368158340454, 0.3502289652824402, 0.3656242787837982, 0.38101956248283386, 0.3964148759841919, 0.41181015968322754, 0.42720547318458557, 0.4426007568836212, 0.45799607038497925, 0.4733913540840149, 0.48878663778305054]}, "parameters/graph_1convs.0.lin_query.weight": {"_type": "histogram", "values": [1.0, 0.0, 0.0, 0.0, 0.0, 0.0, 0.0, 0.0, 0.0, 0.0, 0.0, 0.0, 1.0, 1.0, 2.0, 1.0, 0.0, 1.0, 2.0, 1.0, 3.0, 6.0, 5.0, 7.0, 9.0, 7.0, 7.0, 6.0, 8.0, 10.0, 16.0, 12.0, 8.0, 8.0, 5.0, 11.0, 11.0, 7.0, 9.0, 10.0, 9.0, 6.0, 11.0, 12.0, 9.0, 9.0, 11.0, 11.0, 6.0, 8.0, 9.0, 4.0, 7.0, 11.0, 3.0, 8.0, 3.0, 2.0, 1.0, 0.0, 5.0, 2.0, 0.0, 2.0], "bins": [-1.0519050359725952, -1.0248812437057495, -0.997857391834259, -0.9708335995674133, -0.9438098073005676, -0.9167859554290771, -0.8897621631622314, -0.8627383708953857, -0.8357145190238953, -0.8086907267570496, -0.7816668748855591, -0.7546430826187134, -0.7276192903518677, -0.7005954384803772, -0.6735716462135315, -0.646547794342041, -0.6195240020751953, -0.5925002098083496, -0.5654763579368591, -0.5384525656700134, -0.5114287734031677, -0.48440492153167725, -0.45738112926483154, -0.43035730719566345, -0.40333354473114014, -0.37630972266197205, -0.34928593039512634, -0.32226210832595825, -0.29523828625679016, -0.26821446418762207, -0.24119067192077637, -0.21416684985160828, -0.18714302778244019, -0.1601192206144333, -0.1330953985452652, -0.1060715913772583, -0.0790477767586708, -0.05202396214008331, -0.025000154972076416, 0.002023667097091675, 0.029047474265098572, 0.056071288883686066, 0.08309510350227356, 0.11011891067028046, 0.13714271783828735, 0.16416653990745544, 0.19119034707546234, 0.21821416914463043, 0.24523797631263733, 0.2722617983818054, 0.2992855906486511, 0.3263094127178192, 0.3533332347869873, 0.380357027053833, 0.4073808491230011, 0.4344046711921692, 0.4614284634590149, 0.488452285528183, 0.5154761075973511, 0.5424998998641968, 0.5695236921310425, 0.596547544002533, 0.6235713362693787, 0.6505951881408691, 0.6776189804077148]}, "parameters/graph_1convs.0.lin_query.bias": {"_type": "histogram", "values": [2.0, 0.0, 0.0, 0.0, 0.0, 0.0, 0.0, 0.0, 2.0, 2.0, 0.0, 1.0, 0.0, 2.0, 1.0, 3.0, 0.0, 2.0, 3.0, 4.0, 3.0, 0.0, 4.0, 2.0, 0.0, 1.0, 1.0, 1.0, 1.0, 1.0, 2.0, 4.0, 0.0, 1.0, 3.0, 2.0, 1.0, 3.0, 1.0, 3.0, 2.0, 0.0, 1.0, 2.0, 2.0, 3.0, 1.0, 5.0, 0.0, 0.0, 0.0, 0.0, 2.0, 0.0, 1.0, 1.0, 0.0, 1.0, 0.0, 2.0, 0.0, 1.0, 0.0, 1.0], "bins": [-0.5642801523208618, -0.5458172559738159, -0.52735435962677, -0.5088914036750793, -0.49042850732803345, -0.47196561098098755, -0.45350271463394165, -0.43503981828689575, -0.41657689213752747, -0.39811399579048157, -0.3796510696411133, -0.3611881732940674, -0.3427252769470215, -0.3242623507976532, -0.3057994544506073, -0.287336528301239, -0.2688736319541931, -0.2504107356071472, -0.23194780945777893, -0.21348491311073303, -0.19502200186252594, -0.17655909061431885, -0.15809619426727295, -0.13963328301906586, -0.12117037177085876, -0.10270746052265167, -0.08424455672502518, -0.06578165292739868, -0.04731874167919159, -0.028855830430984497, -0.010392926633358002, 0.008069977164268494, 0.02653282880783081, 0.044995736330747604, 0.0634586438536644, 0.0819215476512909, 0.10038445889949799, 0.11884737014770508, 0.13731026649475098, 0.15577317774295807, 0.17423608899116516, 0.19269900023937225, 0.21116191148757935, 0.22962480783462524, 0.24808771908283234, 0.26655063033103943, 0.2850135266780853, 0.3034764528274536, 0.3219393491744995, 0.3404022455215454, 0.3588651716709137, 0.3773280680179596, 0.3957909941673279, 0.4142538905143738, 0.4327167868614197, 0.4511796832084656, 0.46964260935783386, 0.48810550570487976, 0.506568431854248, 0.525031328201294, 0.5434942245483398, 0.5619571208953857, 0.5804200768470764, 0.5988829731941223, 0.6173458695411682]}, "parameters/graph_1convs.0.lin_value.weight": {"_type": "histogram", "values": [1.0, 0.0, 0.0, 1.0, 0.0, 0.0, 1.0, 2.0, 1.0, 2.0, 1.0, 2.0, 3.0, 3.0, 2.0, 5.0, 2.0, 1.0, 1.0, 2.0, 7.0, 8.0, 7.0, 11.0, 5.0, 11.0, 7.0, 6.0, 9.0, 5.0, 6.0, 6.0, 7.0, 12.0, 6.0, 6.0, 4.0, 6.0, 7.0, 4.0, 17.0, 11.0, 8.0, 8.0, 14.0, 7.0, 7.0, 3.0, 14.0, 13.0, 8.0, 5.0, 6.0, 10.0, 8.0, 0.0, 5.0, 3.0, 3.0, 2.0, 0.0, 0.0, 1.0, 1.0], "bins": [-1.1627788543701172, -1.1321953535079956, -1.101611852645874, -1.071028470993042, -1.0404449701309204, -1.0098614692687988, -0.979278028011322, -0.9486945271492004, -0.9181110858917236, -0.887527585029602, -0.8569441437721252, -0.8263606429100037, -0.7957772016525269, -0.7651937007904053, -0.7346102595329285, -0.7040267586708069, -0.6734433174133301, -0.6428598165512085, -0.6122763752937317, -0.5816928744316101, -0.5511094331741333, -0.5205259323120117, -0.4899424910545349, -0.45935899019241333, -0.42877548933029175, -0.39819201827049255, -0.36760854721069336, -0.33702507615089417, -0.30644160509109497, -0.2758581042289734, -0.2452746480703354, -0.2146911770105362, -0.1841077208518982, -0.153524249792099, -0.1229407787322998, -0.09235730022192001, -0.06177382916212082, -0.031190350651741028, -0.0006068795919418335, 0.02997659146785736, 0.060560062527656555, 0.09114353358745575, 0.12172700464725494, 0.15231049060821533, 0.18289396166801453, 0.21347743272781372, 0.24406090378761292, 0.2746443748474121, 0.3052278459072113, 0.3358113169670105, 0.3663947880268097, 0.3969782590866089, 0.4275617301464081, 0.4581452012062073, 0.48872870206832886, 0.5193121433258057, 0.5498956441879272, 0.5804791450500488, 0.6110625863075256, 0.6416460871696472, 0.672229528427124, 0.7028130292892456, 0.7333964705467224, 0.763979971408844, 0.7945634126663208]}, "parameters/graph_1convs.0.lin_value.bias": {"_type": "histogram", "values": [1.0, 0.0, 2.0, 1.0, 0.0, 2.0, 2.0, 1.0, 2.0, 0.0, 1.0, 0.0, 1.0, 1.0, 1.0, 1.0, 1.0, 0.0, 0.0, 1.0, 1.0, 1.0, 0.0, 1.0, 0.0, 3.0, 1.0, 1.0, 1.0, 3.0, 2.0, 2.0, 1.0, 2.0, 0.0, 2.0, 1.0, 1.0, 4.0, 1.0, 3.0, 3.0, 1.0, 1.0, 0.0, 1.0, 0.0, 2.0, 3.0, 0.0, 1.0, 2.0, 1.0, 1.0, 1.0, 1.0, 4.0, 2.0, 2.0, 1.0, 1.0, 1.0, 1.0, 2.0], "bins": [-0.4888613820075989, -0.4739803969860077, -0.4590994119644165, -0.4442184567451477, -0.4293374717235565, -0.41445648670196533, -0.39957550168037415, -0.38469451665878296, -0.3698135316371918, -0.3549325466156006, -0.3400515615940094, -0.3251705765724182, -0.3102896213531494, -0.2954086363315582, -0.28052765130996704, -0.26564666628837585, -0.25076568126678467, -0.23588469624519348, -0.2210037261247635, -0.2061227411031723, -0.19124175608158112, -0.17636078596115112, -0.16147980093955994, -0.14659881591796875, -0.13171786069869995, -0.11683688312768936, -0.10195589810609818, -0.08707492053508759, -0.0721939355134964, -0.05731295794248581, -0.04243198037147522, -0.027550995349884033, -0.012670010328292847, 0.0022109700366854668, 0.01709195040166378, 0.03197292983531952, 0.04685391113162041, 0.061734892427921295, 0.07661586999893188, 0.09149685502052307, 0.10637783259153366, 0.12125881016254425, 0.13613979518413544, 0.15102076530456543, 0.16590175032615662, 0.1807827353477478, 0.195663720369339, 0.21054470539093018, 0.22542567551136017, 0.24030666053295135, 0.25518763065338135, 0.27006861567497253, 0.2849496006965637, 0.2998305857181549, 0.3147115707397461, 0.3295925259590149, 0.3444735109806061, 0.35935449600219727, 0.37423548102378845, 0.38911646604537964, 0.40399742126464844, 0.4188784062862396, 0.4337593913078308, 0.448640376329422, 0.4635213613510132]}, "parameters/graph_1convs.0.lin_edge.weight": {"_type": "histogram", "values": [1.0, 0.0, 0.0, 0.0, 0.0, 0.0, 0.0, 0.0, 0.0, 0.0, 0.0, 0.0, 0.0, 1.0, 0.0, 1.0, 0.0, 0.0, 1.0, 0.0, 2.0, 2.0, 0.0, 1.0, 4.0, 7.0, 6.0, 4.0, 4.0, 9.0, 6.0, 12.0, 8.0, 7.0, 6.0, 5.0, 9.0, 5.0, 7.0, 5.0, 4.0, 9.0, 10.0, 6.0, 7.0, 5.0, 3.0, 3.0, 5.0, 7.0, 10.0, 10.0, 4.0, 6.0, 3.0, 6.0, 5.0, 4.0, 4.0, 4.0, 7.0, 4.0, 1.0, 3.0], "bins": [-1.3449780941009521, -1.3137261867523193, -1.282474160194397, -1.2512222528457642, -1.2199702262878418, -1.188718318939209, -1.1574664115905762, -1.1262143850326538, -1.094962477684021, -1.0637105703353882, -1.0324585437774658, -1.001206636428833, -0.9699546694755554, -0.9387027025222778, -0.907450795173645, -0.8761988282203674, -0.8449468612670898, -0.8136948943138123, -0.7824429273605347, -0.7511910200119019, -0.7199390530586243, -0.6886870861053467, -0.6574351787567139, -0.6261832118034363, -0.5949312448501587, -0.5636792778968811, -0.5324273109436035, -0.5011754035949707, -0.4699234366416931, -0.4386714696884155, -0.4074195325374603, -0.3761675953865051, -0.34491556882858276, -0.3136636018753052, -0.28241166472435, -0.2511597275733948, -0.2199077606201172, -0.1886558085680008, -0.1574038565158844, -0.126151904463768, -0.09489995241165161, -0.06364800035953522, -0.03239604830741882, -0.0011440962553024292, 0.030107855796813965, 0.06135980784893036, 0.09261175990104675, 0.12386371195316315, 0.15511566400527954, 0.18636761605739594, 0.21761956810951233, 0.24887152016162872, 0.2801234722137451, 0.3113754391670227, 0.3426273763179779, 0.3738793134689331, 0.4051312804222107, 0.4363832473754883, 0.4676351845264435, 0.4988871216773987, 0.5301390886306763, 0.5613910555839539, 0.5926430225372314, 0.6238949298858643, 0.6551468968391418]}, "parameters/graph_1convs.0.lin_skip.weight": {"_type": "histogram", "values": [1.0, 0.0, 0.0, 0.0, 0.0, 0.0, 1.0, 1.0, 1.0, 4.0, 0.0, 2.0, 4.0, 3.0, 4.0, 3.0, 6.0, 3.0, 8.0, 3.0, 3.0, 4.0, 3.0, 5.0, 10.0, 11.0, 8.0, 11.0, 4.0, 4.0, 6.0, 6.0, 9.0, 9.0, 5.0, 11.0, 11.0, 13.0, 7.0, 7.0, 8.0, 6.0, 8.0, 11.0, 14.0, 5.0, 5.0, 7.0, 4.0, 9.0, 7.0, 3.0, 4.0, 7.0, 7.0, 8.0, 4.0, 2.0, 5.0, 2.0, 2.0, 3.0, 0.0, 2.0], "bins": [-0.9964937567710876, -0.970960795879364, -0.9454278349876404, -0.9198948740959167, -0.8943619132041931, -0.8688288927078247, -0.8432959318161011, -0.8177629709243774, -0.7922300100326538, -0.7666970491409302, -0.7411640882492065, -0.7156311273574829, -0.6900981664657593, -0.6645652055740356, -0.639032244682312, -0.6134992241859436, -0.5879663228988647, -0.5624333620071411, -0.5369004011154175, -0.5113674402236938, -0.4858344495296478, -0.4603014886379242, -0.43476852774620056, -0.40923553705215454, -0.3837025761604309, -0.3581696152687073, -0.33263665437698364, -0.30710369348526, -0.281570702791214, -0.25603774189949036, -0.23050478100776672, -0.2049718052148819, -0.17943882942199707, -0.15390586853027344, -0.1283728927373886, -0.10283993184566498, -0.07730696350336075, -0.05177399516105652, -0.026241034269332886, -0.0007080584764480591, 0.024824902415275574, 0.0503578707575798, 0.07589083909988403, 0.10142379999160767, 0.1269567608833313, 0.15248973667621613, 0.17802269756793976, 0.20355567336082458, 0.22908863425254822, 0.25462159514427185, 0.2801545560359955, 0.3056875467300415, 0.33122050762176514, 0.35675346851348877, 0.3822864294052124, 0.40781939029693604, 0.43335235118865967, 0.4588853120803833, 0.48441827297210693, 0.5099512338638306, 0.5354841947555542, 0.5610171556472778, 0.5865501165390015, 0.6120831370353699, 0.6376160979270935]}, "parameters/graph_1convs.0.lin_skip.bias": {"_type": "histogram", "values": [3.0, 0.0, 1.0, 1.0, 4.0, 0.0, 3.0, 4.0, 2.0, 0.0, 0.0, 1.0, 4.0, 2.0, 2.0, 2.0, 2.0, 0.0, 3.0, 0.0, 2.0, 2.0, 6.0, 1.0, 2.0, 0.0, 2.0, 1.0, 3.0, 1.0, 1.0, 1.0, 1.0, 2.0, 2.0, 1.0, 1.0, 0.0, 1.0, 1.0, 0.0, 1.0, 3.0, 1.0, 0.0, 0.0, 2.0, 1.0, 1.0, 0.0, 1.0, 2.0, 1.0, 0.0, 1.0, 0.0, 0.0, 1.0, 0.0, 0.0, 0.0, 0.0, 0.0, 1.0], "bins": [-0.5317606925964355, -0.5142480134963989, -0.4967353343963623, -0.4792226552963257, -0.46170997619628906, -0.44419729709625244, -0.4266846477985382, -0.4091719686985016, -0.39165928959846497, -0.37414661049842834, -0.3566339313983917, -0.3391212522983551, -0.32160860300064087, -0.30409592390060425, -0.2865832448005676, -0.269070565700531, -0.2515578866004944, -0.23404520750045776, -0.21653252840042114, -0.19901986420154572, -0.1815071851015091, -0.16399450600147247, -0.14648184180259705, -0.12896916270256042, -0.1114564836025238, -0.09394380450248718, -0.07643113285303116, -0.058918457478284836, -0.04140578210353851, -0.023893103003501892, -0.006380431354045868, 0.011132240295410156, 0.028644979000091553, 0.046157654374837875, 0.0636703297495842, 0.08118300139904022, 0.09869568049907684, 0.11620835959911346, 0.1337210237979889, 0.1512337028980255, 0.16874638199806213, 0.18625906109809875, 0.20377174019813538, 0.2212844043970108, 0.23879708349704742, 0.25630974769592285, 0.2738224267959595, 0.2913351058959961, 0.3088477849960327, 0.32636046409606934, 0.34387314319610596, 0.3613858222961426, 0.3788985013961792, 0.3964111804962158, 0.41392382979393005, 0.4314365088939667, 0.4489491879940033, 0.4664618670940399, 0.48397454619407654, 0.5014871954917908, 0.5189998745918274, 0.536512553691864, 0.5540252327919006, 0.5715379118919373, 0.5890505909919739]}, "parameters/graph_1convs.1.lin_key.weight": {"_type": "histogram", "values": [1.0, 0.0, 0.0, 1.0, 0.0, 1.0, 1.0, 1.0, 4.0, 6.0, 3.0, 12.0, 12.0, 16.0, 27.0, 46.0, 44.0, 75.0, 134.0, 248.0, 317.0, 487.0, 653.0, 775.0, 762.0, 752.0, 639.0, 500.0, 359.0, 234.0, 149.0, 101.0, 60.0, 53.0, 27.0, 9.0, 17.0, 12.0, 11.0, 5.0, 4.0, 0.0, 0.0, 1.0, 1.0, 0.0, 0.0, 0.0, 0.0, 0.0, 0.0, 0.0, 0.0, 0.0, 0.0, 0.0, 0.0, 0.0, 0.0, 0.0, 0.0, 0.0, 0.0, 1.0], "bins": [-1.181700587272644, -1.1337597370147705, -1.085818886756897, -1.0378780364990234, -0.9899371862411499, -0.9419963359832764, -0.8940554261207581, -0.8461145758628845, -0.798173725605011, -0.7502328753471375, -0.7022920250892639, -0.6543511152267456, -0.6064102649688721, -0.5584694147109985, -0.510528564453125, -0.46258771419525146, -0.41464686393737793, -0.3667060136795044, -0.31876516342163086, -0.27082428336143494, -0.2228834331035614, -0.17494258284568787, -0.12700170278549194, -0.07906085252761841, -0.031120002269744873, 0.01682085543870926, 0.06476171314716339, 0.11270257830619812, 0.16064342856407166, 0.2085842788219452, 0.2565251588821411, 0.30446600914001465, 0.35240697860717773, 0.40034782886505127, 0.4482886791229248, 0.4962295591831207, 0.5441703796386719, 0.5921112298965454, 0.6400521397590637, 0.6879929900169373, 0.7359338402748108, 0.7838746905326843, 0.8318155407905579, 0.8797564506530762, 0.9276973009109497, 0.9756381511688232, 1.0235790014266968, 1.0715198516845703, 1.1194607019424438, 1.1674015522003174, 1.215342402458191, 1.2632832527160645, 1.311224102973938, 1.3591649532318115, 1.4071059226989746, 1.4550466537475586, 1.5029876232147217, 1.5509284734725952, 1.5988693237304688, 1.6468101739883423, 1.6947510242462158, 1.7426918745040894, 1.790632724761963, 1.838573694229126, 1.88651442527771]}, "parameters/graph_1convs.1.lin_key.bias": {"_type": "histogram", "values": [1.0, 2.0, 0.0, 0.0, 1.0, 0.0, 2.0, 2.0, 1.0, 3.0, 2.0, 1.0, 2.0, 0.0, 4.0, 2.0, 3.0, 1.0, 3.0, 2.0, 1.0, 4.0, 2.0, 0.0, 0.0, 0.0, 2.0, 2.0, 3.0, 0.0, 2.0, 1.0, 3.0, 1.0, 0.0, 2.0, 1.0, 1.0, 1.0, 1.0, 1.0, 0.0, 2.0, 3.0, 0.0, 0.0, 2.0, 1.0, 1.0, 0.0, 1.0, 0.0, 1.0, 0.0, 2.0, 0.0, 1.0, 2.0, 2.0, 0.0, 0.0, 2.0, 0.0, 1.0], "bins": [-0.11190580576658249, -0.10832875221967697, -0.10475170612335205, -0.10117465257644653, -0.09759760648012161, -0.0940205529332161, -0.09044350683689117, -0.08686645328998566, -0.08328939974308014, -0.07971234619617462, -0.0761353000998497, -0.07255824655294418, -0.06898120045661926, -0.06540414690971375, -0.061827097088098526, -0.05825004726648331, -0.05467299744486809, -0.05109594762325287, -0.04751889780163765, -0.04394184798002243, -0.04036479443311691, -0.036787744611501694, -0.033210694789886475, -0.029633643105626106, -0.026056593284010887, -0.022479543462395668, -0.0189024917781353, -0.01532544195652008, -0.011748391203582287, -0.008171340450644493, -0.004594290629029274, -0.0010172389447689056, 0.0025598108768463135, 0.006136861629784107, 0.009713912382721901, 0.01329096220433712, 0.01686801388859749, 0.020445063710212708, 0.024022113531827927, 0.027599165216088295, 0.031176215037703514, 0.03475326672196388, 0.0383303165435791, 0.04190736636519432, 0.04548441618680954, 0.04906146973371506, 0.05263851583003998, 0.056215569376945496, 0.059792619198560715, 0.06336966902017593, 0.06694672256708145, 0.07052376866340637, 0.07410082221031189, 0.07767787575721741, 0.08125492185354233, 0.08483197540044785, 0.08840902149677277, 0.09198607504367828, 0.0955631211400032, 0.09914017468690872, 0.10271722078323364, 0.10629427433013916, 0.10987132787704468, 0.1134483739733696, 0.11702542752027512]}, "parameters/graph_1convs.1.lin_query.weight": {"_type": "histogram", "values": [1.0, 0.0, 1.0, 2.0, 0.0, 0.0, 2.0, 2.0, 3.0, 3.0, 5.0, 10.0, 12.0, 12.0, 12.0, 20.0, 30.0, 51.0, 68.0, 94.0, 124.0, 207.0, 259.0, 342.0, 485.0, 566.0, 590.0, 618.0, 627.0, 502.0, 451.0, 383.0, 290.0, 223.0, 162.0, 109.0, 88.0, 64.0, 48.0, 27.0, 18.0, 15.0, 12.0, 4.0, 5.0, 1.0, 0.0, 2.0, 2.0, 3.0, 1.0, 3.0, 0.0, 0.0, 1.0, 0.0, 0.0, 0.0, 0.0, 0.0, 0.0, 0.0, 0.0, 1.0], "bins": [-1.0034464597702026, -0.9672209024429321, -0.9309953451156616, -0.8947697877883911, -0.8585442304611206, -0.8223186731338501, -0.7860931158065796, -0.7498675584793091, -0.7136420011520386, -0.6774164438247681, -0.6411908864974976, -0.604965329170227, -0.5687397718429565, -0.532514214515686, -0.49628862738609314, -0.46006307005882263, -0.42383748292922974, -0.38761192560195923, -0.3513863682746887, -0.3151608109474182, -0.2789352536201477, -0.242709681391716, -0.2064841091632843, -0.1702585518360138, -0.1340329945087433, -0.09780743718147278, -0.061581872403621674, -0.02535630762577057, 0.010869249701499939, 0.04709480702877045, 0.08332037925720215, 0.11954593658447266, 0.15577149391174316, 0.19199705123901367, 0.22822260856628418, 0.2644481658935547, 0.3006737232208252, 0.3368992805480957, 0.3731248676776886, 0.4093504250049591, 0.4455759823322296, 0.4818015396595001, 0.518027126789093, 0.5542526841163635, 0.590478241443634, 0.6267037987709045, 0.662929356098175, 0.6991549134254456, 0.7353804707527161, 0.7716060280799866, 0.8078315854072571, 0.8440571427345276, 0.8802827000617981, 0.9165082573890686, 0.9527338743209839, 0.9889594316482544, 1.025184988975525, 1.0614105463027954, 1.097636103630066, 1.1338616609573364, 1.170087218284607, 1.2063127756118774, 1.242538332939148, 1.2787638902664185, 1.314989447593689]}, "parameters/graph_1convs.1.lin_query.bias": {"_type": "histogram", "values": [1.0, 1.0, 1.0, 0.0, 1.0, 1.0, 1.0, 1.0, 2.0, 2.0, 2.0, 2.0, 1.0, 1.0, 1.0, 1.0, 0.0, 0.0, 2.0, 1.0, 1.0, 1.0, 0.0, 4.0, 0.0, 2.0, 2.0, 4.0, 5.0, 0.0, 1.0, 3.0, 2.0, 1.0, 0.0, 1.0, 2.0, 3.0, 0.0, 0.0, 1.0, 1.0, 3.0, 0.0, 2.0, 0.0, 1.0, 3.0, 1.0, 1.0, 0.0, 4.0, 2.0, 2.0, 2.0, 1.0, 2.0, 0.0, 0.0, 0.0, 0.0, 0.0, 0.0, 1.0], "bins": [-0.3144916594028473, -0.3044426441192627, -0.2943936586380005, -0.2843446433544159, -0.2742956280708313, -0.2642466425895691, -0.2541976273059845, -0.2441486269235611, -0.2340996265411377, -0.2240506261587143, -0.2140016257762909, -0.2039526104927063, -0.1939036101102829, -0.1838546097278595, -0.1738055944442749, -0.1637565940618515, -0.1537075936794281, -0.1436585932970047, -0.1336095929145813, -0.1235605776309967, -0.1135115772485733, -0.1034625768661499, -0.0934135690331459, -0.0833645612001419, -0.0733155608177185, -0.0632665604352951, -0.05321755260229111, -0.04316854849457741, -0.03311954438686371, -0.02307054027915001, -0.01302153617143631, -0.002972528338432312, 0.007076442241668701, 0.0171254463493824, 0.0271744504570961, 0.0372234545648098, 0.0472724586725235, 0.0573214627802372, 0.0673704668879509, 0.0774194747209549, 0.0874684751033783, 0.0975174754858017, 0.1075664833188057, 0.11761549115180969, 0.1276644915342331, 0.1377134919166565, 0.1477625072002411, 0.1578115075826645, 0.1678605079650879, 0.1779095083475113, 0.1879585087299347, 0.1980075240135193, 0.2080565243959427, 0.2181055247783661, 0.22815454006195068, 0.23820354044437408, 0.24825254082679749, 0.2583015561103821, 0.2683505415916443, 0.2783995568752289, 0.2884485721588135, 0.2984975576400757, 0.3085465729236603, 0.3185955882072449, 0.3286445736885071]}, "parameters/graph_1convs.1.lin_value.weight": {"_type": "histogram", "values": [1.0, 0.0, 2.0, 1.0, 1.0, 2.0, 1.0, 3.0, 3.0, 7.0, 5.0, 5.0, 4.0, 7.0, 6.0, 16.0, 17.0, 25.0, 26.0, 32.0, 33.0, 44.0, 86.0, 85.0, 105.0, 137.0, 235.0, 263.0, 308.0, 394.0, 526.0, 578.0, 574.0, 680.0, 619.0, 479.0, 389.0, 263.0, 188.0, 117.0, 92.0, 64.0, 38.0, 35.0, 21.0, 16.0, 9.0, 6.0, 4.0, 2.0, 2.0, 1.0, 1.0, 0.0, 1.0, 0.0, 0.0, 1.0, 0.0, 0.0, 0.0, 0.0, 0.0, 1.0], "bins": [-1.3138357400894165, -1.2740062475204468, -1.2341768741607666, -1.1943473815917969, -1.1545178890228271, -1.1146883964538574, -1.0748590230941772, -1.0350295305252075, -0.9952000379562378, -0.9553706049919128, -0.9155411124229431, -0.8757116794586182, -0.8358821868896484, -0.7960527539253235, -0.7562233209609985, -0.7163938283920288, -0.6765643954277039, -0.6367349624633789, -0.5969054698944092, -0.5570760369300842, -0.5172465443611145, -0.47741711139678955, -0.4375876486301422, -0.3977581858634949, -0.35792872309684753, -0.3180992603302002, -0.27826979756355286, -0.2384403496980667, -0.19861088693141937, -0.15878142416477203, -0.11895197629928589, -0.07912251353263855, -0.03929305076599121, 0.0005364082753658295, 0.04036586731672287, 0.08019532263278961, 0.12002478539943695, 0.1598542481660843, 0.19968369603157043, 0.23951315879821777, 0.2793426215648651, 0.31917208433151245, 0.3590015470981598, 0.39883100986480713, 0.4386604428291321, 0.4784899353981018, 0.5183193683624268, 0.5581488609313965, 0.5979782938957214, 0.6378077268600464, 0.6776372194290161, 0.7174666523933411, 0.7572961449623108, 0.7971255779266357, 0.8369550704956055, 0.8767845034599304, 0.9166139364242554, 0.9564433693885803, 0.99627286195755, 1.036102294921875, 1.0759317874908447, 1.1157612800598145, 1.1555906534194946, 1.1954201459884644, 1.235249638557434]}, "parameters/graph_1convs.1.lin_value.bias": {"_type": "histogram", "values": [1.0, 0.0, 0.0, 0.0, 0.0, 0.0, 0.0, 1.0, 0.0, 0.0, 0.0, 0.0, 0.0, 0.0, 1.0, 0.0, 0.0, 0.0, 0.0, 0.0, 1.0, 0.0, 1.0, 0.0, 0.0, 2.0, 2.0, 0.0, 1.0, 1.0, 0.0, 2.0, 2.0, 3.0, 1.0, 1.0, 3.0, 2.0, 1.0, 4.0, 2.0, 4.0, 3.0, 2.0, 1.0, 7.0, 1.0, 3.0, 6.0, 1.0, 1.0, 6.0, 2.0, 2.0, 1.0, 2.0, 1.0, 1.0, 0.0, 2.0, 1.0, 0.0, 1.0, 1.0], "bins": [-0.3387661576271057, -0.3310275077819824, -0.32328885793685913, -0.31555017828941345, -0.30781152844429016, -0.30007287859916687, -0.2923342287540436, -0.2845955491065979, -0.2768568992614746, -0.2691182494163513, -0.261379599571228, -0.25364091992378235, -0.24590227007865906, -0.23816362023353577, -0.23042497038841248, -0.222686305642128, -0.2149476557970047, -0.2072090059518814, -0.19947034120559692, -0.19173169136047363, -0.18399302661418915, -0.17625437676906586, -0.16851571202278137, -0.16077706217765808, -0.1530384123325348, -0.1452997624874115, -0.13756109774112701, -0.12982244789600372, -0.12208378314971924, -0.11434513330459595, -0.10660647600889206, -0.09886781871318817, -0.09112916886806488, -0.08339051157236099, -0.0756518542766571, -0.06791320443153381, -0.06017454341053963, -0.05243588611483574, -0.04469723254442215, -0.03695857524871826, -0.029219917953014374, -0.021481260657310486, -0.013742605224251747, -0.006003949791193008, 0.0017347075045108795, 0.009473364800214767, 0.017212018370628357, 0.024950675666332245, 0.03268933296203613, 0.04042799025774002, 0.04816664755344391, 0.0559053011238575, 0.06364396214485168, 0.07138261198997498, 0.07912126928567886, 0.08685992658138275, 0.09459858387708664, 0.10233724117279053, 0.11007589846849442, 0.1178145557641983, 0.1255532056093216, 0.13329187035560608, 0.14103052020072937, 0.14876917004585266, 0.15650783479213715]}, "parameters/graph_1convs.1.lin_edge.weight": {"_type": "histogram", "values": [1.0, 0.0, 1.0, 1.0, 1.0, 0.0, 2.0, 4.0, 3.0, 1.0, 4.0, 4.0, 4.0, 4.0, 2.0, 4.0, 8.0, 2.0, 6.0, 3.0, 7.0, 3.0, 7.0, 6.0, 7.0, 6.0, 6.0, 2.0, 0.0, 8.0, 5.0, 5.0, 6.0, 7.0, 0.0, 6.0, 4.0, 5.0, 2.0, 2.0, 5.0, 5.0, 7.0, 5.0, 4.0, 6.0, 2.0, 3.0, 7.0, 10.0, 2.0, 0.0, 11.0, 4.0, 3.0, 1.0, 6.0, 2.0, 4.0, 2.0, 1.0, 1.0, 1.0, 2.0], "bins": [-0.8627304434776306, -0.8378108739852905, -0.8128913044929504, -0.7879717350006104, -0.7630521655082703, -0.7381325960159302, -0.7132130861282349, -0.68829345703125, -0.6633739471435547, -0.6384543776512146, -0.6135348081588745, -0.5886152386665344, -0.5636956691741943, -0.5387760996818542, -0.5138565301895142, -0.48893699049949646, -0.464017391204834, -0.4390978217124939, -0.4141782522201538, -0.3892586827278137, -0.36433911323547363, -0.33941954374313354, -0.31450000405311584, -0.28958043456077576, -0.26466086506843567, -0.23974129557609558, -0.2148217260837555, -0.1899021714925766, -0.1649826020002365, -0.14006303250789642, -0.11514347791671753, -0.09022390842437744, -0.06530433893203735, -0.040384773164987564, -0.015465207397937775, 0.009454354643821716, 0.034373924136161804, 0.05929349362850189, 0.08421304821968079, 0.10913261771202087, 0.13405218720436096, 0.15897175669670105, 0.18389132618904114, 0.20881088078022003, 0.23373045027256012, 0.258650004863739, 0.2835695743560791, 0.3084891438484192, 0.3334087133407593, 0.35832828283309937, 0.38324785232543945, 0.40816742181777954, 0.43308699131011963, 0.4580065608024597, 0.4829261004924774, 0.5078456401824951, 0.53276526927948, 0.5576848387718201, 0.5826044082641602, 0.6075239777565002, 0.6324435472488403, 0.6573631167411804, 0.6822826862335205, 0.7072021961212158, 0.7321217656135559]}, "parameters/graph_1convs.1.lin_skip.weight": {"_type": "histogram", "values": [1.0, 0.0, 0.0, 0.0, 0.0, 0.0, 0.0, 0.0, 0.0, 0.0, 0.0, 3.0, 1.0, 2.0, 1.0, 2.0, 2.0, 1.0, 3.0, 7.0, 13.0, 10.0, 9.0, 18.0, 27.0, 26.0, 32.0, 43.0, 43.0, 77.0, 85.0, 99.0, 145.0, 173.0, 264.0, 287.0, 376.0, 499.0, 550.0, 566.0, 598.0, 570.0, 496.0, 444.0, 323.0, 249.0, 166.0, 121.0, 66.0, 53.0, 27.0, 31.0, 13.0, 10.0, 11.0, 4.0, 1.0, 2.0, 3.0, 1.0, 1.0, 1.0, 3.0, 2.0], "bins": [-1.490970492362976, -1.4541857242584229, -1.4174010753631592, -1.380616307258606, -1.3438315391540527, -1.307046890258789, -1.2702621221542358, -1.2334773540496826, -1.196692705154419, -1.1599079370498657, -1.123123288154602, -1.0863385200500488, -1.0495537519454956, -1.012769103050232, -0.9759843349456787, -0.9391996264457703, -0.902414858341217, -0.8656301498413086, -0.8288453817367554, -0.7920606732368469, -0.7552759647369385, -0.7184911966323853, -0.6817064881324768, -0.6449217796325684, -0.6081370115280151, -0.5713523030281067, -0.5345675349235535, -0.497782826423645, -0.4609981179237366, -0.42421337962150574, -0.3874286413192749, -0.35064393281936646, -0.31385916471481323, -0.2770744264125824, -0.24028971791267395, -0.20350497961044312, -0.16672025620937347, -0.12993553280830383, -0.093150794506073, -0.05636608600616455, -0.019581347703933716, 0.017203379422426224, 0.05398810654878616, 0.0907728374004364, 0.12755756080150604, 0.16434228420257568, 0.20112702250480652, 0.23791173100471497, 0.2746964693069458, 0.31148120760917664, 0.3482659161090851, 0.3850506544113159, 0.42183536291122437, 0.4586201012134552, 0.49540483951568604, 0.5321895480155945, 0.5689742565155029, 0.6057589650154114, 0.6425437331199646, 0.679328441619873, 0.7161131501197815, 0.7528978586196899, 0.7896826267242432, 0.8264673352241516, 0.8632521033287048]}, "parameters/graph_1convs.1.lin_skip.bias": {"_type": "histogram", "values": [1.0, 0.0, 0.0, 0.0, 0.0, 0.0, 0.0, 0.0, 0.0, 0.0, 0.0, 0.0, 0.0, 0.0, 0.0, 0.0, 1.0, 0.0, 1.0, 0.0, 1.0, 0.0, 0.0, 2.0, 1.0, 1.0, 4.0, 1.0, 4.0, 2.0, 4.0, 1.0, 3.0, 1.0, 3.0, 4.0, 2.0, 2.0, 1.0, 4.0, 5.0, 3.0, 3.0, 1.0, 2.0, 1.0, 3.0, 2.0, 1.0, 1.0, 2.0, 2.0, 3.0, 1.0, 0.0, 1.0, 3.0, 0.0, 1.0, 1.0, 0.0, 0.0, 0.0, 1.0], "bins": [-0.3436740040779114, -0.334634006023407, -0.3255940079689026, -0.3165540099143982, -0.3075139820575714, -0.298473984003067, -0.2894339859485626, -0.2803939878940582, -0.27135398983955383, -0.26231399178504944, -0.25327399373054504, -0.24423398077487946, -0.23519398272037506, -0.22615396976470947, -0.21711397171020508, -0.20807397365570068, -0.1990339607000351, -0.1899939626455307, -0.1809539496898651, -0.17191395163536072, -0.16287395358085632, -0.15383395552635193, -0.14479394257068634, -0.13575394451618195, -0.12671393156051636, -0.11767392605543137, -0.10863392800092697, -0.09959392249584198, -0.09055392444133759, -0.0815139189362526, -0.0724739134311676, -0.06343391537666321, -0.054393917322158813, -0.04535391554236412, -0.03631391376256943, -0.027273908257484436, -0.018233906477689743, -0.00919390469789505, -0.0001538991928100586, 0.008886098861694336, 0.017926104366779327, 0.02696610614657402, 0.03600610792636871, 0.045046113431453705, 0.0540861152112484, 0.06312611699104309, 0.07216612249612808, 0.08120612055063248, 0.09024612605571747, 0.09928613156080246, 0.10832612961530685, 0.11736613512039185, 0.12640613317489624, 0.13544613122940063, 0.14448614418506622, 0.15352614223957062, 0.1625661551952362, 0.1716061532497406, 0.1806461662054062, 0.18968616425991058, 0.19872616231441498, 0.20776617527008057, 0.21680617332458496, 0.22584617137908936, 0.23488616943359375]}, "parameters/graph_1aggr.lstm.weight_ih_l0": {"_type": "histogram", "values": [1.0, 0.0, 0.0, 0.0, 0.0, 2.0, 0.0, 1.0, 2.0, 1.0, 2.0, 3.0, 3.0, 3.0, 1.0, 6.0, 9.0, 4.0, 9.0, 24.0, 16.0, 27.0, 38.0, 51.0, 67.0, 93.0, 135.0, 182.0, 277.0, 414.0, 613.0, 912.0, 1471.0, 2254.0, 3674.0, 5669.0, 7233.0, 7718.0, 6935.0, 5302.0, 3364.0, 2028.0, 1259.0, 831.0, 558.0, 393.0, 262.0, 186.0, 133.0, 88.0, 74.0, 44.0, 35.0, 27.0, 17.0, 15.0, 4.0, 6.0, 5.0, 1.0, 2.0, 1.0, 1.0, 2.0], "bins": [-2.257225751876831, -2.1972460746765137, -2.1372663974761963, -2.077286720275879, -2.0173070430755615, -1.9573273658752441, -1.8973476886749268, -1.8373680114746094, -1.777388334274292, -1.7174086570739746, -1.6574289798736572, -1.5974493026733398, -1.5374696254730225, -1.477489948272705, -1.4175102710723877, -1.3575305938720703, -1.2975510358810425, -1.237571358680725, -1.1775916814804077, -1.1176120042800903, -1.057632327079773, -0.9976526498794556, -0.937673032283783, -0.8776933550834656, -0.8177136778831482, -0.7577340006828308, -0.6977543234825134, -0.6377747058868408, -0.5777950286865234, -0.517815351486206, -0.45783567428588867, -0.3978559970855713, -0.33787620067596436, -0.277896523475647, -0.21791686117649078, -0.1579371988773346, -0.09795752167701721, -0.03797784447669983, 0.022001802921295166, 0.08198148012161255, 0.14196115732192993, 0.20194083452224731, 0.2619205117225647, 0.3219001591205597, 0.3818798363208771, 0.44185951352119446, 0.5018391609191895, 0.5618188381195068, 0.6217985153198242, 0.6817781925201416, 0.741757869720459, 0.8017375469207764, 0.8617172241210938, 0.9216969013214111, 0.9816765189170837, 1.041656255722046, 1.1016359329223633, 1.1616156101226807, 1.221595287322998, 1.2815749645233154, 1.3415546417236328, 1.4015343189239502, 1.4615139961242676, 1.521493673324585, 1.5814732313156128]}, "parameters/graph_1aggr.lstm.weight_hh_l0": {"_type": "histogram", "values": [1.0, 1.0, 2.0, 2.0, 1.0, 4.0, 2.0, 5.0, 5.0, 12.0, 19.0, 26.0, 18.0, 47.0, 40.0, 64.0, 112.0, 143.0, 201.0, 227.0, 364.0, 469.0, 695.0, 940.0, 1336.0, 1961.0, 2330.0, 2786.0, 2688.0, 2732.0, 2393.0, 1777.0, 1400.0, 968.0, 752.0, 469.0, 366.0, 238.0, 171.0, 121.0, 89.0, 64.0, 42.0, 50.0, 29.0, 28.0, 15.0, 7.0, 8.0, 2.0, 6.0, 3.0, 1.0, 2.0, 1.0, 3.0, 2.0, 1.0, 1.0, 0.0, 0.0, 1.0, 0.0, 1.0], "bins": [-1.1145986318588257, -1.0754485130310059, -1.0362985134124756, -0.9971484541893005, -0.9579983949661255, -0.9188483357429504, -0.8796982765197754, -0.8405481576919556, -0.8013981580734253, -0.7622480988502502, -0.7230980396270752, -0.6839479804039001, -0.6447979211807251, -0.60564786195755, -0.566497802734375, -0.5273476839065552, -0.4881976246833801, -0.4490475654602051, -0.40989750623703003, -0.370747447013855, -0.33159738779067993, -0.2924473285675049, -0.25329723954200745, -0.2141471803188324, -0.17499712109565735, -0.1358470618724823, -0.09669699519872665, -0.05754692852497101, -0.01839686930179596, 0.02075318992137909, 0.05990326404571533, 0.09905332326889038, 0.13820338249206543, 0.17735344171524048, 0.21650350093841553, 0.2556535601615906, 0.2948036193847656, 0.3339536786079407, 0.3731037676334381, 0.41225382685661316, 0.4514038860797882, 0.49055394530296326, 0.5297040343284607, 0.5688540935516357, 0.6080041527748108, 0.6471542119979858, 0.6863042712211609, 0.7254543304443359, 0.764604389667511, 0.803754448890686, 0.8429045081138611, 0.8820545673370361, 0.9212046265602112, 0.9603546857833862, 0.999504804611206, 1.0386548042297363, 1.0778049230575562, 1.116955041885376, 1.1561050415039062, 1.195255160331726, 1.2344051599502563, 1.2735552787780762, 1.3127052783966064, 1.3518553972244263, 1.3910053968429565]}, "parameters/graph_1aggr.lstm.bias_ih_l0": {"_type": "histogram", "values": [1.0, 1.0, 1.0, 1.0, 1.0, 2.0, 1.0, 1.0, 1.0, 5.0, 5.0, 3.0, 6.0, 8.0, 6.0, 5.0, 7.0, 8.0, 11.0, 7.0, 7.0, 13.0, 12.0, 9.0, 13.0, 10.0, 7.0, 9.0, 13.0, 10.0, 11.0, 12.0, 8.0, 5.0, 15.0, 7.0, 11.0, 12.0, 6.0, 7.0, 5.0, 14.0, 5.0, 2.0, 1.0, 2.0, 0.0, 4.0, 1.0, 3.0, 1.0, 2.0, 1.0, 2.0, 1.0, 0.0, 1.0, 0.0, 0.0, 0.0, 0.0, 0.0, 0.0, 1.0], "bins": [-0.21892313659191132, -0.21211791038513184, -0.20531269907951355, -0.19850747287273407, -0.19170226156711578, -0.1848970353603363, -0.17809182405471802, -0.17128659784793854, -0.16448137164115906, -0.15767614543437958, -0.1508709341287613, -0.1440657079219818, -0.13726049661636353, -0.13045527040958405, -0.12365005165338516, -0.11684483289718628, -0.110039621591568, -0.10323440283536911, -0.09642918407917023, -0.08962395787239075, -0.08281874656677246, -0.07601352035999298, -0.0692083016037941, -0.062403082847595215, -0.05559786409139633, -0.04879264533519745, -0.041987426578998566, -0.035182204097509384, -0.0283769853413105, -0.021571766585111618, -0.014766544103622437, -0.007961325347423553, -0.0011561065912246704, 0.005649113096296787, 0.012454332783818245, 0.019259553402662277, 0.02606477215886116, 0.03286999091506004, 0.039675213396549225, 0.04648043215274811, 0.05328565090894699, 0.060090869665145874, 0.06689608842134476, 0.07370130717754364, 0.08050653338432312, 0.0873117446899414, 0.09411697089672089, 0.10092218965291977, 0.10772740840911865, 0.11453262716531754, 0.12133784592151642, 0.1281430721282959, 0.13494828343391418, 0.14175350964069366, 0.14855873584747314, 0.15536394715309143, 0.16216915845870972, 0.1689743846654892, 0.17577959597110748, 0.18258482217788696, 0.18939003348350525, 0.19619525969028473, 0.2030004858970642, 0.2098056972026825, 0.21661092340946198]}, "parameters/graph_1aggr.lstm.bias_hh_l0": {"_type": "histogram", "values": [1.0, 0.0, 1.0, 0.0, 1.0, 1.0, 0.0, 1.0, 1.0, 1.0, 0.0, 1.0, 1.0, 4.0, 4.0, 6.0, 7.0, 6.0, 3.0, 3.0, 6.0, 9.0, 11.0, 11.0, 10.0, 8.0, 10.0, 14.0, 13.0, 8.0, 8.0, 8.0, 7.0, 12.0, 7.0, 7.0, 11.0, 16.0, 12.0, 9.0, 15.0, 9.0, 6.0, 12.0, 10.0, 7.0, 4.0, 7.0, 5.0, 3.0, 2.0, 1.0, 0.0, 1.0, 1.0, 1.0, 0.0, 0.0, 0.0, 0.0, 0.0, 0.0, 0.0, 1.0], "bins": [-0.2639530897140503, -0.256676584482193, -0.2494000792503357, -0.2421235740184784, -0.2348470687866211, -0.2275705635547638, -0.2202940583229065, -0.2130175530910492, -0.2057410478591919, -0.1984645426273346, -0.1911880373954773, -0.18391153216362, -0.1766350269317627, -0.1693585216999054, -0.1620820164680481, -0.1548055112361908, -0.1475290060043335, -0.1402525007724762, -0.1329759955406189, -0.1256994903087616, -0.1184229850769043, -0.111146479845047, -0.1038699746131897, -0.0965934693813324, -0.0893169641494751, -0.0820404589176178, -0.0747639536857605, -0.0674874484539032, -0.0602109432220459, -0.0529344379901886, -0.0456579327583313, -0.038381427526474, -0.031104907393455505, -0.023828402161598206, -0.016551896929740906, -0.009275391697883606, -0.001998886466026306, 0.005277618765830994, 0.012554123997688293, 0.019830629229545593, 0.027107134461402893, 0.03438363969326019, 0.04166014492511749, 0.04893665015697479, 0.05621315538883209, 0.06348966062068939, 0.07076616585254669, 0.07804267108440399, 0.08531917631626129, 0.09259568154811859, 0.09987218677997589, 0.10714869201183319, 0.11442519724369049, 0.12170170247554779, 0.1289782077074051, 0.1362547129392624, 0.1435312181711197, 0.150807723402977, 0.1580842286348343, 0.1653607338666916, 0.1726372390985489, 0.1799137443304062, 0.1871902495622635, 0.1944667547941208, 0.2017432600259781]}, "parameters/graph_1linears.0.weight": {"_type": "histogram", "values": [1.0, 0.0, 0.0, 0.0, 0.0, 0.0, 0.0, 1.0, 0.0, 2.0, 0.0, 0.0, 0.0, 0.0, 3.0, 3.0, 1.0, 14.0, 14.0, 12.0, 25.0, 35.0, 59.0, 101.0, 143.0, 239.0, 355.0, 572.0, 882.0, 1398.0, 1868.0, 2213.0, 2436.0, 2562.0, 2179.0, 1718.0, 1336.0, 887.0, 612.0, 403.0, 273.0, 143.0, 85.0, 51.0, 42.0, 22.0, 14.0, 11.0, 4.0, 5.0, 4.0, 0.0, 4.0, 1.0, 0.0, 1.0, 0.0, 1.0, 0.0, 0.0, 0.0, 0.0, 0.0, 1.0], "bins": [-0.9864454865455627, -0.9568752646446228, -0.9273050427436829, -0.8977347612380981, -0.8681645393371582, -0.8385943174362183, -0.8090240955352783, -0.7794538736343384, -0.7498835921287537, -0.7203133702278137, -0.6907431483268738, -0.6611728668212891, -0.6316026449203491, -0.6020324230194092, -0.5724622011184692, -0.5428919792175293, -0.5133217573165894, -0.4837515354156494, -0.4541812837123871, -0.42461106181144714, -0.3950408101081848, -0.3654705882072449, -0.33590036630630493, -0.3063301146030426, -0.2767598628997803, -0.24718962609767914, -0.217619389295578, -0.18804916739463806, -0.15847891569137573, -0.1289086937904358, -0.09933845698833466, -0.06976822018623352, -0.04019796848297119, -0.010627733543515205, 0.01894250139594078, 0.04851273447275162, 0.07808297127485275, 0.10765320062637329, 0.13722343742847443, 0.16679367423057556, 0.1963639110326767, 0.22593414783477783, 0.2555043697357178, 0.2850746214389801, 0.31464484333992004, 0.3442150950431824, 0.3737853169441223, 0.40335553884506226, 0.4329257905483246, 0.4624960124492645, 0.49206626415252686, 0.5216364860534668, 0.5512067079544067, 0.5807769298553467, 0.6103472113609314, 0.6399174332618713, 0.6694876551628113, 0.6990578770637512, 0.7286280989646912, 0.7581983804702759, 0.7877686023712158, 0.8173388242721558, 0.8469090461730957, 0.8764792680740356, 0.9060495495796204]}, "parameters/graph_1linears.0.bias": {"_type": "histogram", "values": [1.0, 0.0, 0.0, 0.0, 0.0, 1.0, 1.0, 0.0, 0.0, 0.0, 1.0, 1.0, 1.0, 2.0, 0.0, 0.0, 1.0, 1.0, 0.0, 3.0, 4.0, 2.0, 1.0, 0.0, 0.0, 2.0, 0.0, 3.0, 1.0, 3.0, 2.0, 5.0, 4.0, 2.0, 3.0, 4.0, 1.0, 4.0, 5.0, 5.0, 8.0, 5.0, 5.0, 6.0, 2.0, 5.0, 3.0, 2.0, 1.0, 1.0, 2.0, 3.0, 5.0, 2.0, 2.0, 2.0, 3.0, 1.0, 0.0, 4.0, 0.0, 0.0, 1.0, 1.0], "bins": [-0.2475443184375763, -0.24150842428207397, -0.23547253012657166, -0.22943663597106934, -0.22340074181556702, -0.2173648476600647, -0.21132895350456238, -0.20529304444789886, -0.19925715029239655, -0.19322125613689423, -0.1871853619813919, -0.1811494678258896, -0.17511357367038727, -0.16907766461372375, -0.16304177045822144, -0.15700587630271912, -0.1509699821472168, -0.14493408799171448, -0.13889819383621216, -0.13286229968070984, -0.12682640552520752, -0.1207905039191246, -0.11475460976362228, -0.10871870815753937, -0.10268282890319824, -0.09664693474769592, -0.0906110405921936, -0.08457514643669128, -0.07853924483060837, -0.07250335067510605, -0.06646745651960373, -0.06043155863881111, -0.054395660758018494, -0.048359766602516174, -0.042323868721723557, -0.03628797456622124, -0.03025207854807377, -0.0242161825299263, -0.01818028837442398, -0.012144390493631363, -0.006108496338129044, -7.260078564286232e-05, 0.005963294766843319, 0.011999189853668213, 0.01803508587181568, 0.02407098188996315, 0.03010687604546547, 0.03614277392625809, 0.042178668081760406, 0.048214562237262726, 0.054250460118055344, 0.06028635427355766, 0.06632225215435028, 0.0723581463098526, 0.07839404046535492, 0.08442993462085724, 0.09046582877635956, 0.09650172293186188, 0.1025376170873642, 0.10857351124286652, 0.11460941284894943, 0.12064530700445175, 0.12668120861053467, 0.132717102766037, 0.1387529969215393]}, "parameters/graph_1linears.1.weight": {"_type": "histogram", "values": [1.0, 0.0, 0.0, 0.0, 0.0, 1.0, 0.0, 0.0, 0.0, 0.0, 0.0, 0.0, 1.0, 0.0, 0.0, 1.0, 1.0, 0.0, 2.0, 2.0, 8.0, 6.0, 5.0, 4.0, 6.0, 5.0, 4.0, 7.0, 5.0, 5.0, 7.0, 8.0, 4.0, 5.0, 2.0, 2.0, 6.0, 10.0, 8.0, 6.0, 5.0, 7.0, 8.0, 9.0, 12.0, 3.0, 9.0, 9.0, 7.0, 3.0, 4.0, 8.0, 3.0, 8.0, 7.0, 7.0, 6.0, 2.0, 3.0, 6.0, 1.0, 2.0, 2.0, 3.0], "bins": [-0.21716226637363434, -0.2117146998643875, -0.20626714825630188, -0.20081958174705505, -0.19537203013896942, -0.1899244636297226, -0.18447691202163696, -0.17902934551239014, -0.1735817790031433, -0.16813421249389648, -0.16268666088581085, -0.15723909437656403, -0.1517915427684784, -0.14634397625923157, -0.14089640974998474, -0.1354488581418991, -0.13000130653381348, -0.12455374747514725, -0.11910618841648102, -0.11365862190723419, -0.10821106284856796, -0.10276350378990173, -0.0973159447312355, -0.09186838567256927, -0.08642081916332245, -0.08097326010465622, -0.07552570104598999, -0.07007813453674316, -0.06463057547807693, -0.059183016419410706, -0.053735457360744476, -0.04828789457678795, -0.04284033179283142, -0.03739277273416519, -0.031945209950208664, -0.026497650891542435, -0.021050089970231056, -0.015602529048919678, -0.010154969990253448, -0.004707407206296921, 0.0007401518523693085, 0.0061877123080194, 0.01163527276366949, 0.017082832753658295, 0.022530393674969673, 0.02797795459628105, 0.03342551365494728, 0.03887307643890381, 0.04432063549757004, 0.04976819455623627, 0.055215757340192795, 0.060663316398859024, 0.06611087918281555, 0.07155843824148178, 0.07700599730014801, 0.08245356380939484, 0.08790111541748047, 0.0933486744761467, 0.09879623353481293, 0.10424380004405975, 0.10969135910272598, 0.11513891816139221, 0.12058647722005844, 0.12603403627872467, 0.1314816027879715]}, "parameters/graph_1linears.1.bias": {"_type": "histogram", "values": [1.0, 0.0, 0.0, 0.0, 0.0, 0.0, 0.0, 0.0, 0.0, 0.0, 0.0, 0.0, 0.0, 0.0, 0.0, 0.0, 0.0, 0.0, 0.0, 0.0, 0.0, 0.0, 0.0, 0.0, 0.0, 0.0, 0.0, 0.0, 0.0, 0.0, 0.0, 0.0, 0.0, 0.0, 0.0, 0.0, 0.0, 0.0, 0.0, 0.0, 0.0, 0.0, 0.0, 0.0, 0.0, 0.0, 0.0, 0.0, 0.0, 0.0, 0.0, 0.0, 0.0, 0.0, 0.0, 0.0, 0.0, 0.0, 0.0, 0.0, 0.0, 0.0, 0.0, 1.0], "bins": [-0.1894281655550003, -0.18610213696956635, -0.1827760934829712, -0.17945006489753723, -0.17612403631210327, -0.1727980077266693, -0.16947196424007416, -0.1661459356546402, -0.16281990706920624, -0.15949387848377228, -0.15616783499717712, -0.15284180641174316, -0.1495157778263092, -0.14618974924087524, -0.1428637057542801, -0.13953767716884613, -0.13621163368225098, -0.13288560509681702, -0.12955956161022186, -0.1262335330247879, -0.12290750443935394, -0.11958146840333939, -0.11625543236732483, -0.11292940378189087, -0.10960337519645691, -0.10627733916044235, -0.10295131057500839, -0.09962527453899384, -0.09629924595355988, -0.09297320991754532, -0.08964717388153076, -0.0863211452960968, -0.08299510926008224, -0.07966907322406769, -0.07634304463863373, -0.07301700860261917, -0.06969098001718521, -0.06636494398117065, -0.0630389153957367, -0.05971287935972214, -0.05638684332370758, -0.05306081101298332, -0.049734778702259064, -0.04640874266624451, -0.04308271035552025, -0.03975667804479599, -0.03643064573407173, -0.03310461342334747, -0.029778579249978065, -0.026452546939253807, -0.0231265127658844, -0.01980048045516014, -0.016474448144435883, -0.013148413971066475, -0.009822381660342216, -0.006496347486972809, -0.0031703151762485504, 0.00015571783296763897, 0.0034817508421838284, 0.006807783618569374, 0.010133816860616207, 0.01345985010266304, 0.0167858824133873, 0.020111916586756706, 0.023437948897480965]}, "train_rmse": 0.4762127002021426, "test_rmse": 0.5737026520233804, "_runtime": 205.29809880256653, "_step": 20, "gradients/graph_1linears.1.bias": {"_type": "histogram", "values": [1.0, 0.0, 0.0, 0.0, 0.0, 0.0, 0.0, 0.0, 0.0, 0.0, 0.0, 0.0, 0.0, 0.0, 0.0, 0.0, 0.0, 0.0, 0.0, 0.0, 0.0, 0.0, 0.0, 0.0, 0.0, 0.0, 0.0, 0.0, 0.0, 0.0, 0.0, 0.0, 0.0, 0.0, 0.0, 0.0, 0.0, 0.0, 0.0, 0.0, 0.0, 0.0, 0.0, 0.0, 0.0, 0.0, 0.0, 0.0, 0.0, 0.0, 0.0, 0.0, 0.0, 0.0, 0.0, 0.0, 0.0, 0.0, 0.0, 0.0, 0.0, 0.0, 0.0, 1.0], "bins": [0.00216661486774683, 0.002186796860769391, 0.0022069786209613085, 0.0022271606139838696, 0.0022473426070064306, 0.002267524367198348, 0.002287706360220909, 0.00230788835324347, 0.0023280701134353876, 0.0023482521064579487, 0.002368433866649866, 0.002388615859672427, 0.0024087978526949883, 0.0024289796128869057, 0.0024491616059094667, 0.002469343598932028, 0.0024895253591239452, 0.0025097073521465063, 0.0025298891123384237, 0.002550071105360985, 0.002570253098383546, 0.0025904348585754633, 0.0026106168515980244, 0.0026307988446205854, 0.0026509808376431465, 0.0026711628306657076, 0.002691344590857625, 0.002711526583880186, 0.002731708576902747, 0.0027518903370946646, 0.0027720723301172256, 0.0027922543231397867, 0.002812436083331704, 0.002832618076354265, 0.0028527998365461826, 0.0028729818295687437, 0.0028931638225913048, 0.002913345582783222, 0.0029335275758057833, 0.0029537095688283443, 0.0029738913290202618, 0.002994073322042823, 0.0030142550822347403, 0.0030344370752573013, 0.0030546190682798624, 0.00307480082847178, 0.003094982821494341, 0.003115164814516902, 0.003135346807539463, 0.003155528800562024, 0.0031757105607539415, 0.0031958925537765026, 0.0032160745467990637, 0.003236256306990981, 0.003256438300013542, 0.0032766202930361032, 0.0032968020532280207, 0.0033169840462505817, 0.003337165806442499, 0.0033573477994650602, 0.0033775297924876213, 0.0033977115526795387, 0.0034178935457021, 0.003438075538724661, 0.0034582572989165783]}, "gradients/graph_1linears.1.weight": {"_type": "histogram", "values": [2.0, 0.0, 0.0, 2.0, 0.0, 0.0, 0.0, 0.0, 0.0, 0.0, 0.0, 0.0, 2.0, 1.0, 1.0, 1.0, 4.0, 3.0, 2.0, 1.0, 5.0, 2.0, 3.0, 5.0, 4.0, 3.0, 0.0, 5.0, 8.0, 3.0, 3.0, 112.0, 3.0, 5.0, 5.0, 1.0, 3.0, 7.0, 4.0, 3.0, 7.0, 2.0, 5.0, 2.0, 3.0, 5.0, 4.0, 2.0, 4.0, 1.0, 3.0, 3.0, 2.0, 1.0, 1.0, 1.0, 2.0, 1.0, 0.0, 0.0, 1.0, 2.0, 0.0, 1.0], "bins": [-0.029941920191049576, -0.028999092057347298, -0.02805626392364502, -0.02711343578994274, -0.026170607656240463, -0.025227779522538185, -0.024284951388835907, -0.02334212325513363, -0.02239929512143135, -0.021456466987729073, -0.020513638854026794, -0.019570810720324516, -0.018627982586622238, -0.01768515445291996, -0.016742326319217682, -0.015799498185515404, -0.014856670051813126, -0.013913841918110847, -0.01297101378440857, -0.012028185650706291, -0.011085357517004013, -0.010142529383301735, -0.009199701249599457, -0.008256873115897179, -0.0073140449821949005, -0.006371216848492622, -0.005428388714790344, -0.004485560581088066, -0.003542732447385788, -0.00259990431368351, -0.0016570761799812317, -0.0007142480462789536, 0.00022858195006847382, 0.001171410083770752, 0.00211423821747303, 0.0030570663511753082, 0.003999894484877586, 0.0049427226185798645, 0.005885550752282143, 0.006828378885984421, 0.007771207019686699, 0.008714035153388977, 0.009656863287091255, 0.010599691420793533, 0.011542519554495811, 0.01248534768819809, 0.013428175821900368, 0.014371003955602646, 0.015313832089304924, 0.016256660223007202, 0.01719948835670948, 0.01814231649041176, 0.019085144624114037, 0.020027972757816315, 0.020970800891518593, 0.02191362902522087, 0.02285645715892315, 0.023799285292625427, 0.024742113426327705, 0.025684941560029984, 0.02662776969373226, 0.02757059782743454, 0.028513425961136818, 0.029456254094839096, 0.030399082228541374]}, "gradients/graph_1linears.0.bias": {"_type": "histogram", "values": [1.0, 0.0, 0.0, 1.0, 0.0, 0.0, 0.0, 1.0, 0.0, 0.0, 0.0, 1.0, 0.0, 3.0, 1.0, 1.0, 0.0, 1.0, 0.0, 1.0, 0.0, 3.0, 0.0, 0.0, 0.0, 1.0, 2.0, 0.0, 1.0, 4.0, 2.0, 3.0, 0.0, 1.0, 3.0, 4.0, 4.0, 3.0, 56.0, 0.0, 3.0, 3.0, 2.0, 2.0, 1.0, 0.0, 2.0, 1.0, 1.0, 3.0, 1.0, 0.0, 2.0, 2.0, 0.0, 2.0, 1.0, 0.0, 1.0, 0.0, 1.0, 0.0, 1.0, 1.0], "bins": [-0.005602904129773378, -0.00545599777251482, -0.005309091880917549, -0.005162185523658991, -0.005015279166400433, -0.004868372809141874, -0.004721466451883316, -0.004574560560286045, -0.004427654203027487, -0.0042807478457689285, -0.0041338419541716576, -0.003986935596913099, -0.003840029239654541, -0.0036931228823959827, -0.003546216757968068, -0.0033993106335401535, -0.0032524042762815952, -0.003105497919023037, -0.0029585917945951223, -0.0028116856701672077, -0.0026647793129086494, -0.002517872955650091, -0.0023709668312221766, -0.002224060706794262, -0.0020771543495357037, -0.0019302481086924672, -0.0017833418678492308, -0.0016364356270059943, -0.0014895293861627579, -0.0013426231453195214, -0.001195716904476285, -0.0010488106636330485, -0.0009019048884510994, -0.000754998647607863, -0.0006080924067646265, -0.00046118616592139006, -0.0003142799250781536, -0.00016737368423491716, -2.0467443391680717e-05, 0.00012643879745155573, 0.0002733450382947922, 0.0004202512791380286, 0.0005671575199812651, 0.0007140637608245015, 0.000860970001667738, 0.0010078762425109744, 0.0011547824833542109, 0.0013016887241974473, 0.0014485949650406837, 0.0015955012058839202, 0.0017424074467271566, 0.001889313687570393, 0.0020362199284136295, 0.002183126285672188, 0.0023300324101001024, 0.002476938534528017, 0.0026238448917865753, 0.0027707512490451336, 0.002917657373473048, 0.003064563497900963, 0.003211469855159521, 0.0033583762124180794, 0.003505282336845994, 0.0036521884612739086, 0.003799094818532467]}, "gradients/graph_1linears.0.weight": {"_type": "histogram", "values": [1.0, 0.0, 0.0, 0.0, 0.0, 0.0, 0.0, 0.0, 0.0, 1.0, 0.0, 1.0, 1.0, 1.0, 3.0, 0.0, 3.0, 4.0, 4.0, 10.0, 9.0, 11.0, 11.0, 21.0, 26.0, 42.0, 43.0, 66.0, 78.0, 92.0, 143.0, 253.0, 272.0, 421.0, 562.0, 829.0, 1266.0, 11072.0, 1907.0, 1080.0, 724.0, 490.0, 366.0, 241.0, 175.0, 136.0, 94.0, 72.0, 63.0, 42.0, 25.0, 17.0, 17.0, 11.0, 7.0, 5.0, 6.0, 2.0, 3.0, 2.0, 0.0, 4.0, 0.0, 1.0], "bins": [-0.0034332559444010258, -0.003342479234561324, -0.003251702291890979, -0.003160925582051277, -0.003070148639380932, -0.00297937192954123, -0.0028885952197015285, -0.0027978182770311832, -0.0027070415671914816, -0.00261626485735178, -0.0025254879146814346, -0.002434711204841733, -0.0023439344950020313, -0.002253157552331686, -0.0021623808424919844, -0.0020716041326522827, -0.0019808271899819374, -0.001890050363726914, -0.0017992735374718904, -0.0017084968276321888, -0.0016177200013771653, -0.0015269431751221418, -0.0014361664652824402, -0.0013453896390274167, -0.0012546128127723932, -0.0011638359865173697, -0.0010730591602623463, -0.0009822824504226446, -0.0008915056241676211, -0.0008007287979125977, -0.0007099520298652351, -0.0006191752618178725, -0.0005283982027322054, -0.00043762140558101237, -0.00034684460842981935, -0.0002560678112786263, -0.0001652910141274333, -7.451421697624028e-05, 1.6262580174952745e-05, 0.00010703934822231531, 0.0001978161744773388, 0.0002885929716285318, 0.00037936976877972484, 0.00047014656593091786, 0.0005609233630821109, 0.0006517001893371344, 0.0007424769573844969, 0.0008332537254318595, 0.000924030551686883, 0.0010148073779419065, 0.00110558420419693, 0.0011963609140366316, 0.001287137740291655, 0.0013779145665466785, 0.0014686912763863802, 0.0015594681026414037, 0.0016502449288964272, 0.0017410217551514506, 0.0018317985814064741, 0.0019225752912461758, 0.002013352233916521, 0.0021041289437562227, 0.0021949056535959244, 0.0022856825962662697, 0.0023764593061059713]}, "gradients/graph_1aggr.lstm.weight_ih_l0": {"_type": "histogram", "values": [1.0, 1.0, 0.0, 0.0, 0.0, 1.0, 1.0, 0.0, 2.0, 2.0, 3.0, 0.0, 2.0, 2.0, 0.0, 5.0, 7.0, 10.0, 13.0, 20.0, 17.0, 34.0, 48.0, 74.0, 103.0, 154.0, 308.0, 660.0, 2314.0, 39687.0, 6776.0, 1197.0, 460.0, 228.0, 114.0, 77.0, 46.0, 35.0, 20.0, 11.0, 5.0, 9.0, 11.0, 7.0, 4.0, 5.0, 2.0, 4.0, 1.0, 2.0, 1.0, 0.0, 0.0, 1.0, 1.0, 0.0, 0.0, 1.0, 0.0, 0.0, 0.0, 0.0, 0.0, 1.0], "bins": [-0.0055841379798948765, -0.005396508611738682, -0.0052088787779212, -0.005021249409765005, -0.00483362004160881, -0.004645990207791328, -0.004458360839635134, -0.004270731471478939, -0.004083101637661457, -0.0038954720366746187, -0.003707842668518424, -0.0035202130675315857, -0.003332583699375391, -0.0031449540983885527, -0.0029573244974017143, -0.0027696951292455196, -0.002582065761089325, -0.0023944361601024866, -0.002206806791946292, -0.0020191771909594536, -0.001831547706387937, -0.0016439182218164206, -0.0014562886208295822, -0.0012686591362580657, -0.0010810296516865492, -0.0008934001671150327, -0.0007057706243358552, -0.0005181410815566778, -0.0003305115969851613, -0.0001428821124136448, 4.474748857319355e-05, 0.00023237697314471006, 0.00042000599205493927, 0.0006076354766264558, 0.0007952650194056332, 0.0009828945621848106, 0.0011705240467563272, 0.0013581535313278437, 0.001545783132314682, 0.0017334126168861985, 0.001921042101457715, 0.0021086717024445534, 0.002296301070600748, 0.0024839306715875864, 0.0026715602725744247, 0.0028591896407306194, 0.0030468192417174578, 0.003234448842704296, 0.003422078210860491, 0.003609707811847329, 0.003797337180003524, 0.003984966780990362, 0.004172596149146557, 0.004360225982964039, 0.0045478553511202335, 0.004735484719276428, 0.00492311455309391, 0.005110743921250105, 0.005298373755067587, 0.005486003123223782, 0.005673632491379976, 0.005861261859536171, 0.006048891693353653, 0.006236521061509848, 0.006424150429666042]}, "gradients/graph_1aggr.lstm.weight_hh_l0": {"_type": "histogram", "values": [1.0, 0.0, 0.0, 0.0, 0.0, 0.0, 1.0, 0.0, 0.0, 0.0, 0.0, 1.0, 0.0, 7.0, 4.0, 6.0, 0.0, 2.0, 5.0, 5.0, 5.0, 5.0, 12.0, 15.0, 16.0, 20.0, 31.0, 37.0, 57.0, 83.0, 108.0, 164.0, 293.0, 514.0, 1162.0, 5627.0, 14574.0, 1776.0, 655.0, 351.0, 232.0, 141.0, 84.0, 65.0, 48.0, 33.0, 34.0, 11.0, 16.0, 7.0, 6.0, 10.0, 4.0, 2.0, 3.0, 3.0, 2.0, 1.0, 1.0, 1.0, 0.0, 1.0, 0.0, 2.0], "bins": [-0.002039432292804122, -0.001983037916943431, -0.0019266436574980617, -0.0018702492816373706, -0.0018138549057766795, -0.0017574606463313103, -0.0017010662704706192, -0.0016446718946099281, -0.0015882776351645589, -0.0015318832593038678, -0.0014754889998584986, -0.0014190946239978075, -0.0013627002481371164, -0.0013063059886917472, -0.0012499116128310561, -0.0011935173533856869, -0.0011371229775249958, -0.0010807286016643047, -0.0010243343422189355, -0.0009679399663582444, -0.0009115456487052143, -0.0008551513310521841, -0.000798756955191493, -0.0007423626375384629, -0.0006859682034701109, -0.0006295738858170807, -0.0005731795099563897, -0.0005167851923033595, -0.00046039087465032935, -0.00040399652789346874, -0.0003476021811366081, -0.00029120786348357797, -0.0002348135458305478, -0.00017841921362560242, -0.00012202487414469942, -6.563053466379642e-05, -9.23620245885104e-06, 4.7158129746094346e-05, 0.00010355247650295496, 0.00015994679415598512, 0.00021634114091284573, 0.00027273548766970634, 0.0003291298053227365, 0.0003855241520795971, 0.00044191849883645773, 0.0004983128164894879, 0.000554707134142518, 0.0006111015100032091, 0.0006674958276562393, 0.0007238901453092694, 0.0007802845211699605, 0.0008366788388229907, 0.0008930731564760208, 0.0009494675323367119, 0.001005861908197403, 0.0010622561676427722, 0.0011186505435034633, 0.0011750449193641543, 0.0012314391788095236, 0.0012878335546702147, 0.0013442279305309057, 0.001400622189976275, 0.001457016565836966, 0.0015134108252823353, 0.0015698052011430264]}, "gradients/graph_1aggr.lstm.bias_hh_l0": {"_type": "histogram", "values": [1.0, 0.0, 0.0, 0.0, 0.0, 1.0, 0.0, 0.0, 0.0, 2.0, 0.0, 0.0, 1.0, 2.0, 2.0, 0.0, 1.0, 1.0, 1.0, 0.0, 1.0, 2.0, 1.0, 1.0, 2.0, 5.0, 9.0, 7.0, 15.0, 39.0, 108.0, 56.0, 23.0, 14.0, 4.0, 7.0, 4.0, 1.0, 1.0, 1.0, 3.0, 0.0, 0.0, 1.0, 1.0, 0.0, 0.0, 2.0, 0.0, 0.0, 2.0, 0.0, 0.0, 0.0, 0.0, 0.0, 0.0, 1.0, 0.0, 0.0, 0.0, 0.0, 0.0, 1.0], "bins": [-0.011248663999140263, -0.010883428156375885, -0.010518193244934082, -0.010152957402169704, -0.009787721559405327, -0.00942248571664095, -0.009057249873876572, -0.008692014962434769, -0.008326779119670391, -0.007961543276906013, -0.007596307899802923, -0.007231072522699833, -0.006865836679935455, -0.006500600837171078, -0.0061353654600679874, -0.005770130082964897, -0.0054048942402005196, -0.005039658397436142, -0.004674423020333052, -0.004309187643229961, -0.003943951800465584, -0.00357871619053185, -0.003213480580598116, -0.002848244970664382, -0.002483009360730648, -0.002117773750796914, -0.0017525381408631802, -0.0013873025309294462, -0.0010220669209957123, -0.0006568313110619783, -0.0002915957011282444, 7.363990880548954e-05, 0.0004388764500617981, 0.000804112059995532, 0.001169347669929266, 0.001534583279863, 0.0018998188897967339, 0.002265054499730468, 0.0026302901096642017, 0.0029955257195979357, 0.0033607613295316696, 0.0037259969394654036, 0.0040912325493991375, 0.004456467926502228, 0.004821703769266605, 0.005186939612030983, 0.005552174989134073, 0.0059174103662371635, 0.006282646209001541, 0.006647882051765919, 0.007013117428869009, 0.007378352805972099, 0.007743588648736477, 0.008108824491500854, 0.008474059402942657, 0.008839295245707035, 0.009204531088471413, 0.00956976693123579, 0.009935002774000168, 0.01030023768544197, 0.010665473528206348, 0.011030709370970726, 0.011395944282412529, 0.011761180125176907, 0.012126415967941284]}, "gradients/graph_1aggr.lstm.bias_ih_l0": {"_type": "histogram", "values": [1.0, 0.0, 0.0, 0.0, 0.0, 1.0, 0.0, 0.0, 0.0, 2.0, 0.0, 0.0, 1.0, 2.0, 2.0, 0.0, 1.0, 1.0, 1.0, 0.0, 1.0, 2.0, 1.0, 1.0, 2.0, 5.0, 9.0, 7.0, 15.0, 39.0, 108.0, 56.0, 23.0, 14.0, 4.0, 7.0, 4.0, 1.0, 1.0, 1.0, 3.0, 0.0, 0.0, 1.0, 1.0, 0.0, 0.0, 2.0, 0.0, 0.0, 2.0, 0.0, 0.0, 0.0, 0.0, 0.0, 0.0, 1.0, 0.0, 0.0, 0.0, 0.0, 0.0, 1.0], "bins": [-0.011248663999140263, -0.010883428156375885, -0.010518193244934082, -0.010152957402169704, -0.009787721559405327, -0.00942248571664095, -0.009057249873876572, -0.008692014962434769, -0.008326779119670391, -0.007961543276906013, -0.007596307899802923, -0.007231072522699833, -0.006865836679935455, -0.006500600837171078, -0.0061353654600679874, -0.005770130082964897, -0.0054048942402005196, -0.005039658397436142, -0.004674423020333052, -0.004309187643229961, -0.003943951800465584, -0.00357871619053185, -0.003213480580598116, -0.002848244970664382, -0.002483009360730648, -0.002117773750796914, -0.0017525381408631802, -0.0013873025309294462, -0.0010220669209957123, -0.0006568313110619783, -0.0002915957011282444, 7.363990880548954e-05, 0.0004388764500617981, 0.000804112059995532, 0.001169347669929266, 0.001534583279863, 0.0018998188897967339, 0.002265054499730468, 0.0026302901096642017, 0.0029955257195979357, 0.0033607613295316696, 0.0037259969394654036, 0.0040912325493991375, 0.004456467926502228, 0.004821703769266605, 0.005186939612030983, 0.005552174989134073, 0.0059174103662371635, 0.006282646209001541, 0.006647882051765919, 0.007013117428869009, 0.007378352805972099, 0.007743588648736477, 0.008108824491500854, 0.008474059402942657, 0.008839295245707035, 0.009204531088471413, 0.00956976693123579, 0.009935002774000168, 0.01030023768544197, 0.010665473528206348, 0.011030709370970726, 0.011395944282412529, 0.011761180125176907, 0.012126415967941284]}, "gradients/graph_1convs.1.lin_skip.bias": {"_type": "histogram", "values": [3.0, 1.0, 1.0, 0.0, 0.0, 0.0, 0.0, 0.0, 0.0, 1.0, 1.0, 1.0, 2.0, 1.0, 1.0, 1.0, 1.0, 4.0, 1.0, 2.0, 2.0, 3.0, 5.0, 1.0, 2.0, 3.0, 6.0, 1.0, 3.0, 3.0, 2.0, 3.0, 2.0, 1.0, 2.0, 1.0, 0.0, 0.0, 3.0, 0.0, 1.0, 1.0, 1.0, 1.0, 1.0, 0.0, 2.0, 0.0, 2.0, 1.0, 0.0, 1.0, 2.0, 1.0, 0.0, 0.0, 1.0, 1.0, 0.0, 0.0, 0.0, 0.0, 0.0, 1.0], "bins": [-0.015586670488119125, -0.014988109469413757, -0.014389549382030964, -0.013790988363325596, -0.013192427344620228, -0.012593867257237434, -0.011995306238532066, -0.011396745219826698, -0.01079818420112133, -0.010199623182415962, -0.009601063095033169, -0.0090025020763278, -0.008403941057622433, -0.007805380504578352, -0.007206819951534271, -0.006608258932828903, -0.00600969884544611, -0.005411138292402029, -0.004812577273696661, -0.00421401672065258, -0.003615455934777856, -0.0030168951489031315, -0.0024183345958590508, -0.0018197735771536827, -0.001221213024109602, -0.0006226522964425385, -2.4091568775475025e-05, 0.0005744691006839275, 0.001173029886558652, 0.0017715906724333763, 0.002370151225477457, 0.002968712244182825, 0.003567272797226906, 0.0041658333502709866, 0.004764394368976355, 0.005362954922020435, 0.005961515940725803, 0.006560076493769884, 0.007158637046813965, 0.007757198065519333, 0.008355759084224701, 0.008954320102930069, 0.009552880190312862, 0.01015144120901823, 0.010750002227723598, 0.011348562315106392, 0.01194712333381176, 0.012545684352517128, 0.013144244439899921, 0.01374280545860529, 0.014341365545988083, 0.014939926564693451, 0.015538487583398819, 0.016137048602104187, 0.016735609620809555, 0.017334170639514923, 0.017932729795575142, 0.01853129081428051, 0.019129851832985878, 0.019728410989046097, 0.020326972007751465, 0.020925533026456833, 0.0215240940451622, 0.02212265506386757, 0.022721216082572937]}, "gradients/graph_1convs.1.lin_skip.weight": {"_type": "histogram", "values": [1.0, 0.0, 0.0, 0.0, 0.0, 2.0, 1.0, 0.0, 2.0, 1.0, 4.0, 4.0, 7.0, 4.0, 9.0, 7.0, 17.0, 19.0, 32.0, 36.0, 42.0, 66.0, 107.0, 133.0, 156.0, 231.0, 293.0, 434.0, 536.0, 876.0, 1091.0, 644.0, 441.0, 339.0, 256.0, 174.0, 123.0, 98.0, 74.0, 72.0, 53.0, 34.0, 27.0, 23.0, 9.0, 15.0, 11.0, 10.0, 6.0, 8.0, 8.0, 6.0, 2.0, 5.0, 4.0, 3.0, 0.0, 0.0, 1.0, 1.0, 2.0, 0.0, 0.0, 1.0], "bins": [-0.014658434316515923, -0.014174701645970345, -0.013690969906747341, -0.013207237236201763, -0.01272350549697876, -0.012239772826433182, -0.011756040155887604, -0.0112723084166646, -0.010788575746119022, -0.010304843075573444, -0.009821111336350441, -0.009337378665804863, -0.00885364692658186, -0.008369914256036282, -0.007886182516813278, -0.0074024498462677, -0.0069187176413834095, -0.006434985436499119, -0.005951253231614828, -0.005467521026730537, -0.004983788356184959, -0.004500056151300669, -0.004016323946416378, -0.0035325915087014437, -0.003048859303817153, -0.0025651270989328623, -0.002081394661217928, -0.0015976624563336372, -0.0011139301350340247, -0.0006301978137344122, -0.0001464656088501215, 0.00033726682886481285, 0.0008209990337491035, 0.001304731355048716, 0.0017884636763483286, 0.0022721958812326193, 0.0027559283189475536, 0.0032396605238318443, 0.003723392728716135, 0.004207124933600426, 0.004690857604146004, 0.005174589809030294, 0.005658322013914585, 0.006142054684460163, 0.006625786889344454, 0.0071095190942287445, 0.007593251299113035, 0.008076983503997326, 0.00856071524322033, 0.009044447913765907, 0.00952817965298891, 0.010011912323534489, 0.010495644062757492, 0.01097937673330307, 0.011463109403848648, 0.011946841143071651, 0.01243057381361723, 0.012914306484162807, 0.01339803822338581, 0.013881770893931389, 0.014365502633154392, 0.01484923530369997, 0.015332967042922974, 0.01581669971346855, 0.01630043238401413]}, "gradients/graph_1convs.1.lin_edge.weight": {"_type": "histogram", "values": [1.0, 0.0, 0.0, 0.0, 0.0, 0.0, 0.0, 0.0, 1.0, 1.0, 2.0, 0.0, 0.0, 2.0, 4.0, 0.0, 2.0, 0.0, 4.0, 1.0, 3.0, 3.0, 3.0, 3.0, 4.0, 7.0, 12.0, 10.0, 9.0, 10.0, 14.0, 8.0, 19.0, 10.0, 12.0, 5.0, 14.0, 13.0, 8.0, 7.0, 5.0, 4.0, 6.0, 3.0, 3.0, 5.0, 2.0, 1.0, 1.0, 6.0, 3.0, 3.0, 2.0, 1.0, 2.0, 0.0, 2.0, 0.0, 0.0, 1.0, 0.0, 0.0, 0.0, 1.0], "bins": [-0.013767952099442482, -0.013345354236662388, -0.012922757305204868, -0.012500159442424774, -0.012077562510967255, -0.01165496464818716, -0.011232366785407066, -0.010809769853949547, -0.010387172922492027, -0.009964575059711933, -0.009541978128254414, -0.00911938026547432, -0.0086967833340168, -0.008274185471236706, -0.007851587608456612, -0.007428990676999092, -0.007006392814218998, -0.006583795417100191, -0.006161198019981384, -0.00573860015720129, -0.005316003225743771, -0.0048934053629636765, -0.00447080796584487, -0.004048210568726063, -0.003625613171607256, -0.003203015774488449, -0.0027804183773696423, -0.0023578207474201918, -0.001935223350301385, -0.001512625953182578, -0.0010900283232331276, -0.0006674309261143208, -0.0002448325976729393, 0.00017776485765352845, 0.0006003623129799962, 0.0010229598265141249, 0.0014455572236329317, 0.0018681546207517385, 0.002290752250701189, 0.002713349647819996, 0.0031359470449388027, 0.0035585444420576096, 0.003981141839176416, 0.004403739236295223, 0.004826337099075317, 0.005248934030532837, 0.005671531893312931, 0.006094129290431738, 0.006516726687550545, 0.006939324084669352, 0.007361921481788158, 0.0077845193445682526, 0.008207116276025772, 0.008629714138805866, 0.00905231200158596, 0.00947490893304348, 0.009897505864501, 0.010320103727281094, 0.010742700658738613, 0.011165298521518707, 0.011587895452976227, 0.012010493315756321, 0.012433091178536415, 0.012855688109993935, 0.013278285972774029]}, "gradients/graph_1convs.1.lin_value.bias": {"_type": "histogram", "values": [4.0, 1.0, 0.0, 0.0, 0.0, 0.0, 0.0, 0.0, 0.0, 0.0, 2.0, 1.0, 1.0, 0.0, 1.0, 3.0, 0.0, 3.0, 1.0, 3.0, 2.0, 6.0, 1.0, 2.0, 0.0, 5.0, 2.0, 5.0, 1.0, 4.0, 1.0, 4.0, 2.0, 4.0, 0.0, 1.0, 0.0, 2.0, 1.0, 1.0, 0.0, 1.0, 1.0, 3.0, 0.0, 0.0, 2.0, 2.0, 0.0, 0.0, 1.0, 0.0, 1.0, 2.0, 0.0, 2.0, 0.0, 1.0, 0.0, 0.0, 0.0, 0.0, 0.0, 1.0], "bins": [-0.01604781299829483, -0.015449068509042263, -0.014850324019789696, -0.014251579530537128, -0.013652835041284561, -0.013054090552031994, -0.012455346062779427, -0.01185660157352686, -0.011257857084274292, -0.010659112595021725, -0.010060368105769157, -0.00946162361651659, -0.008862879127264023, -0.008264134638011456, -0.007665390148758888, -0.007066645659506321, -0.006467901170253754, -0.005869156681001186, -0.005270412191748619, -0.004671667702496052, -0.0040729232132434845, -0.003474178723990917, -0.00287543423473835, -0.0022766897454857826, -0.0016779452562332153, -0.001079200766980648, -0.00048045627772808075, 0.00011828821152448654, 0.0007170327007770538, 0.0013157771900296211, 0.0019145216792821884, 0.0025132661685347557, 0.003112010657787323, 0.0037107551470398903, 0.004309499636292458, 0.004908244125545025, 0.005506988614797592, 0.0061057331040501595, 0.006704477593302727, 0.007303222082555294, 0.007901966571807861, 0.008500711061060429, 0.009099455550312996, 0.009698200039565563, 0.01029694452881813, 0.010895689018070698, 0.011494433507323265, 0.012093177996575832, 0.0126919224858284, 0.013290666975080967, 0.013889411464333534, 0.014488155953586102, 0.015086900442838669, 0.01568564400076866, 0.016284389421343803, 0.016883134841918945, 0.017481878399848938, 0.01808062195777893, 0.018679367378354073, 0.019278112798929214, 0.019876856356859207, 0.0204755999147892, 0.021074345335364342, 0.021673090755939484, 0.022271834313869476]}, "gradients/graph_1convs.1.lin_value.weight": {"_type": "histogram", "values": [1.0, 0.0, 0.0, 0.0, 2.0, 2.0, 1.0, 3.0, 7.0, 7.0, 12.0, 11.0, 12.0, 13.0, 17.0, 33.0, 36.0, 50.0, 70.0, 68.0, 114.0, 140.0, 206.0, 266.0, 370.0, 491.0, 688.0, 1002.0, 776.0, 528.0, 376.0, 287.0, 219.0, 186.0, 147.0, 86.0, 84.0, 50.0, 42.0, 31.0, 31.0, 11.0, 19.0, 8.0, 8.0, 9.0, 9.0, 8.0, 3.0, 5.0, 4.0, 2.0, 2.0, 3.0, 1.0, 0.0, 0.0, 0.0, 0.0, 3.0, 0.0, 0.0, 0.0, 1.0], "bins": [-0.011859859339892864, -0.011432575061917305, -0.01100529171526432, -0.010578007437288761, -0.010150723159313202, -0.009723439812660217, -0.009296155534684658, -0.008868871256709099, -0.008441587910056114, -0.008014303632080555, -0.007587019819766283, -0.007159736007452011, -0.006732452195137739, -0.006305168382823467, -0.005877884104847908, -0.005450600292533636, -0.005023316014558077, -0.004596032202243805, -0.004168747924268246, -0.0037414641119539738, -0.003314180299639702, -0.0028868962544947863, -0.0024596122093498707, -0.0020323283970355988, -0.0016050443518906832, -0.0011777604231610894, -0.0007504764362238348, -0.0003231924492865801, 0.00010409147944301367, 0.0005313754081726074, 0.000958659453317523, 0.001385943265631795, 0.0018132273107767105, 0.002240511355921626, 0.002667795168235898, 0.0030950792133808136, 0.0035223630256950855, 0.0039496468380093575, 0.004376931115984917, 0.004804214928299189, 0.0052314987406134605, 0.0056587825529277325, 0.006086066830903292, 0.006513350643217564, 0.0069406344555318356, 0.0073679182678461075, 0.007795202545821667, 0.008222486823797226, 0.00864977017045021, 0.00907705444842577, 0.009504337795078754, 0.009931622073054314, 0.010358906351029873, 0.010786189697682858, 0.011213473975658417, 0.011640757322311401, 0.012068042531609535, 0.012495326809585094, 0.012922610156238079, 0.013349894434213638, 0.013777178712189198, 0.014204462058842182, 0.014631746336817741, 0.015059029683470726, 0.015486313961446285]}, "gradients/graph_1convs.1.lin_key.bias": {"_type": "histogram", "values": [1.0, 0.0, 0.0, 1.0, 0.0, 1.0, 0.0, 1.0, 1.0, 1.0, 0.0, 2.0, 1.0, 0.0, 1.0, 4.0, 3.0, 1.0, 1.0, 3.0, 1.0, 5.0, 1.0, 1.0, 3.0, 1.0, 1.0, 2.0, 1.0, 3.0, 3.0, 6.0, 4.0, 5.0, 0.0, 4.0, 1.0, 1.0, 2.0, 1.0, 1.0, 1.0, 2.0, 0.0, 1.0, 0.0, 1.0, 1.0, 1.0, 1.0, 0.0, 0.0, 0.0, 0.0, 0.0, 0.0, 1.0, 0.0, 1.0, 0.0, 0.0, 0.0, 1.0, 1.0], "bins": [-2.801243681460619e-10, -2.702904566831421e-10, -2.604565452202223e-10, -2.5062263375730254e-10, -2.4078872229438275e-10, -2.3095481083146296e-10, -2.2112089936854318e-10, -2.112869879056234e-10, -2.014530764427036e-10, -1.9161916497978382e-10, -1.8178525351686403e-10, -1.7195134205394424e-10, -1.6211743059102446e-10, -1.5228351912810467e-10, -1.4244960766518489e-10, -1.326156962022651e-10, -1.227817847393453e-10, -1.1294787327642553e-10, -1.0311396181350574e-10, -9.328005035058595e-11, -8.344613888766617e-11, -7.361222742474638e-11, -6.377831596182659e-11, -5.3944404498906806e-11, -4.411049303598702e-11, -3.427658157306723e-11, -2.4442670110147446e-11, -1.460875864722766e-11, -4.774847184307873e-12, 5.059064278611913e-12, 1.48929757415317e-11, 2.4726887204451486e-11, 3.456079866737127e-11, 4.439471013029106e-11, 5.4228621593210846e-11, 6.406253305613063e-11, 7.389644451905042e-11, 8.37303559819702e-11, 9.356426744488999e-11, 1.0339817890780978e-10, 1.1323209037072957e-10, 1.2306600183364935e-10, 1.3289991329656914e-10, 1.4273382475948893e-10, 1.525677362224087e-10, 1.624016476853285e-10, 1.7223555914824829e-10, 1.8206947061116807e-10, 1.9190338207408786e-10, 2.0173729353700764e-10, 2.1157120499992743e-10, 2.2140511646284722e-10, 2.31239027925767e-10, 2.410729393886868e-10, 2.509068508516066e-10, 2.6074076231452636e-10, 2.7057467377744615e-10, 2.8040858524036594e-10, 2.902424967032857e-10, 3.000764081662055e-10, 3.099103196291253e-10, 3.197442310920451e-10, 3.2957814255496487e-10, 3.3941205401788466e-10, 3.4924596548080444e-10]}, "gradients/graph_1convs.1.lin_key.weight": {"_type": "histogram", "values": [1.0, 0.0, 0.0, 0.0, 0.0, 0.0, 0.0, 1.0, 1.0, 1.0, 2.0, 1.0, 5.0, 5.0, 4.0, 2.0, 2.0, 7.0, 4.0, 8.0, 13.0, 27.0, 20.0, 39.0, 43.0, 52.0, 83.0, 105.0, 169.0, 221.0, 259.0, 299.0, 381.0, 485.0, 566.0, 661.0, 628.0, 537.0, 445.0, 344.0, 279.0, 240.0, 169.0, 111.0, 87.0, 71.0, 42.0, 29.0, 24.0, 17.0, 12.0, 13.0, 8.0, 8.0, 9.0, 4.0, 8.0, 0.0, 1.0, 3.0, 3.0, 0.0, 0.0, 2.0], "bins": [-0.0023883827961981297, -0.002321473555639386, -0.0022545645479112864, -0.002187655307352543, -0.0021207460667937994, -0.002053836826235056, -0.001986927818506956, -0.0019200185779482126, -0.001853109453804791, -0.0017862003296613693, -0.0017192910891026258, -0.0016523819649592042, -0.0015854728408157825, -0.001518563600257039, -0.0014516544761136174, -0.0013847453519701958, -0.0013178361114114523, -0.0012509269872680306, -0.0011840177467092872, -0.0011171086225658655, -0.001050199382007122, -0.0009832902578637004, -0.0009163811337202787, -0.0008494719513691962, -0.0007825627690181136, -0.000715653586667031, -0.0006487444043159485, -0.0005818352801725268, -0.0005149260978214443, -0.0004480169154703617, -0.0003811077622231096, -0.0003141986089758575, -0.0002472896594554186, -0.00018038049165625125, -0.00011347132385708392, -4.656215605791658e-05, 2.0347011741250753e-05, 8.725619409233332e-05, 0.00015416534733958542, 0.00022107450058683753, 0.0002879836829379201, 0.00035489286528900266, 0.00042180201853625476, 0.0004887111717835069, 0.0005556203541345894, 0.000622529536485672, 0.0006894386606290936, 0.0007563478429801762, 0.0008232570253312588, 0.0008901662076823413, 0.0009570753900334239, 0.0010239845141768456, 0.001090893754735589, 0.0011578028788790107, 0.0012247120030224323, 0.0012916212435811758, 0.0013585303677245975, 0.001425439491868019, 0.0014923487324267626, 0.0015592578565701842, 0.0016261669807136059, 0.0016930762212723494, 0.001759985345415771, 0.0018268944695591927, 0.0018938037101179361]}, "gradients/graph_1convs.1.lin_query.bias": {"_type": "histogram", "values": [1.0, 0.0, 0.0, 0.0, 0.0, 1.0, 0.0, 1.0, 0.0, 2.0, 0.0, 1.0, 3.0, 3.0, 0.0, 2.0, 2.0, 4.0, 1.0, 1.0, 2.0, 4.0, 2.0, 5.0, 4.0, 1.0, 2.0, 1.0, 3.0, 3.0, 1.0, 3.0, 4.0, 3.0, 1.0, 2.0, 3.0, 1.0, 1.0, 0.0, 3.0, 1.0, 0.0, 0.0, 0.0, 1.0, 1.0, 3.0, 2.0, 0.0, 0.0, 0.0, 0.0, 0.0, 0.0, 0.0, 0.0, 1.0, 0.0, 0.0, 0.0, 0.0, 0.0, 1.0], "bins": [-0.0032830252312123775, -0.0031580463983118534, -0.0030330673325806856, -0.002908088266849518, -0.0027831094339489937, -0.0026581306010484695, -0.0025331515353173018, -0.002408172469586134, -0.00228319363668561, -0.0021582148037850857, -0.002033235738053918, -0.001908256788738072, -0.001783277839422226, -0.00165829889010638, -0.001533319940790534, -0.001408340991474688, -0.001283362042158842, -0.0011583830928429961, -0.0010334041435271502, -0.0009084251942113042, -0.0007834462448954582, -0.0006584672955796123, -0.0005334883462637663, -0.0004085093969479203, -0.00028353044763207436, -0.0001585514983162284, -3.3572549000382423e-05, 9.140640031546354e-05, 0.0002163853496313095, 0.0003413642989471555, 0.00046634324826300144, 0.0005913221975788474, 0.0007163016125559807, 0.0008412805618718266, 0.0009662595111876726, 0.0010912384605035186, 0.0012162174098193645, 0.0013411963591352105, 0.0014661753084510565, 0.0015911542577669024, 0.0017161332070827484, 0.0018411121563985944, 0.0019660911057144403, 0.002091070171445608, 0.0022160490043461323, 0.0023410278372466564, 0.002466006902977824, 0.002590985968708992, 0.002715964801609516, 0.0028409436345100403, 0.002965922700241208, 0.003090901765972376, 0.0032158805988729, 0.003340859431773424, 0.003465838497504592, 0.0035908175632357597, 0.003715796396136284, 0.003840775229036808, 0.003965754061937332, 0.004090733360499144, 0.004215712193399668, 0.004340691026300192, 0.004465670324862003, 0.0045906491577625275, 0.004715627990663052]}, "gradients/graph_1convs.1.lin_query.weight": {"_type": "histogram", "values": [1.0, 0.0, 0.0, 0.0, 0.0, 0.0, 0.0, 0.0, 2.0, 0.0, 1.0, 2.0, 0.0, 0.0, 0.0, 0.0, 1.0, 0.0, 1.0, 3.0, 2.0, 6.0, 5.0, 9.0, 8.0, 11.0, 19.0, 33.0, 38.0, 55.0, 81.0, 136.0, 187.0, 269.0, 415.0, 606.0, 853.0, 984.0, 827.0, 624.0, 442.0, 310.0, 180.0, 134.0, 94.0, 62.0, 42.0, 25.0, 20.0, 29.0, 6.0, 9.0, 4.0, 4.0, 5.0, 2.0, 1.0, 5.0, 1.0, 3.0, 1.0, 2.0, 0.0, 1.0], "bins": [-0.0037287303712219, -0.0036291731521487236, -0.0035296159330755472, -0.003430058714002371, -0.003330501262098551, -0.0032309440430253744, -0.003131386823952198, -0.0030318296048790216, -0.0029322723858058453, -0.002832715166732669, -0.0027331579476594925, -0.0026336004957556725, -0.002534043276682496, -0.0024344860576093197, -0.0023349288385361433, -0.002235371619462967, -0.002135814167559147, -0.0020362569484859705, -0.0019366996129974723, -0.001837142393924296, -0.0017375851748511195, -0.0016380278393626213, -0.001538470620289445, -0.0014389134012162685, -0.0013393561821430922, -0.0012397989630699158, -0.0011402416275814176, -0.0010406844085082412, -0.0009411271894350648, -0.0008415699121542275, -0.0007420126348733902, -0.0006424554158002138, -0.0005428981967270374, -0.0004433409485500306, -0.00034378370037302375, -0.00024422642309218645, -0.0001446691749151796, -4.511192673817277e-05, 5.444535054266453e-05, 0.0001540025696158409, 0.0002535598468966782, 0.00035311709507368505, 0.0004526743432506919, 0.0005522316205315292, 0.0006517888978123665, 0.0007513461168855429, 0.0008509033941663802, 0.0009504606132395566, 0.0010500178905203938, 0.0011495751095935702, 0.0012491324450820684, 0.0013486896641552448, 0.0014482468832284212, 0.0015478041023015976, 0.0016473614377900958, 0.0017469186568632722, 0.0018464759923517704, 0.0019460332114249468, 0.002045590430498123, 0.002145147882401943, 0.0022447051014751196, 0.002344262320548296, 0.0024438195396214724, 0.0025433767586946487, 0.002642933977767825]}, "gradients/graph_1convs.0.lin_skip.bias": {"_type": "histogram", "values": [1.0, 0.0, 0.0, 1.0, 0.0, 2.0, 1.0, 1.0, 0.0, 0.0, 0.0, 0.0, 1.0, 0.0, 1.0, 0.0, 0.0, 1.0, 0.0, 1.0, 2.0, 1.0, 1.0, 2.0, 2.0, 4.0, 0.0, 4.0, 1.0, 1.0, 1.0, 19.0, 2.0, 0.0, 1.0, 1.0, 4.0, 2.0, 2.0, 4.0, 1.0, 0.0, 3.0, 1.0, 0.0, 0.0, 1.0, 1.0, 0.0, 1.0, 1.0, 0.0, 1.0, 1.0, 1.0, 0.0, 2.0, 0.0, 1.0, 0.0, 1.0, 0.0, 0.0, 1.0], "bins": [-0.012481508776545525, -0.012081745080649853, -0.011681981384754181, -0.011282217688858509, -0.010882453992962837, -0.01048268936574459, -0.010082925669848919, -0.009683161973953247, -0.009283398278057575, -0.008883634582161903, -0.008483870886266232, -0.00808410719037056, -0.0076843430288136005, -0.007284579332917929, -0.0068848151713609695, -0.006485051475465298, -0.006085287779569626, -0.005685524083673954, -0.005285760387778282, -0.004885996226221323, -0.004486232530325651, -0.004086468834429979, -0.003686704905703664, -0.0032869409769773483, -0.0028871772810816765, -0.0024874135851860046, -0.002087649656459689, -0.0016878858441486955, -0.0012881220318377018, -0.00088835833594203, -0.0004885944072157145, -8.883047848939896e-05, 0.0003109341487288475, 0.0007106979610398412, 0.0011104617733508348, 0.0015102255856618285, 0.0019099893979728222, 0.002309753093868494, 0.0027095170225948095, 0.003109280951321125, 0.003509044647216797, 0.003908808343112469, 0.0043085720390081406, 0.0047083362005651, 0.0051080998964607716, 0.005507863592356443, 0.0059076277539134026, 0.006307391449809074, 0.006707155145704746, 0.007106918841600418, 0.00750668253749609, 0.007906446233391762, 0.008306210860610008, 0.008705973625183105, 0.009105738252401352, 0.009505501948297024, 0.009905265644192696, 0.010305029340088367, 0.01070479303598404, 0.011104556731879711, 0.011504320427775383, 0.01190408505499363, 0.012303848750889301, 0.012703612446784973, 0.013103376142680645]}, "gradients/graph_1convs.0.lin_skip.weight": {"_type": "histogram", "values": [1.0, 0.0, 0.0, 0.0, 0.0, 1.0, 2.0, 0.0, 1.0, 1.0, 2.0, 4.0, 3.0, 2.0, 2.0, 4.0, 3.0, 5.0, 1.0, 5.0, 5.0, 4.0, 3.0, 9.0, 1.0, 5.0, 4.0, 5.0, 11.0, 6.0, 118.0, 13.0, 3.0, 15.0, 13.0, 6.0, 7.0, 10.0, 8.0, 3.0, 2.0, 4.0, 2.0, 4.0, 4.0, 4.0, 3.0, 3.0, 0.0, 1.0, 1.0, 1.0, 1.0, 4.0, 2.0, 1.0, 0.0, 0.0, 0.0, 0.0, 0.0, 0.0, 0.0, 1.0], "bins": [-0.009488013572990894, -0.009176182560622692, -0.008864350616931915, -0.008552519604563713, -0.008240687660872936, -0.007928856648504734, -0.0076170251704752445, -0.007305193692445755, -0.0069933622144162655, -0.006681530736386776, -0.0063696992583572865, -0.006057867780327797, -0.005746036767959595, -0.005434204824268818, -0.005122373811900616, -0.004810542333871126, -0.004498710855841637, -0.004186879377812147, -0.0038750478997826576, -0.0035632166545838118, -0.0032513851765543222, -0.0029395536985248327, -0.002627722453325987, -0.0023158909752964973, -0.002004059497267008, -0.0016922280192375183, -0.0013803966576233506, -0.001068565296009183, -0.0007567338179796934, -0.0004449023399502039, -0.0001330709783360362, 0.00017876038327813148, 0.0004905909299850464, 0.000802422349806875, 0.0011142537696287036, 0.0014260851312428713, 0.0017379166092723608, 0.0020497480873018503, 0.002361579332500696, 0.0026734108105301857, 0.002985242288559675, 0.0032970737665891647, 0.0036089052446186543, 0.003920736722648144, 0.004232567735016346, 0.004544399678707123, 0.004856230691075325, 0.0051680621691048145, 0.005479893647134304, 0.0057917251251637936, 0.006103556603193283, 0.006415388081222773, 0.006727219559252262, 0.007039050571620464, 0.007350882049649954, 0.007662713527679443, 0.007974544540047646, 0.008286375552415848, 0.008598207496106625, 0.008910038508474827, 0.009221870452165604, 0.009533701464533806, 0.009845533408224583, 0.010157364420592785, 0.010469196364283562]}, "gradients/graph_1convs.0.lin_edge.weight": {"_type": "histogram", "values": [2.0, 0.0, 0.0, 0.0, 0.0, 0.0, 0.0, 3.0, 1.0, 0.0, 2.0, 4.0, 1.0, 1.0, 1.0, 3.0, 1.0, 3.0, 2.0, 0.0, 1.0, 11.0, 2.0, 4.0, 4.0, 7.0, 8.0, 1.0, 6.0, 8.0, 14.0, 22.0, 28.0, 13.0, 7.0, 7.0, 4.0, 6.0, 7.0, 3.0, 6.0, 2.0, 6.0, 10.0, 3.0, 4.0, 3.0, 0.0, 0.0, 3.0, 3.0, 5.0, 3.0, 0.0, 1.0, 1.0, 1.0, 0.0, 1.0, 0.0, 2.0, 1.0, 0.0, 1.0], "bins": [-0.005623102653771639, -0.0054458146914839745, -0.005268527194857597, -0.005091239232569933, -0.004913951735943556, -0.004736663773655891, -0.004559376277029514, -0.00438208831474185, -0.0042048003524541855, -0.004027512390166521, -0.003850224893540144, -0.0036729369312524796, -0.003495649201795459, -0.003318361472338438, -0.0031410737428814173, -0.0029637860134243965, -0.0027864982839673758, -0.002609210554510355, -0.0024319228250533342, -0.0022546350955963135, -0.002077347133308649, -0.0019000594038516283, -0.0017227716743946075, -0.001545483828522265, -0.0013681960990652442, -0.0011909083696082234, -0.0010136205237358809, -0.0008363327942788601, -0.0006590450066141784, -0.00048175721894949675, -0.000304469489492476, -0.0001271816436201334, 5.010608583688736e-05, 0.0002273938589496538, 0.00040468163206242025, 0.0005819693906232715, 0.0007592571782879531, 0.0009365449659526348, 0.0011138326954096556, 0.0012911205412819982, 0.001468408270739019, 0.0016456960001960397, 0.0018229838460683823, 0.002000271575525403, 0.0021775593049824238, 0.002354847267270088, 0.0025321347638964653, 0.0027094227261841297, 0.0028867104556411505, 0.0030639981850981712, 0.003241285914555192, 0.0034185736440122128, 0.003595861606299877, 0.003773149335756898, 0.003950437065213919, 0.004127725027501583, 0.00430501252412796, 0.004482300486415625, 0.004659587983042002, 0.004836875945329666, 0.005014163441956043, 0.005191451404243708, 0.005368739366531372, 0.005546026863157749, 0.005723314825445414]}, "gradients/graph_1convs.0.lin_value.bias": {"_type": "histogram", "values": [2.0, 1.0, 1.0, 0.0, 0.0, 1.0, 1.0, 0.0, 1.0, 0.0, 0.0, 1.0, 0.0, 1.0, 0.0, 0.0, 0.0, 1.0, 1.0, 1.0, 1.0, 2.0, 0.0, 2.0, 2.0, 4.0, 2.0, 3.0, 1.0, 1.0, 16.0, 3.0, 0.0, 2.0, 2.0, 1.0, 1.0, 2.0, 0.0, 2.0, 4.0, 0.0, 3.0, 2.0, 1.0, 0.0, 0.0, 1.0, 1.0, 0.0, 1.0, 1.0, 1.0, 0.0, 1.0, 0.0, 0.0, 0.0, 0.0, 3.0, 1.0, 0.0, 1.0, 1.0], "bins": [-0.011069337837398052, -0.010705879889428616, -0.010342421010136604, -0.009978963062167168, -0.009615505114197731, -0.009252047166228294, -0.008888589218258858, -0.008525130338966846, -0.00816167239099741, -0.007798214443027973, -0.007434756029397249, -0.007071297615766525, -0.006707839667797089, -0.006344381719827652, -0.005980923306196928, -0.005617464892566204, -0.005254006944596767, -0.004890548996627331, -0.004527090582996607, -0.004163632169365883, -0.0038001742213964462, -0.003436716040596366, -0.0030732578597962856, -0.0027097996789962053, -0.002346341498196125, -0.0019828833173960447, -0.0016194251365959644, -0.0012559669557958841, -0.0008925087749958038, -0.0005290505941957235, -0.00016559241339564323, 0.00019786576740443707, 0.0005613230168819427, 0.000924781197682023, 0.0012882393784821033, 0.0016516975592821836, 0.002015155740082264, 0.0023786139208823442, 0.0027420721016824245, 0.003105530282482505, 0.003468988463282585, 0.0038324466440826654, 0.004195904824882746, 0.00455936323851347, 0.004922821186482906, 0.005286279134452343, 0.005649737548083067, 0.006013195961713791, 0.0063766539096832275, 0.006740111857652664, 0.007103570271283388, 0.007467028684914112, 0.007830486632883549, 0.008193944580852985, 0.008557403460144997, 0.008920861408114433, 0.00928431935608387, 0.009647777304053307, 0.010011235252022743, 0.010374694131314754, 0.010738152079284191, 0.011101610027253628, 0.011465068906545639, 0.011828526854515076, 0.012191984802484512]}, "gradients/graph_1convs.0.lin_value.weight": {"_type": "histogram", "values": [1.0, 0.0, 0.0, 0.0, 0.0, 1.0, 1.0, 1.0, 1.0, 1.0, 0.0, 1.0, 0.0, 0.0, 0.0, 2.0, 1.0, 0.0, 1.0, 6.0, 2.0, 2.0, 0.0, 7.0, 7.0, 7.0, 10.0, 7.0, 4.0, 11.0, 9.0, 7.0, 21.0, 13.0, 78.0, 10.0, 16.0, 5.0, 10.0, 6.0, 5.0, 5.0, 4.0, 6.0, 9.0, 4.0, 8.0, 5.0, 8.0, 2.0, 1.0, 4.0, 1.0, 5.0, 1.0, 1.0, 0.0, 0.0, 1.0, 0.0, 2.0, 0.0, 2.0, 1.0], "bins": [-0.008017893880605698, -0.007784591987729073, -0.0075512900948524475, -0.00731798866763711, -0.007084686774760485, -0.00685138488188386, -0.006618083454668522, -0.006384781561791897, -0.006151479668915272, -0.005918177776038647, -0.005684875883162022, -0.005451574455946684, -0.005218272563070059, -0.004984970670193434, -0.004751669242978096, -0.004518367350101471, -0.004285065457224846, -0.004051763564348221, -0.0038184619043022394, -0.003585160244256258, -0.003351858351379633, -0.003118556458503008, -0.0028852547984570265, -0.002651953138411045, -0.00241865124553442, -0.002185349352657795, -0.0019520476926118135, -0.0017187459161505103, -0.001485444139689207, -0.0012521423632279038, -0.0010188405867666006, -0.0007855388103052974, -0.0005522365681827068, -0.0003189347917214036, -8.563301526010036e-05, 0.00014766876120120287, 0.0003809705376625061, 0.0006142723141238093, 0.0008475740905851126, 0.0010808758670464158, 0.001314177643507719, 0.0015474794199690223, 0.0017807811964303255, 0.002014082856476307, 0.002247384749352932, 0.002480686642229557, 0.0027139883022755384, 0.00294728996232152, 0.003180591855198145, 0.00341389374807477, 0.0036471954081207514, 0.003880497068166733, 0.004113798961043358, 0.004347100853919983, 0.004580402746796608, 0.004813704174011946, 0.005047006066888571, 0.005280307959765196, 0.005513609386980534, 0.005746911279857159, 0.005980213172733784, 0.006213515065610409, 0.006446816958487034, 0.006680118385702372, 0.006913420278578997]}, "gradients/graph_1convs.0.lin_key.bias": {"_type": "histogram", "values": [1.0, 0.0, 0.0, 0.0, 0.0, 0.0, 0.0, 0.0, 0.0, 0.0, 0.0, 0.0, 0.0, 0.0, 0.0, 0.0, 1.0, 0.0, 0.0, 0.0, 4.0, 0.0, 0.0, 0.0, 5.0, 0.0, 2.0, 2.0, 5.0, 1.0, 3.0, 0.0, 5.0, 1.0, 5.0, 1.0, 11.0, 1.0, 6.0, 2.0, 8.0, 2.0, 1.0, 1.0, 8.0, 1.0, 0.0, 0.0, 3.0, 0.0, 0.0, 0.0, 0.0, 0.0, 0.0, 0.0, 0.0, 0.0, 0.0, 0.0, 0.0, 0.0, 0.0, 1.0], "bins": [-2.6193447411060333e-10, -2.546585164964199e-10, -2.473825588822365e-10, -2.4010660126805305e-10, -2.3283064365386963e-10, -2.255546860396862e-10, -2.1827872842550278e-10, -2.1100277081131935e-10, -2.0372681319713593e-10, -1.964508555829525e-10, -1.8917489796876907e-10, -1.8189894035458565e-10, -1.7462298274040222e-10, -1.673470251262188e-10, -1.6007106751203537e-10, -1.5279510989785194e-10, -1.4551915228366852e-10, -1.382431946694851e-10, -1.3096723705530167e-10, -1.2369127944111824e-10, -1.1641532182693481e-10, -1.0913936421275139e-10, -1.0186340659856796e-10, -9.458744898438454e-11, -8.731149137020111e-11, -8.003553375601768e-11, -7.275957614183426e-11, -6.548361852765083e-11, -5.820766091346741e-11, -5.093170329928398e-11, -4.3655745685100555e-11, -3.637978807091713e-11, -2.9103830456733704e-11, -2.1827872842550278e-11, -1.4551915228366852e-11, -7.275957614183426e-12, 0.0, 7.275957614183426e-12, 1.4551915228366852e-11, 2.1827872842550278e-11, 2.9103830456733704e-11, 3.637978807091713e-11, 4.3655745685100555e-11, 5.093170329928398e-11, 5.820766091346741e-11, 6.548361852765083e-11, 7.275957614183426e-11, 8.003553375601768e-11, 8.731149137020111e-11, 9.458744898438454e-11, 1.0186340659856796e-10, 1.0913936421275139e-10, 1.1641532182693481e-10, 1.2369127944111824e-10, 1.3096723705530167e-10, 1.382431946694851e-10, 1.4551915228366852e-10, 1.5279510989785194e-10, 1.6007106751203537e-10, 1.673470251262188e-10, 1.7462298274040222e-10, 1.8189894035458565e-10, 1.8917489796876907e-10, 1.964508555829525e-10, 2.0372681319713593e-10]}, "gradients/graph_1convs.0.lin_key.weight": {"_type": "histogram", "values": [1.0, 1.0, 1.0, 0.0, 0.0, 1.0, 1.0, 0.0, 2.0, 1.0, 6.0, 1.0, 0.0, 1.0, 1.0, 7.0, 6.0, 5.0, 9.0, 4.0, 9.0, 11.0, 13.0, 12.0, 8.0, 14.0, 14.0, 11.0, 18.0, 22.0, 6.0, 23.0, 16.0, 15.0, 14.0, 9.0, 12.0, 9.0, 4.0, 3.0, 3.0, 5.0, 1.0, 2.0, 2.0, 4.0, 4.0, 0.0, 2.0, 0.0, 2.0, 0.0, 2.0, 1.0, 1.0, 0.0, 1.0, 0.0, 1.0, 1.0, 0.0, 0.0, 0.0, 1.0], "bins": [-0.0005619764560833573, -0.0005426377174444497, -0.000523298978805542, -0.0005039602401666343, -0.00048462150152772665, -0.000465282762888819, -0.00044594405335374177, -0.0004266053147148341, -0.0004072665760759264, -0.00038792783743701875, -0.0003685890987981111, -0.0003492503601592034, -0.0003299116506241262, -0.0003105729119852185, -0.00029123417334631085, -0.0002718954347074032, -0.0002525566960684955, -0.00023321795742958784, -0.00021387921879068017, -0.00019454049470368773, -0.00017520175606478006, -0.00015586301742587239, -0.00013652429333887994, -0.00011718555469997227, -9.78468160610646e-05, -7.850807742215693e-05, -5.916934605920687e-05, -3.983061105827801e-05, -2.0491876057349145e-05, -1.1531374184414744e-06, 1.8185593944508582e-05, 3.752432530745864e-05, 5.6863122154027224e-05, 7.62018607929349e-05, 9.554059215588495e-05, 0.00011487932351883501, 0.00013421806215774268, 0.00015355680079665035, 0.0001728955248836428, 0.00019223426352255046, 0.00021157300216145813, 0.0002309117408003658, 0.0002502504794392735, 0.00026958921807818115, 0.00028892792761325836, 0.00030826666625216603, 0.0003276054048910737, 0.0003469441435299814, 0.00036628288216888905, 0.0003856216208077967, 0.0004049603594467044, 0.00042429909808561206, 0.00044363783672451973, 0.0004629765753634274, 0.0004823152848985046, 0.0005016539944335818, 0.0005209927912801504, 0.0005403315299190581, 0.0005596702685579658, 0.0005790090071968734, 0.0005983477458357811, 0.0006176864844746888, 0.0006370252231135964, 0.0006563639035448432, 0.0006757026421837509]}, "gradients/graph_1convs.0.lin_query.bias": {"_type": "histogram", "values": [1.0, 0.0, 0.0, 0.0, 1.0, 0.0, 0.0, 1.0, 1.0, 0.0, 1.0, 0.0, 1.0, 1.0, 0.0, 3.0, 1.0, 0.0, 2.0, 2.0, 1.0, 1.0, 2.0, 1.0, 3.0, 3.0, 2.0, 1.0, 3.0, 2.0, 3.0, 1.0, 0.0, 2.0, 1.0, 2.0, 4.0, 5.0, 3.0, 1.0, 0.0, 1.0, 2.0, 3.0, 1.0, 2.0, 2.0, 2.0, 3.0, 0.0, 0.0, 0.0, 3.0, 2.0, 1.0, 0.0, 1.0, 0.0, 0.0, 1.0, 0.0, 0.0, 0.0, 1.0], "bins": [-0.0008297275053337216, -0.0008040646789595485, -0.0007784018525853753, -0.0007527390844188631, -0.0007270762580446899, -0.0007014134316705167, -0.0006757506635040045, -0.0006500878371298313, -0.0006244250107556581, -0.000598762184381485, -0.0005730993580073118, -0.0005474365898407996, -0.0005217737634666264, -0.0004961109370924532, -0.00047044813982211053, -0.0004447853425517678, -0.00041912251617759466, -0.0003934596898034215, -0.0003677968925330788, -0.0003421340952627361, -0.0003164712688885629, -0.00029080844251438975, -0.00026514564524404705, -0.0002394828334217891, -0.00021382002159953117, -0.00018815720977727324, -0.0001624943979550153, -0.00013683158613275737, -0.00011116877431049943, -8.55059624882415e-05, -5.984315066598356e-05, -3.418033884372562e-05, -8.517468813806772e-06, 1.7145343008451164e-05, 4.28081548307091e-05, 6.847096665296704e-05, 9.413377847522497e-05, 0.00011979659029748291, 0.00014545940211974084, 0.00017112221394199878, 0.00019678502576425672, 0.00022244783758651465, 0.0002481106494087726, 0.0002737734466791153, 0.00029943627305328846, 0.0003250990994274616, 0.00035076189669780433, 0.00037642469396814704, 0.0004020875203423202, 0.00042775034671649337, 0.0004534131439868361, 0.0004790759412571788, 0.000504738767631352, 0.0005304015940055251, 0.0005560644203796983, 0.0005817271885462105, 0.0006073900149203837, 0.0006330528412945569, 0.0006587156094610691, 0.0006843784358352423, 0.0007100412622094154, 0.0007357040885835886, 0.0007613669149577618, 0.000787029683124274, 0.0008126925094984472]}, "gradients/graph_1convs.0.lin_query.weight": {"_type": "histogram", "values": [2.0, 0.0, 1.0, 1.0, 0.0, 3.0, 2.0, 1.0, 1.0, 3.0, 2.0, 1.0, 2.0, 2.0, 3.0, 2.0, 3.0, 3.0, 2.0, 1.0, 10.0, 12.0, 2.0, 5.0, 11.0, 10.0, 10.0, 11.0, 7.0, 7.0, 25.0, 5.0, 9.0, 10.0, 9.0, 5.0, 14.0, 16.0, 9.0, 7.0, 10.0, 12.0, 17.0, 7.0, 4.0, 5.0, 7.0, 4.0, 3.0, 3.0, 3.0, 2.0, 3.0, 3.0, 3.0, 1.0, 0.0, 1.0, 3.0, 0.0, 1.0, 0.0, 1.0, 2.0], "bins": [-0.0005225922795943916, -0.0005066014709882438, -0.0004906106041744351, -0.00047461979556828737, -0.0004586289869621396, -0.0004426381492521614, -0.00042664731154218316, -0.0004106565029360354, -0.00039466569432988763, -0.0003786748566199094, -0.00036268404801376164, -0.0003466932103037834, -0.00033070240169763565, -0.00031471156398765743, -0.0002987207262776792, -0.00028272991767153144, -0.0002667390799615532, -0.000250748242251575, -0.00023475743364542723, -0.000218766595935449, -0.00020277578732930124, -0.00018678494961932302, -0.00017079412646126002, -0.00015480330330319703, -0.00013881248014513403, -0.00012282165698707104, -0.00010683083382900804, -9.084000339498743e-05, -7.484918023692444e-05, -5.8858357078861445e-05, -4.2867526644840837e-05, -2.6876703486777842e-05, -1.0885880328714848e-05, 5.1049446483375505e-06, 2.109576962538995e-05, 3.708659642143175e-05, 5.3077419579494745e-05, 6.906824273755774e-05, 8.505907317157835e-05, 0.00010104989632964134, 0.00011704071948770434, 0.00013303154264576733, 0.00014902236580383033, 0.00016501318896189332, 0.00018100402667187154, 0.0001969948352780193, 0.00021298567298799753, 0.00022897649614606053, 0.0002449673193041235, 0.00026095815701410174, 0.0002769489656202495, 0.00029293980333022773, 0.0003089306119363755, 0.0003249214496463537, 0.0003409122582525015, 0.0003569030959624797, 0.00037289393367245793, 0.00038888477138243616, 0.0004048755799885839, 0.00042086641769856215, 0.0004368572263047099, 0.00045284806401468813, 0.00046883890172466636, 0.0004848297103308141, 0.0005008205189369619]}, "_wandb": {"runtime": 206}}